tree
version=v2
num_class=2
num_tree_per_iteration=2
label_index=0
max_feature_idx=3072
objective=multiclass num_class:2
feature_names=Column_0 Column_1 Column_2 Column_3 Column_4 Column_5 Column_6 Column_7 Column_8 Column_9 Column_10 Column_11 Column_12 Column_13 Column_14 Column_15 Column_16 Column_17 Column_18 Column_19 Column_20 Column_21 Column_22 Column_23 Column_24 Column_25 Column_26 Column_27 Column_28 Column_29 Column_30 Column_31 Column_32 Column_33 Column_34 Column_35 Column_36 Column_37 Column_38 Column_39 Column_40 Column_41 Column_42 Column_43 Column_44 Column_45 Column_46 Column_47 Column_48 Column_49 Column_50 Column_51 Column_52 Column_53 Column_54 Column_55 Column_56 Column_57 Column_58 Column_59 Column_60 Column_61 Column_62 Column_63 Column_64 Column_65 Column_66 Column_67 Column_68 Column_69 Column_70 Column_71 Column_72 Column_73 Column_74 Column_75 Column_76 Column_77 Column_78 Column_79 Column_80 Column_81 Column_82 Column_83 Column_84 Column_85 Column_86 Column_87 Column_88 Column_89 Column_90 Column_91 Column_92 Column_93 Column_94 Column_95 Column_96 Column_97 Column_98 Column_99 Column_100 Column_101 Column_102 Column_103 Column_104 Column_105 Column_106 Column_107 Column_108 Column_109 Column_110 Column_111 Column_112 Column_113 Column_114 Column_115 Column_116 Column_117 Column_118 Column_119 Column_120 Column_121 Column_122 Column_123 Column_124 Column_125 Column_126 Column_127 Column_128 Column_129 Column_130 Column_131 Column_132 Column_133 Column_134 Column_135 Column_136 Column_137 Column_138 Column_139 Column_140 Column_141 Column_142 Column_143 Column_144 Column_145 Column_146 Column_147 Column_148 Column_149 Column_150 Column_151 Column_152 Column_153 Column_154 Column_155 Column_156 Column_157 Column_158 Column_159 Column_160 Column_161 Column_162 Column_163 Column_164 Column_165 Column_166 Column_167 Column_168 Column_169 Column_170 Column_171 Column_172 Column_173 Column_174 Column_175 Column_176 Column_177 Column_178 Column_179 Column_180 Column_181 Column_182 Column_183 Column_184 Column_185 Column_186 Column_187 Column_188 Column_189 Column_190 Column_191 Column_192 Column_193 Column_194 Column_195 Column_196 Column_197 Column_198 Column_199 Column_200 Column_201 Column_202 Column_203 Column_204 Column_205 Column_206 Column_207 Column_208 Column_209 Column_210 Column_211 Column_212 Column_213 Column_214 Column_215 Column_216 Column_217 Column_218 Column_219 Column_220 Column_221 Column_222 Column_223 Column_224 Column_225 Column_226 Column_227 Column_228 Column_229 Column_230 Column_231 Column_232 Column_233 Column_234 Column_235 Column_236 Column_237 Column_238 Column_239 Column_240 Column_241 Column_242 Column_243 Column_244 Column_245 Column_246 Column_247 Column_248 Column_249 Column_250 Column_251 Column_252 Column_253 Column_254 Column_255 Column_256 Column_257 Column_258 Column_259 Column_260 Column_261 Column_262 Column_263 Column_264 Column_265 Column_266 Column_267 Column_268 Column_269 Column_270 Column_271 Column_272 Column_273 Column_274 Column_275 Column_276 Column_277 Column_278 Column_279 Column_280 Column_281 Column_282 Column_283 Column_284 Column_285 Column_286 Column_287 Column_288 Column_289 Column_290 Column_291 Column_292 Column_293 Column_294 Column_295 Column_296 Column_297 Column_298 Column_299 Column_300 Column_301 Column_302 Column_303 Column_304 Column_305 Column_306 Column_307 Column_308 Column_309 Column_310 Column_311 Column_312 Column_313 Column_314 Column_315 Column_316 Column_317 Column_318 Column_319 Column_320 Column_321 Column_322 Column_323 Column_324 Column_325 Column_326 Column_327 Column_328 Column_329 Column_330 Column_331 Column_332 Column_333 Column_334 Column_335 Column_336 Column_337 Column_338 Column_339 Column_340 Column_341 Column_342 Column_343 Column_344 Column_345 Column_346 Column_347 Column_348 Column_349 Column_350 Column_351 Column_352 Column_353 Column_354 Column_355 Column_356 Column_357 Column_358 Column_359 Column_360 Column_361 Column_362 Column_363 Column_364 Column_365 Column_366 Column_367 Column_368 Column_369 Column_370 Column_371 Column_372 Column_373 Column_374 Column_375 Column_376 Column_377 Column_378 Column_379 Column_380 Column_381 Column_382 Column_383 Column_384 Column_385 Column_386 Column_387 Column_388 Column_389 Column_390 Column_391 Column_392 Column_393 Column_394 Column_395 Column_396 Column_397 Column_398 Column_399 Column_400 Column_401 Column_402 Column_403 Column_404 Column_405 Column_406 Column_407 Column_408 Column_409 Column_410 Column_411 Column_412 Column_413 Column_414 Column_415 Column_416 Column_417 Column_418 Column_419 Column_420 Column_421 Column_422 Column_423 Column_424 Column_425 Column_426 Column_427 Column_428 Column_429 Column_430 Column_431 Column_432 Column_433 Column_434 Column_435 Column_436 Column_437 Column_438 Column_439 Column_440 Column_441 Column_442 Column_443 Column_444 Column_445 Column_446 Column_447 Column_448 Column_449 Column_450 Column_451 Column_452 Column_453 Column_454 Column_455 Column_456 Column_457 Column_458 Column_459 Column_460 Column_461 Column_462 Column_463 Column_464 Column_465 Column_466 Column_467 Column_468 Column_469 Column_470 Column_471 Column_472 Column_473 Column_474 Column_475 Column_476 Column_477 Column_478 Column_479 Column_480 Column_481 Column_482 Column_483 Column_484 Column_485 Column_486 Column_487 Column_488 Column_489 Column_490 Column_491 Column_492 Column_493 Column_494 Column_495 Column_496 Column_497 Column_498 Column_499 Column_500 Column_501 Column_502 Column_503 Column_504 Column_505 Column_506 Column_507 Column_508 Column_509 Column_510 Column_511 Column_512 Column_513 Column_514 Column_515 Column_516 Column_517 Column_518 Column_519 Column_520 Column_521 Column_522 Column_523 Column_524 Column_525 Column_526 Column_527 Column_528 Column_529 Column_530 Column_531 Column_532 Column_533 Column_534 Column_535 Column_536 Column_537 Column_538 Column_539 Column_540 Column_541 Column_542 Column_543 Column_544 Column_545 Column_546 Column_547 Column_548 Column_549 Column_550 Column_551 Column_552 Column_553 Column_554 Column_555 Column_556 Column_557 Column_558 Column_559 Column_560 Column_561 Column_562 Column_563 Column_564 Column_565 Column_566 Column_567 Column_568 Column_569 Column_570 Column_571 Column_572 Column_573 Column_574 Column_575 Column_576 Column_577 Column_578 Column_579 Column_580 Column_581 Column_582 Column_583 Column_584 Column_585 Column_586 Column_587 Column_588 Column_589 Column_590 Column_591 Column_592 Column_593 Column_594 Column_595 Column_596 Column_597 Column_598 Column_599 Column_600 Column_601 Column_602 Column_603 Column_604 Column_605 Column_606 Column_607 Column_608 Column_609 Column_610 Column_611 Column_612 Column_613 Column_614 Column_615 Column_616 Column_617 Column_618 Column_619 Column_620 Column_621 Column_622 Column_623 Column_624 Column_625 Column_626 Column_627 Column_628 Column_629 Column_630 Column_631 Column_632 Column_633 Column_634 Column_635 Column_636 Column_637 Column_638 Column_639 Column_640 Column_641 Column_642 Column_643 Column_644 Column_645 Column_646 Column_647 Column_648 Column_649 Column_650 Column_651 Column_652 Column_653 Column_654 Column_655 Column_656 Column_657 Column_658 Column_659 Column_660 Column_661 Column_662 Column_663 Column_664 Column_665 Column_666 Column_667 Column_668 Column_669 Column_670 Column_671 Column_672 Column_673 Column_674 Column_675 Column_676 Column_677 Column_678 Column_679 Column_680 Column_681 Column_682 Column_683 Column_684 Column_685 Column_686 Column_687 Column_688 Column_689 Column_690 Column_691 Column_692 Column_693 Column_694 Column_695 Column_696 Column_697 Column_698 Column_699 Column_700 Column_701 Column_702 Column_703 Column_704 Column_705 Column_706 Column_707 Column_708 Column_709 Column_710 Column_711 Column_712 Column_713 Column_714 Column_715 Column_716 Column_717 Column_718 Column_719 Column_720 Column_721 Column_722 Column_723 Column_724 Column_725 Column_726 Column_727 Column_728 Column_729 Column_730 Column_731 Column_732 Column_733 Column_734 Column_735 Column_736 Column_737 Column_738 Column_739 Column_740 Column_741 Column_742 Column_743 Column_744 Column_745 Column_746 Column_747 Column_748 Column_749 Column_750 Column_751 Column_752 Column_753 Column_754 Column_755 Column_756 Column_757 Column_758 Column_759 Column_760 Column_761 Column_762 Column_763 Column_764 Column_765 Column_766 Column_767 Column_768 Column_769 Column_770 Column_771 Column_772 Column_773 Column_774 Column_775 Column_776 Column_777 Column_778 Column_779 Column_780 Column_781 Column_782 Column_783 Column_784 Column_785 Column_786 Column_787 Column_788 Column_789 Column_790 Column_791 Column_792 Column_793 Column_794 Column_795 Column_796 Column_797 Column_798 Column_799 Column_800 Column_801 Column_802 Column_803 Column_804 Column_805 Column_806 Column_807 Column_808 Column_809 Column_810 Column_811 Column_812 Column_813 Column_814 Column_815 Column_816 Column_817 Column_818 Column_819 Column_820 Column_821 Column_822 Column_823 Column_824 Column_825 Column_826 Column_827 Column_828 Column_829 Column_830 Column_831 Column_832 Column_833 Column_834 Column_835 Column_836 Column_837 Column_838 Column_839 Column_840 Column_841 Column_842 Column_843 Column_844 Column_845 Column_846 Column_847 Column_848 Column_849 Column_850 Column_851 Column_852 Column_853 Column_854 Column_855 Column_856 Column_857 Column_858 Column_859 Column_860 Column_861 Column_862 Column_863 Column_864 Column_865 Column_866 Column_867 Column_868 Column_869 Column_870 Column_871 Column_872 Column_873 Column_874 Column_875 Column_876 Column_877 Column_878 Column_879 Column_880 Column_881 Column_882 Column_883 Column_884 Column_885 Column_886 Column_887 Column_888 Column_889 Column_890 Column_891 Column_892 Column_893 Column_894 Column_895 Column_896 Column_897 Column_898 Column_899 Column_900 Column_901 Column_902 Column_903 Column_904 Column_905 Column_906 Column_907 Column_908 Column_909 Column_910 Column_911 Column_912 Column_913 Column_914 Column_915 Column_916 Column_917 Column_918 Column_919 Column_920 Column_921 Column_922 Column_923 Column_924 Column_925 Column_926 Column_927 Column_928 Column_929 Column_930 Column_931 Column_932 Column_933 Column_934 Column_935 Column_936 Column_937 Column_938 Column_939 Column_940 Column_941 Column_942 Column_943 Column_944 Column_945 Column_946 Column_947 Column_948 Column_949 Column_950 Column_951 Column_952 Column_953 Column_954 Column_955 Column_956 Column_957 Column_958 Column_959 Column_960 Column_961 Column_962 Column_963 Column_964 Column_965 Column_966 Column_967 Column_968 Column_969 Column_970 Column_971 Column_972 Column_973 Column_974 Column_975 Column_976 Column_977 Column_978 Column_979 Column_980 Column_981 Column_982 Column_983 Column_984 Column_985 Column_986 Column_987 Column_988 Column_989 Column_990 Column_991 Column_992 Column_993 Column_994 Column_995 Column_996 Column_997 Column_998 Column_999 Column_1000 Column_1001 Column_1002 Column_1003 Column_1004 Column_1005 Column_1006 Column_1007 Column_1008 Column_1009 Column_1010 Column_1011 Column_1012 Column_1013 Column_1014 Column_1015 Column_1016 Column_1017 Column_1018 Column_1019 Column_1020 Column_1021 Column_1022 Column_1023 Column_1024 Column_1025 Column_1026 Column_1027 Column_1028 Column_1029 Column_1030 Column_1031 Column_1032 Column_1033 Column_1034 Column_1035 Column_1036 Column_1037 Column_1038 Column_1039 Column_1040 Column_1041 Column_1042 Column_1043 Column_1044 Column_1045 Column_1046 Column_1047 Column_1048 Column_1049 Column_1050 Column_1051 Column_1052 Column_1053 Column_1054 Column_1055 Column_1056 Column_1057 Column_1058 Column_1059 Column_1060 Column_1061 Column_1062 Column_1063 Column_1064 Column_1065 Column_1066 Column_1067 Column_1068 Column_1069 Column_1070 Column_1071 Column_1072 Column_1073 Column_1074 Column_1075 Column_1076 Column_1077 Column_1078 Column_1079 Column_1080 Column_1081 Column_1082 Column_1083 Column_1084 Column_1085 Column_1086 Column_1087 Column_1088 Column_1089 Column_1090 Column_1091 Column_1092 Column_1093 Column_1094 Column_1095 Column_1096 Column_1097 Column_1098 Column_1099 Column_1100 Column_1101 Column_1102 Column_1103 Column_1104 Column_1105 Column_1106 Column_1107 Column_1108 Column_1109 Column_1110 Column_1111 Column_1112 Column_1113 Column_1114 Column_1115 Column_1116 Column_1117 Column_1118 Column_1119 Column_1120 Column_1121 Column_1122 Column_1123 Column_1124 Column_1125 Column_1126 Column_1127 Column_1128 Column_1129 Column_1130 Column_1131 Column_1132 Column_1133 Column_1134 Column_1135 Column_1136 Column_1137 Column_1138 Column_1139 Column_1140 Column_1141 Column_1142 Column_1143 Column_1144 Column_1145 Column_1146 Column_1147 Column_1148 Column_1149 Column_1150 Column_1151 Column_1152 Column_1153 Column_1154 Column_1155 Column_1156 Column_1157 Column_1158 Column_1159 Column_1160 Column_1161 Column_1162 Column_1163 Column_1164 Column_1165 Column_1166 Column_1167 Column_1168 Column_1169 Column_1170 Column_1171 Column_1172 Column_1173 Column_1174 Column_1175 Column_1176 Column_1177 Column_1178 Column_1179 Column_1180 Column_1181 Column_1182 Column_1183 Column_1184 Column_1185 Column_1186 Column_1187 Column_1188 Column_1189 Column_1190 Column_1191 Column_1192 Column_1193 Column_1194 Column_1195 Column_1196 Column_1197 Column_1198 Column_1199 Column_1200 Column_1201 Column_1202 Column_1203 Column_1204 Column_1205 Column_1206 Column_1207 Column_1208 Column_1209 Column_1210 Column_1211 Column_1212 Column_1213 Column_1214 Column_1215 Column_1216 Column_1217 Column_1218 Column_1219 Column_1220 Column_1221 Column_1222 Column_1223 Column_1224 Column_1225 Column_1226 Column_1227 Column_1228 Column_1229 Column_1230 Column_1231 Column_1232 Column_1233 Column_1234 Column_1235 Column_1236 Column_1237 Column_1238 Column_1239 Column_1240 Column_1241 Column_1242 Column_1243 Column_1244 Column_1245 Column_1246 Column_1247 Column_1248 Column_1249 Column_1250 Column_1251 Column_1252 Column_1253 Column_1254 Column_1255 Column_1256 Column_1257 Column_1258 Column_1259 Column_1260 Column_1261 Column_1262 Column_1263 Column_1264 Column_1265 Column_1266 Column_1267 Column_1268 Column_1269 Column_1270 Column_1271 Column_1272 Column_1273 Column_1274 Column_1275 Column_1276 Column_1277 Column_1278 Column_1279 Column_1280 Column_1281 Column_1282 Column_1283 Column_1284 Column_1285 Column_1286 Column_1287 Column_1288 Column_1289 Column_1290 Column_1291 Column_1292 Column_1293 Column_1294 Column_1295 Column_1296 Column_1297 Column_1298 Column_1299 Column_1300 Column_1301 Column_1302 Column_1303 Column_1304 Column_1305 Column_1306 Column_1307 Column_1308 Column_1309 Column_1310 Column_1311 Column_1312 Column_1313 Column_1314 Column_1315 Column_1316 Column_1317 Column_1318 Column_1319 Column_1320 Column_1321 Column_1322 Column_1323 Column_1324 Column_1325 Column_1326 Column_1327 Column_1328 Column_1329 Column_1330 Column_1331 Column_1332 Column_1333 Column_1334 Column_1335 Column_1336 Column_1337 Column_1338 Column_1339 Column_1340 Column_1341 Column_1342 Column_1343 Column_1344 Column_1345 Column_1346 Column_1347 Column_1348 Column_1349 Column_1350 Column_1351 Column_1352 Column_1353 Column_1354 Column_1355 Column_1356 Column_1357 Column_1358 Column_1359 Column_1360 Column_1361 Column_1362 Column_1363 Column_1364 Column_1365 Column_1366 Column_1367 Column_1368 Column_1369 Column_1370 Column_1371 Column_1372 Column_1373 Column_1374 Column_1375 Column_1376 Column_1377 Column_1378 Column_1379 Column_1380 Column_1381 Column_1382 Column_1383 Column_1384 Column_1385 Column_1386 Column_1387 Column_1388 Column_1389 Column_1390 Column_1391 Column_1392 Column_1393 Column_1394 Column_1395 Column_1396 Column_1397 Column_1398 Column_1399 Column_1400 Column_1401 Column_1402 Column_1403 Column_1404 Column_1405 Column_1406 Column_1407 Column_1408 Column_1409 Column_1410 Column_1411 Column_1412 Column_1413 Column_1414 Column_1415 Column_1416 Column_1417 Column_1418 Column_1419 Column_1420 Column_1421 Column_1422 Column_1423 Column_1424 Column_1425 Column_1426 Column_1427 Column_1428 Column_1429 Column_1430 Column_1431 Column_1432 Column_1433 Column_1434 Column_1435 Column_1436 Column_1437 Column_1438 Column_1439 Column_1440 Column_1441 Column_1442 Column_1443 Column_1444 Column_1445 Column_1446 Column_1447 Column_1448 Column_1449 Column_1450 Column_1451 Column_1452 Column_1453 Column_1454 Column_1455 Column_1456 Column_1457 Column_1458 Column_1459 Column_1460 Column_1461 Column_1462 Column_1463 Column_1464 Column_1465 Column_1466 Column_1467 Column_1468 Column_1469 Column_1470 Column_1471 Column_1472 Column_1473 Column_1474 Column_1475 Column_1476 Column_1477 Column_1478 Column_1479 Column_1480 Column_1481 Column_1482 Column_1483 Column_1484 Column_1485 Column_1486 Column_1487 Column_1488 Column_1489 Column_1490 Column_1491 Column_1492 Column_1493 Column_1494 Column_1495 Column_1496 Column_1497 Column_1498 Column_1499 Column_1500 Column_1501 Column_1502 Column_1503 Column_1504 Column_1505 Column_1506 Column_1507 Column_1508 Column_1509 Column_1510 Column_1511 Column_1512 Column_1513 Column_1514 Column_1515 Column_1516 Column_1517 Column_1518 Column_1519 Column_1520 Column_1521 Column_1522 Column_1523 Column_1524 Column_1525 Column_1526 Column_1527 Column_1528 Column_1529 Column_1530 Column_1531 Column_1532 Column_1533 Column_1534 Column_1535 Column_1536 Column_1537 Column_1538 Column_1539 Column_1540 Column_1541 Column_1542 Column_1543 Column_1544 Column_1545 Column_1546 Column_1547 Column_1548 Column_1549 Column_1550 Column_1551 Column_1552 Column_1553 Column_1554 Column_1555 Column_1556 Column_1557 Column_1558 Column_1559 Column_1560 Column_1561 Column_1562 Column_1563 Column_1564 Column_1565 Column_1566 Column_1567 Column_1568 Column_1569 Column_1570 Column_1571 Column_1572 Column_1573 Column_1574 Column_1575 Column_1576 Column_1577 Column_1578 Column_1579 Column_1580 Column_1581 Column_1582 Column_1583 Column_1584 Column_1585 Column_1586 Column_1587 Column_1588 Column_1589 Column_1590 Column_1591 Column_1592 Column_1593 Column_1594 Column_1595 Column_1596 Column_1597 Column_1598 Column_1599 Column_1600 Column_1601 Column_1602 Column_1603 Column_1604 Column_1605 Column_1606 Column_1607 Column_1608 Column_1609 Column_1610 Column_1611 Column_1612 Column_1613 Column_1614 Column_1615 Column_1616 Column_1617 Column_1618 Column_1619 Column_1620 Column_1621 Column_1622 Column_1623 Column_1624 Column_1625 Column_1626 Column_1627 Column_1628 Column_1629 Column_1630 Column_1631 Column_1632 Column_1633 Column_1634 Column_1635 Column_1636 Column_1637 Column_1638 Column_1639 Column_1640 Column_1641 Column_1642 Column_1643 Column_1644 Column_1645 Column_1646 Column_1647 Column_1648 Column_1649 Column_1650 Column_1651 Column_1652 Column_1653 Column_1654 Column_1655 Column_1656 Column_1657 Column_1658 Column_1659 Column_1660 Column_1661 Column_1662 Column_1663 Column_1664 Column_1665 Column_1666 Column_1667 Column_1668 Column_1669 Column_1670 Column_1671 Column_1672 Column_1673 Column_1674 Column_1675 Column_1676 Column_1677 Column_1678 Column_1679 Column_1680 Column_1681 Column_1682 Column_1683 Column_1684 Column_1685 Column_1686 Column_1687 Column_1688 Column_1689 Column_1690 Column_1691 Column_1692 Column_1693 Column_1694 Column_1695 Column_1696 Column_1697 Column_1698 Column_1699 Column_1700 Column_1701 Column_1702 Column_1703 Column_1704 Column_1705 Column_1706 Column_1707 Column_1708 Column_1709 Column_1710 Column_1711 Column_1712 Column_1713 Column_1714 Column_1715 Column_1716 Column_1717 Column_1718 Column_1719 Column_1720 Column_1721 Column_1722 Column_1723 Column_1724 Column_1725 Column_1726 Column_1727 Column_1728 Column_1729 Column_1730 Column_1731 Column_1732 Column_1733 Column_1734 Column_1735 Column_1736 Column_1737 Column_1738 Column_1739 Column_1740 Column_1741 Column_1742 Column_1743 Column_1744 Column_1745 Column_1746 Column_1747 Column_1748 Column_1749 Column_1750 Column_1751 Column_1752 Column_1753 Column_1754 Column_1755 Column_1756 Column_1757 Column_1758 Column_1759 Column_1760 Column_1761 Column_1762 Column_1763 Column_1764 Column_1765 Column_1766 Column_1767 Column_1768 Column_1769 Column_1770 Column_1771 Column_1772 Column_1773 Column_1774 Column_1775 Column_1776 Column_1777 Column_1778 Column_1779 Column_1780 Column_1781 Column_1782 Column_1783 Column_1784 Column_1785 Column_1786 Column_1787 Column_1788 Column_1789 Column_1790 Column_1791 Column_1792 Column_1793 Column_1794 Column_1795 Column_1796 Column_1797 Column_1798 Column_1799 Column_1800 Column_1801 Column_1802 Column_1803 Column_1804 Column_1805 Column_1806 Column_1807 Column_1808 Column_1809 Column_1810 Column_1811 Column_1812 Column_1813 Column_1814 Column_1815 Column_1816 Column_1817 Column_1818 Column_1819 Column_1820 Column_1821 Column_1822 Column_1823 Column_1824 Column_1825 Column_1826 Column_1827 Column_1828 Column_1829 Column_1830 Column_1831 Column_1832 Column_1833 Column_1834 Column_1835 Column_1836 Column_1837 Column_1838 Column_1839 Column_1840 Column_1841 Column_1842 Column_1843 Column_1844 Column_1845 Column_1846 Column_1847 Column_1848 Column_1849 Column_1850 Column_1851 Column_1852 Column_1853 Column_1854 Column_1855 Column_1856 Column_1857 Column_1858 Column_1859 Column_1860 Column_1861 Column_1862 Column_1863 Column_1864 Column_1865 Column_1866 Column_1867 Column_1868 Column_1869 Column_1870 Column_1871 Column_1872 Column_1873 Column_1874 Column_1875 Column_1876 Column_1877 Column_1878 Column_1879 Column_1880 Column_1881 Column_1882 Column_1883 Column_1884 Column_1885 Column_1886 Column_1887 Column_1888 Column_1889 Column_1890 Column_1891 Column_1892 Column_1893 Column_1894 Column_1895 Column_1896 Column_1897 Column_1898 Column_1899 Column_1900 Column_1901 Column_1902 Column_1903 Column_1904 Column_1905 Column_1906 Column_1907 Column_1908 Column_1909 Column_1910 Column_1911 Column_1912 Column_1913 Column_1914 Column_1915 Column_1916 Column_1917 Column_1918 Column_1919 Column_1920 Column_1921 Column_1922 Column_1923 Column_1924 Column_1925 Column_1926 Column_1927 Column_1928 Column_1929 Column_1930 Column_1931 Column_1932 Column_1933 Column_1934 Column_1935 Column_1936 Column_1937 Column_1938 Column_1939 Column_1940 Column_1941 Column_1942 Column_1943 Column_1944 Column_1945 Column_1946 Column_1947 Column_1948 Column_1949 Column_1950 Column_1951 Column_1952 Column_1953 Column_1954 Column_1955 Column_1956 Column_1957 Column_1958 Column_1959 Column_1960 Column_1961 Column_1962 Column_1963 Column_1964 Column_1965 Column_1966 Column_1967 Column_1968 Column_1969 Column_1970 Column_1971 Column_1972 Column_1973 Column_1974 Column_1975 Column_1976 Column_1977 Column_1978 Column_1979 Column_1980 Column_1981 Column_1982 Column_1983 Column_1984 Column_1985 Column_1986 Column_1987 Column_1988 Column_1989 Column_1990 Column_1991 Column_1992 Column_1993 Column_1994 Column_1995 Column_1996 Column_1997 Column_1998 Column_1999 Column_2000 Column_2001 Column_2002 Column_2003 Column_2004 Column_2005 Column_2006 Column_2007 Column_2008 Column_2009 Column_2010 Column_2011 Column_2012 Column_2013 Column_2014 Column_2015 Column_2016 Column_2017 Column_2018 Column_2019 Column_2020 Column_2021 Column_2022 Column_2023 Column_2024 Column_2025 Column_2026 Column_2027 Column_2028 Column_2029 Column_2030 Column_2031 Column_2032 Column_2033 Column_2034 Column_2035 Column_2036 Column_2037 Column_2038 Column_2039 Column_2040 Column_2041 Column_2042 Column_2043 Column_2044 Column_2045 Column_2046 Column_2047 Column_2048 Column_2049 Column_2050 Column_2051 Column_2052 Column_2053 Column_2054 Column_2055 Column_2056 Column_2057 Column_2058 Column_2059 Column_2060 Column_2061 Column_2062 Column_2063 Column_2064 Column_2065 Column_2066 Column_2067 Column_2068 Column_2069 Column_2070 Column_2071 Column_2072 Column_2073 Column_2074 Column_2075 Column_2076 Column_2077 Column_2078 Column_2079 Column_2080 Column_2081 Column_2082 Column_2083 Column_2084 Column_2085 Column_2086 Column_2087 Column_2088 Column_2089 Column_2090 Column_2091 Column_2092 Column_2093 Column_2094 Column_2095 Column_2096 Column_2097 Column_2098 Column_2099 Column_2100 Column_2101 Column_2102 Column_2103 Column_2104 Column_2105 Column_2106 Column_2107 Column_2108 Column_2109 Column_2110 Column_2111 Column_2112 Column_2113 Column_2114 Column_2115 Column_2116 Column_2117 Column_2118 Column_2119 Column_2120 Column_2121 Column_2122 Column_2123 Column_2124 Column_2125 Column_2126 Column_2127 Column_2128 Column_2129 Column_2130 Column_2131 Column_2132 Column_2133 Column_2134 Column_2135 Column_2136 Column_2137 Column_2138 Column_2139 Column_2140 Column_2141 Column_2142 Column_2143 Column_2144 Column_2145 Column_2146 Column_2147 Column_2148 Column_2149 Column_2150 Column_2151 Column_2152 Column_2153 Column_2154 Column_2155 Column_2156 Column_2157 Column_2158 Column_2159 Column_2160 Column_2161 Column_2162 Column_2163 Column_2164 Column_2165 Column_2166 Column_2167 Column_2168 Column_2169 Column_2170 Column_2171 Column_2172 Column_2173 Column_2174 Column_2175 Column_2176 Column_2177 Column_2178 Column_2179 Column_2180 Column_2181 Column_2182 Column_2183 Column_2184 Column_2185 Column_2186 Column_2187 Column_2188 Column_2189 Column_2190 Column_2191 Column_2192 Column_2193 Column_2194 Column_2195 Column_2196 Column_2197 Column_2198 Column_2199 Column_2200 Column_2201 Column_2202 Column_2203 Column_2204 Column_2205 Column_2206 Column_2207 Column_2208 Column_2209 Column_2210 Column_2211 Column_2212 Column_2213 Column_2214 Column_2215 Column_2216 Column_2217 Column_2218 Column_2219 Column_2220 Column_2221 Column_2222 Column_2223 Column_2224 Column_2225 Column_2226 Column_2227 Column_2228 Column_2229 Column_2230 Column_2231 Column_2232 Column_2233 Column_2234 Column_2235 Column_2236 Column_2237 Column_2238 Column_2239 Column_2240 Column_2241 Column_2242 Column_2243 Column_2244 Column_2245 Column_2246 Column_2247 Column_2248 Column_2249 Column_2250 Column_2251 Column_2252 Column_2253 Column_2254 Column_2255 Column_2256 Column_2257 Column_2258 Column_2259 Column_2260 Column_2261 Column_2262 Column_2263 Column_2264 Column_2265 Column_2266 Column_2267 Column_2268 Column_2269 Column_2270 Column_2271 Column_2272 Column_2273 Column_2274 Column_2275 Column_2276 Column_2277 Column_2278 Column_2279 Column_2280 Column_2281 Column_2282 Column_2283 Column_2284 Column_2285 Column_2286 Column_2287 Column_2288 Column_2289 Column_2290 Column_2291 Column_2292 Column_2293 Column_2294 Column_2295 Column_2296 Column_2297 Column_2298 Column_2299 Column_2300 Column_2301 Column_2302 Column_2303 Column_2304 Column_2305 Column_2306 Column_2307 Column_2308 Column_2309 Column_2310 Column_2311 Column_2312 Column_2313 Column_2314 Column_2315 Column_2316 Column_2317 Column_2318 Column_2319 Column_2320 Column_2321 Column_2322 Column_2323 Column_2324 Column_2325 Column_2326 Column_2327 Column_2328 Column_2329 Column_2330 Column_2331 Column_2332 Column_2333 Column_2334 Column_2335 Column_2336 Column_2337 Column_2338 Column_2339 Column_2340 Column_2341 Column_2342 Column_2343 Column_2344 Column_2345 Column_2346 Column_2347 Column_2348 Column_2349 Column_2350 Column_2351 Column_2352 Column_2353 Column_2354 Column_2355 Column_2356 Column_2357 Column_2358 Column_2359 Column_2360 Column_2361 Column_2362 Column_2363 Column_2364 Column_2365 Column_2366 Column_2367 Column_2368 Column_2369 Column_2370 Column_2371 Column_2372 Column_2373 Column_2374 Column_2375 Column_2376 Column_2377 Column_2378 Column_2379 Column_2380 Column_2381 Column_2382 Column_2383 Column_2384 Column_2385 Column_2386 Column_2387 Column_2388 Column_2389 Column_2390 Column_2391 Column_2392 Column_2393 Column_2394 Column_2395 Column_2396 Column_2397 Column_2398 Column_2399 Column_2400 Column_2401 Column_2402 Column_2403 Column_2404 Column_2405 Column_2406 Column_2407 Column_2408 Column_2409 Column_2410 Column_2411 Column_2412 Column_2413 Column_2414 Column_2415 Column_2416 Column_2417 Column_2418 Column_2419 Column_2420 Column_2421 Column_2422 Column_2423 Column_2424 Column_2425 Column_2426 Column_2427 Column_2428 Column_2429 Column_2430 Column_2431 Column_2432 Column_2433 Column_2434 Column_2435 Column_2436 Column_2437 Column_2438 Column_2439 Column_2440 Column_2441 Column_2442 Column_2443 Column_2444 Column_2445 Column_2446 Column_2447 Column_2448 Column_2449 Column_2450 Column_2451 Column_2452 Column_2453 Column_2454 Column_2455 Column_2456 Column_2457 Column_2458 Column_2459 Column_2460 Column_2461 Column_2462 Column_2463 Column_2464 Column_2465 Column_2466 Column_2467 Column_2468 Column_2469 Column_2470 Column_2471 Column_2472 Column_2473 Column_2474 Column_2475 Column_2476 Column_2477 Column_2478 Column_2479 Column_2480 Column_2481 Column_2482 Column_2483 Column_2484 Column_2485 Column_2486 Column_2487 Column_2488 Column_2489 Column_2490 Column_2491 Column_2492 Column_2493 Column_2494 Column_2495 Column_2496 Column_2497 Column_2498 Column_2499 Column_2500 Column_2501 Column_2502 Column_2503 Column_2504 Column_2505 Column_2506 Column_2507 Column_2508 Column_2509 Column_2510 Column_2511 Column_2512 Column_2513 Column_2514 Column_2515 Column_2516 Column_2517 Column_2518 Column_2519 Column_2520 Column_2521 Column_2522 Column_2523 Column_2524 Column_2525 Column_2526 Column_2527 Column_2528 Column_2529 Column_2530 Column_2531 Column_2532 Column_2533 Column_2534 Column_2535 Column_2536 Column_2537 Column_2538 Column_2539 Column_2540 Column_2541 Column_2542 Column_2543 Column_2544 Column_2545 Column_2546 Column_2547 Column_2548 Column_2549 Column_2550 Column_2551 Column_2552 Column_2553 Column_2554 Column_2555 Column_2556 Column_2557 Column_2558 Column_2559 Column_2560 Column_2561 Column_2562 Column_2563 Column_2564 Column_2565 Column_2566 Column_2567 Column_2568 Column_2569 Column_2570 Column_2571 Column_2572 Column_2573 Column_2574 Column_2575 Column_2576 Column_2577 Column_2578 Column_2579 Column_2580 Column_2581 Column_2582 Column_2583 Column_2584 Column_2585 Column_2586 Column_2587 Column_2588 Column_2589 Column_2590 Column_2591 Column_2592 Column_2593 Column_2594 Column_2595 Column_2596 Column_2597 Column_2598 Column_2599 Column_2600 Column_2601 Column_2602 Column_2603 Column_2604 Column_2605 Column_2606 Column_2607 Column_2608 Column_2609 Column_2610 Column_2611 Column_2612 Column_2613 Column_2614 Column_2615 Column_2616 Column_2617 Column_2618 Column_2619 Column_2620 Column_2621 Column_2622 Column_2623 Column_2624 Column_2625 Column_2626 Column_2627 Column_2628 Column_2629 Column_2630 Column_2631 Column_2632 Column_2633 Column_2634 Column_2635 Column_2636 Column_2637 Column_2638 Column_2639 Column_2640 Column_2641 Column_2642 Column_2643 Column_2644 Column_2645 Column_2646 Column_2647 Column_2648 Column_2649 Column_2650 Column_2651 Column_2652 Column_2653 Column_2654 Column_2655 Column_2656 Column_2657 Column_2658 Column_2659 Column_2660 Column_2661 Column_2662 Column_2663 Column_2664 Column_2665 Column_2666 Column_2667 Column_2668 Column_2669 Column_2670 Column_2671 Column_2672 Column_2673 Column_2674 Column_2675 Column_2676 Column_2677 Column_2678 Column_2679 Column_2680 Column_2681 Column_2682 Column_2683 Column_2684 Column_2685 Column_2686 Column_2687 Column_2688 Column_2689 Column_2690 Column_2691 Column_2692 Column_2693 Column_2694 Column_2695 Column_2696 Column_2697 Column_2698 Column_2699 Column_2700 Column_2701 Column_2702 Column_2703 Column_2704 Column_2705 Column_2706 Column_2707 Column_2708 Column_2709 Column_2710 Column_2711 Column_2712 Column_2713 Column_2714 Column_2715 Column_2716 Column_2717 Column_2718 Column_2719 Column_2720 Column_2721 Column_2722 Column_2723 Column_2724 Column_2725 Column_2726 Column_2727 Column_2728 Column_2729 Column_2730 Column_2731 Column_2732 Column_2733 Column_2734 Column_2735 Column_2736 Column_2737 Column_2738 Column_2739 Column_2740 Column_2741 Column_2742 Column_2743 Column_2744 Column_2745 Column_2746 Column_2747 Column_2748 Column_2749 Column_2750 Column_2751 Column_2752 Column_2753 Column_2754 Column_2755 Column_2756 Column_2757 Column_2758 Column_2759 Column_2760 Column_2761 Column_2762 Column_2763 Column_2764 Column_2765 Column_2766 Column_2767 Column_2768 Column_2769 Column_2770 Column_2771 Column_2772 Column_2773 Column_2774 Column_2775 Column_2776 Column_2777 Column_2778 Column_2779 Column_2780 Column_2781 Column_2782 Column_2783 Column_2784 Column_2785 Column_2786 Column_2787 Column_2788 Column_2789 Column_2790 Column_2791 Column_2792 Column_2793 Column_2794 Column_2795 Column_2796 Column_2797 Column_2798 Column_2799 Column_2800 Column_2801 Column_2802 Column_2803 Column_2804 Column_2805 Column_2806 Column_2807 Column_2808 Column_2809 Column_2810 Column_2811 Column_2812 Column_2813 Column_2814 Column_2815 Column_2816 Column_2817 Column_2818 Column_2819 Column_2820 Column_2821 Column_2822 Column_2823 Column_2824 Column_2825 Column_2826 Column_2827 Column_2828 Column_2829 Column_2830 Column_2831 Column_2832 Column_2833 Column_2834 Column_2835 Column_2836 Column_2837 Column_2838 Column_2839 Column_2840 Column_2841 Column_2842 Column_2843 Column_2844 Column_2845 Column_2846 Column_2847 Column_2848 Column_2849 Column_2850 Column_2851 Column_2852 Column_2853 Column_2854 Column_2855 Column_2856 Column_2857 Column_2858 Column_2859 Column_2860 Column_2861 Column_2862 Column_2863 Column_2864 Column_2865 Column_2866 Column_2867 Column_2868 Column_2869 Column_2870 Column_2871 Column_2872 Column_2873 Column_2874 Column_2875 Column_2876 Column_2877 Column_2878 Column_2879 Column_2880 Column_2881 Column_2882 Column_2883 Column_2884 Column_2885 Column_2886 Column_2887 Column_2888 Column_2889 Column_2890 Column_2891 Column_2892 Column_2893 Column_2894 Column_2895 Column_2896 Column_2897 Column_2898 Column_2899 Column_2900 Column_2901 Column_2902 Column_2903 Column_2904 Column_2905 Column_2906 Column_2907 Column_2908 Column_2909 Column_2910 Column_2911 Column_2912 Column_2913 Column_2914 Column_2915 Column_2916 Column_2917 Column_2918 Column_2919 Column_2920 Column_2921 Column_2922 Column_2923 Column_2924 Column_2925 Column_2926 Column_2927 Column_2928 Column_2929 Column_2930 Column_2931 Column_2932 Column_2933 Column_2934 Column_2935 Column_2936 Column_2937 Column_2938 Column_2939 Column_2940 Column_2941 Column_2942 Column_2943 Column_2944 Column_2945 Column_2946 Column_2947 Column_2948 Column_2949 Column_2950 Column_2951 Column_2952 Column_2953 Column_2954 Column_2955 Column_2956 Column_2957 Column_2958 Column_2959 Column_2960 Column_2961 Column_2962 Column_2963 Column_2964 Column_2965 Column_2966 Column_2967 Column_2968 Column_2969 Column_2970 Column_2971 Column_2972 Column_2973 Column_2974 Column_2975 Column_2976 Column_2977 Column_2978 Column_2979 Column_2980 Column_2981 Column_2982 Column_2983 Column_2984 Column_2985 Column_2986 Column_2987 Column_2988 Column_2989 Column_2990 Column_2991 Column_2992 Column_2993 Column_2994 Column_2995 Column_2996 Column_2997 Column_2998 Column_2999 Column_3000 Column_3001 Column_3002 Column_3003 Column_3004 Column_3005 Column_3006 Column_3007 Column_3008 Column_3009 Column_3010 Column_3011 Column_3012 Column_3013 Column_3014 Column_3015 Column_3016 Column_3017 Column_3018 Column_3019 Column_3020 Column_3021 Column_3022 Column_3023 Column_3024 Column_3025 Column_3026 Column_3027 Column_3028 Column_3029 Column_3030 Column_3031 Column_3032 Column_3033 Column_3034 Column_3035 Column_3036 Column_3037 Column_3038 Column_3039 Column_3040 Column_3041 Column_3042 Column_3043 Column_3044 Column_3045 Column_3046 Column_3047 Column_3048 Column_3049 Column_3050 Column_3051 Column_3052 Column_3053 Column_3054 Column_3055 Column_3056 Column_3057 Column_3058 Column_3059 Column_3060 Column_3061 Column_3062 Column_3063 Column_3064 Column_3065 Column_3066 Column_3067 Column_3068 Column_3069 Column_3070 Column_3071 Column_3072
feature_infos=[0:1] [-1.2464749813079834:1.8377656936645508] [-2.0148324966430664:0.90686792135238647] [-1.6397650241851807:2.3862969875335693] [-1.086722731590271:1.2845977544784546] [-1.8002399206161499:1.5480524301528931] [-1.207737922668457:1.8110511302947998] [-2.0184061527252197:1.4492913484573364] [-2.1715352535247803:1.0521097183227539] [-0.84593403339385986:2.2022385597229004] [-3.0145161151885986:1.1918517351150513] [-0.4166715145111084:2.6048605442047119] [-2.1301887035369873:0.56876063346862793] [-1.3420557975769043:2.0741569995880127] [-1.7200030088424683:0.92373055219650269] [-1.400315523147583:1.4529752731323242] [-1.8675333261489868:1.5620814561843872] [-2.5507874488830566:1.2268178462982178] [-1.5151188373565674:2.1016380786895752] [-1.8951879739761353:0.86789625883102417] [-2.2645010948181152:1.0803585052490234] [-1.1780519485473633:1.5323649644851685] [-1.7987674474716187:1.3221356868743896] [-1.2621431350708008:1.7525436878204346] [-0.8948979377746582:2.9005136489868164] [-2.2231905460357666:1.5417503118515015] [-1.7119758129119873:1.2810487747192383] [-2.0007030963897705:1.4375492334365845] [-2.0995950698852539:0.90630143880844116] [-2.1698019504547119:1.3173671960830688] [-0.85574102401733398:1.9707003831863403] [-0.80474615097045898:2.7460136413574219] [-2.1826059818267822:1.081108570098877] [-1.6221369504928589:1.6122543811798096] [-1.660033106803894:1.8452719449996948] [-1.4420357942581177:0.896881103515625] [-2.5864300727844238:1.0284144878387451] [-1.7146003246307373:1.5545978546142578] [-1.8841352462768555:2.2750563621520996] [-1.6929148435592651:1.8598172664642334] [-1.1108270883560181:1.9314497709274292] [-2.2943427562713623:1.0986343622207642] [-1.1590461730957031:1.9027063846588135] [-2.3890926837921143:0.63052475452423096] [-1.8703018426895142:1.036918044090271] [-1.5915731191635132:1.4250607490539551] [-1.6409393548965454:1.761336088180542] [-1.3607884645462036:1.4844124317169189] [-1.5660231113433838:2.2170653343200684] [-1.5372840166091919:1.3244651556015015] [-0.78533774614334106:1.8992463350296021] [-1.5116183757781982:1.4405394792556763] [-1.6812832355499268:0.70094269514083862] [-2.6324937343597412:0.520904541015625] [-0.96982353925704956:2.0528678894042969] [-1.8344826698303223:1.3053336143493652] [-2.1639885902404785:2.3913288116455078] [-1.5911663770675659:1.3937332630157471] [-1.3921613693237305:1.5866959095001221] [-2.3600420951843262:1.0790358781814575] [-0.86384963989257812:1.66744065284729] [-1.2680151462554932:1.5998927354812622] [-2.3006656169891357:1.4371078014373779] [-1.4463143348693848:1.3585052490234375] [-0.73949319124221802:2.4885070323944092] [-2.4723289012908936:1.0142405033111572] [-1.1093732118606567:2.0898487567901611] [-1.2112528085708618:1.509850025177002] [-1.9577388763427734:0.88018250465393066] [-1.7759249210357666:1.5599868297576904] [-2.2090392112731934:1.0081918239593506] [-2.8992753028869629:1.1401766538619995] [-0.89492177963256836:2.3976049423217773] [-1.6173040866851807:1.315184473991394] [-1.7537589073181152:1.0732012987136841] [-1.9108359813690186:0.72747123241424561] [-0.92484569549560547:2.5606398582458496] [-1.355821967124939:1.4971622228622437] [-2.4238543510437012:1.1416897773742676] [-2.0214340686798096:1.1881874799728394] [-2.1222567558288574:1.5201032161712646] [-0.99046832323074341:1.7920818328857422] [-0.74401074647903442:2.3518400192260742] [-0.98593485355377197:2.2163958549499512] [-0.8599095344543457:2.1684732437133789] [-1.2667324542999268:2.4851932525634766] [-2.1419849395751953:0.54708123207092285] [-1.9696284532546997:1.3842352628707886] [-2.0976762771606445:1.4611505270004272] [-1.7783312797546387:0.99844461679458618] [-1.8378174304962158:1.224623441696167] [-1.0742182731628418:3.0748460292816162] [-1.5357793569564819:2.1247470378875732] [-1.2992238998413086:1.813031792640686] [-0.50672227144241333:2.7945785522460938] [-2.1576595306396484:0.73517721891403198] [-1.3516380786895752:1.7844743728637695] [-1.8031452894210815:1.7935935258865356] [-1.5037544965744019:1.135140061378479] [-1.259878396987915:1.8587265014648438] [-1.5469098091125488:1.4027563333511353] [-0.95591461658477783:1.3426215648651123] [-2.0253200531005859:1.7396014928817749] [-1.5504870414733887:1.423258900642395] [-1.6615684032440186:1.1492552757263184] [-2.1796412467956543:1.1985441446304321] [-1.3993852138519287:2.3029637336730957] [-1.9183855056762695:1.009884238243103] [-1.6770058870315552:1.2328510284423828] [-1.6288270950317383:1.9025626182556152] [-1.5455597639083862:2.3672473430633545] [-1.1014940738677979:1.5977983474731445] [-1.913433313369751:1.5142335891723633] [-1.5322195291519165:1.6392878293991089] [-2.9626410007476807:0.48367631435394287] [-2.5495083332061768:1.1085214614868164] [-1.8098692893981934:0.83218514919281006] [-1.4619817733764648:1.7766286134719849] [-2.2594113349914551:0.72142660617828369] [-1.8558560609817505:2.4842948913574219] [-1.0746972560882568:2.0105597972869873] [-1.3079404830932617:2.9321529865264893] [-2.7216179370880127:0.66364103555679321] [-1.4146226644515991:1.7263628244400024] [-1.8690571784973145:1.4806514978408813] [-1.044719934463501:2.05491042137146] [-2.24727463722229:1.1260249614715576] [-1.068368673324585:2.3469018936157227] [-2.0976414680480957:1.491890549659729] [-1.0218824148178101:1.7839438915252686] [-2.8346381187438965:0.96507692337036133] [-0.60252761840820312:2.7211911678314209] [-1.5219979286193848:1.229986310005188] [-1.3407658338546753:0.8928493857383728] [-1.6605648994445801:0.95780849456787109] [-2.9140756130218506:2.239130973815918] [-2.7213578224182129:1.2263394594192505] [-1.614052414894104:1.489926815032959] [-2.3090691566467285:1.4271507263183594] [-0.93151390552520752:2.1385209560394287] [-1.8807696104049683:1.7236056327819824] [-1.5461412668228149:1.8855129480361938] [-1.3408962488174438:2.4252269268035889] [-1.7809752225875854:0.89647352695465088] [-2.8263804912567139:1.2202417850494385] [-1.457672119140625:1.5111981630325317] [-1.6514379978179932:1.7349778413772583] [-1.5646665096282959:1.5770254135131836] [-3.0040571689605713:0.55706220865249634] [-0.63925224542617798:3.1193408966064453] [-2.4411995410919189:0.98839068412780762] [-1.4955251216888428:1.6340569257736206] [-0.93225651979446411:2.12050461769104] [-1.8710678815841675:0.89039891958236694] [-1.9505186080932617:0.73822593688964844] [-0.76131534576416016:2.8990423679351807] [-2.0522785186767578:1.7290935516357422] [-0.85883426666259766:2.1309208869934082] [-1.3025628328323364:0.82520276308059692] [-1.899182915687561:1.0997086763381958] [-2.0982022285461426:1.3042614459991455] [-1.3793216943740845:1.3189330101013184] [-1.6850625276565552:2.2616322040557861] [-0.48746585845947266:2.8252370357513428] [-1.1316229104995728:3.1559567451477051] [-1.8406636714935303:1.3504080772399902] [-2.024855375289917:1.5202405452728271] [-2.1228599548339844:1.1927332878112793] [-1.5086157321929932:1.5612848997116089] [-1.2241930961608887:1.1188857555389404] [-0.86185234785079956:2.2154591083526611] [-1.3255449533462524:2.4360795021057129] [-1.6885471343994141:1.6176453828811646] [-1.6118202209472656:1.8492096662521362] [-1.884108304977417:1.955152153968811] [-0.74389934539794922:2.2050631046295166] [-1.7762856483459473:1.8847199678421021] [-0.11550502479076385:3.2961699962615967] [-1.420671820640564:1.7197868824005127] [-1.0434260368347168:2.1187310218811035] [-2.5526478290557861:0.56370705366134644] [-2.3366270065307617:2.0033805370330811] [-1.7474287748336792:2.030508279800415] [-1.7489060163497925:1.7238157987594604] [-1.6012933254241943:1.3158485889434814] [-1.7056818008422852:1.6473065614700317] [-1.7537678480148315:1.8572894334793091] [-1.5806599855422974:1.162257194519043] [-1.4275373220443726:1.8537623882293701] [-1.4761002063751221:1.7840322256088257] [-2.3447155952453613:0.63265484571456909] [-1.0911853313446045:1.8952620029449463] [-1.0340578556060791:2.2034709453582764] [-2.0422799587249756:1.0796020030975342] [-0.89036798477172852:2.0396440029144287] [-2.0586588382720947:0.96754318475723267] [-6.6003518104553223:-1.956082820892334] [-1.7831584215164185:1.067003607749939] [-2.0637581348419189:2.066476583480835] [-1.8531115055084229:1.476067066192627] [-0.37090903520584106:2.9486985206604004] [-1.3299193382263184:1.931145191192627] [-2.0142240524291992:1.3492972850799561] [-1.2949666976928711:1.2683488130569458] [-1.0833477973937988:1.9322348833084106] [-2.3303248882293701:2.0205175876617432] [-1.1627341508865356:2.7393186092376709] [-1.8023183345794678:1.4165914058685303] [-1.411968469619751:1.2990744113922119] [-1.2802066802978516:1.1075292825698853] [-0.47790268063545227:2.2867624759674072] [-0.55772453546524048:2.370363712310791] [-1.6056549549102783:1.3728128671646118] [-0.16954091191291809:4.1156425476074219] [-2.5803399085998535:0.9263419508934021] [-2.0071837902069092:1.0362701416015625] [-0.6805112361907959:2.3005564212799072] [-1.6232304573059082:1.7426782846450806] [-1.2097487449645996:1.8690422773361206] [-2.0926721096038818:1.2057772874832153] [-2.8373167514801025:1.1621615886688232] [-2.5427799224853516:0.73227435350418091] [-0.77545928955078125:2.1516749858856201] [-1.9829252958297729:1.6401152610778809] [-1.7816941738128662:1.3240779638290405] [-2.2088487148284912:0.97263467311859131] [-2.9071156978607178:1.4859539270401001] [-0.61118084192276001:1.8255914449691772] [-15.659133911132812:-5.3978986740112305] [-1.3428283929824829:1.6208258867263794] [-1.4967634677886963:2.2637801170349121] [-1.0741007328033447:2.024005651473999] [-1.2189698219299316:1.942547082901001] [-1.7664140462875366:0.93097954988479614] [-2.2326810359954834:0.89420109987258911] [-0.7130584716796875:0.069860264658927917] [-1.6091930866241455:1.5764694213867188] [-1.9068577289581299:1.4545754194259644] [-2.327298641204834:0.66917526721954346] [-1.9083651304244995:0.96920520067214966] [-1.2012181282043457:1.5342416763305664] [-1.0767363309860229:1.4311308860778809] [-1.3096243143081665:1.4022587537765503] [-1.9929244518280029:1.0007549524307251] [-3.2412216663360596:1.360471248626709] [-2.192047119140625:0.41601800918579102] [-2.1970474720001221:0.91226416826248169] [-1.8233886957168579:1.3598480224609375] [-1.6201006174087524:1.1857117414474487] [-1.4283190965652466:0.96054822206497192] [-1.4434970617294312:2.1148431301116943] [-1.9912279844284058:1.0020121335983276] [-2.0370059013366699:1.3832998275756836] [-0.92266362905502319:2.0513675212860107] [-0.953940749168396:2.5136158466339111] [-2.4210696220397949:0.95016515254974365] [-1.687281608581543:1.5568807125091553] [-2.4557886123657227:1.8608102798461914] [-1.4670542478561401:1.9658918380737305] [-1.0544500350952148:1.5819026231765747] [-1.7499082088470459:1.5224483013153076] [-1.0635740756988525:1.7456324100494385] [-1.323631763458252:1.967742919921875] [-0.94768363237380981:2.41554856300354] [-1.455808162689209:1.9380843639373779] [-1.8300800323486328:1.8514763116836548] [-2.7070441246032715:0.95810377597808838] [-3.1225359439849854:0.49325317144393921] [-2.5873658657073975:0.74821913242340088] [-1.7506048679351807:1.5162471532821655] [-1.5358999967575073:1.1386878490447998] [-1.8685289621353149:1.9522749185562134] [-1.3467957973480225:1.5037277936935425] [-1.8403985500335693:1.1681243181228638] [-1.5443634986877441:1.9210624694824219] [-1.9411288499832153:1.3177982568740845] [-1.011100172996521:1.9759471416473389] [-1.6884373426437378:1.1752084493637085] [-2.1811654567718506:0.84235638380050659] [-2.1467094421386719:1.8191239833831787] [-1.1251596212387085:1.2721723318099976] [-2.0371544361114502:2.4620344638824463] [-1.3335086107254028:1.9756633043289185] [-0.98902279138565063:1.5815520286560059] [-1.2973387241363525:2.1491572856903076] [-2.3661720752716064:1.6923104524612427] [-0.92269575595855713:2.1818263530731201] [-0.70712870359420776:1.7693142890930176] [-1.6634280681610107:1.7206449508666992] [-1.1993292570114136:1.8996803760528564] [-1.7829328775405884:2.4602420330047607] [-1.8220962285995483:1.8765053749084473] [-1.0991709232330322:2.569685697555542] [-2.0831031799316406:1.5794435739517212] [-1.6039402484893799:2.2030642032623291] [-1.6551262140274048:1.8397548198699951] [-1.7226237058639526:1.2356261014938354] [-3.0281209945678711:1.410833477973938] [-1.2440853118896484:1.780173659324646] [-1.7274798154830933:1.5063421726226807] [-2.4921398162841797:0.31940129399299622] [-2.2957978248596191:0.51087230443954468] [-2.1495068073272705:1.9288544654846191] [-1.3274699449539185:1.5969021320343018] [-1.3051384687423706:2.0538709163665771] [-1.8717014789581299:0.94602036476135254] [-1.5467206239700317:1.6982334852218628] [-0.47527071833610535:2.2386431694030762] [-3.202115535736084:0.56028711795806885] [-1.1206978559494019:2.2507791519165039] [-2.330488920211792:1.1075637340545654] [-1.5292658805847168:1.8806201219558716] [-1.4142526388168335:1.3546129465103149] [-2.5067927837371826:1.9535236358642578] [-2.8398277759552002:1.4091724157333374] [-0.79330360889434814:2.2073144912719727] [-2.7915699481964111:0.56621754169464111] [-1.1877418756484985:1.7645286321640015] [-1.7632261514663696:1.3249843120574951] [-1.9118379354476929:2.3085646629333496] [-1.6274938583374023:1.0926897525787354] [-1.7303171157836914:1.3221186399459839] [-1.365020751953125:2.055436372756958] [-1.8548473119735718:0.93207120895385742] [-1.8661222457885742:1.4805563688278198] [-1.880450963973999:1.7695930004119873] [-1.1368899345397949:1.3716380596160889] [-1.2868367433547974:1.7399083375930786] [-1.632463812828064:1.2632778882980347] [-1.0541317462921143:2.5142686367034912] [-1.5405192375183105:1.3621509075164795] [-1.4210152626037598:1.7917920351028442] [-1.0961002111434937:1.595011830329895] [-1.3298482894897461:1.440151572227478] [-1.2284895181655884:2.2322304248809814] [-1.0656157732009888:1.5507545471191406] [-1.4079146385192871:1.1399171352386475] [-1.48055100440979:2.9001989364624023] [-1.0606112480163574:1.8684995174407959] [-2.3506655693054199:0.99278354644775391] [-0.092824682593345642:3.4187142848968506] [-1.4877952337265015:1.8204591274261475] [-1.5846470594406128:1.8295259475708008] [-1.1178908348083496:2.4148581027984619] [-1.7489099502563477:0.6532435417175293] [-1.8188081979751587:1.8381460905075073] [-1.8321715593338013:1.6520172357559204] [-1.0853897333145142:1.9936149120330811] [-1.9523881673812866:0.98080426454544067] [-2.3795247077941895:0.65831571817398071] [-1.3992011547088623:1.5989904403686523] [-0.86839890480041504:1.7073663473129272] [-1.8732302188873291:0.73512065410614014] [-1.4804641008377075:1.8491817712783813] [-2.0064191818237305:1.320409893989563] [-1.5469335317611694:1.9964712858200073] [-1.9891998767852783:1.100538969039917] [-1.6900384426116943:1.0983272790908813] [-2.0710699558258057:1.6153182983398438] [-1.5114289522171021:1.5524356365203857] [-1.0510081052780151:2.3475615978240967] [-1.8933340311050415:0.65933835506439209] [-2.0433604717254639:1.6465308666229248] [-2.3333909511566162:1.0063083171844482] [-1.6399151086807251:1.0102864503860474] [-2.1847348213195801:1.4045871496200562] [-1.9193131923675537:1.0042703151702881] [-2.503596305847168:0.69951826333999634] [-1.5161980390548706:1.4545812606811523] [-1.6799806356430054:2.4141697883605957] [-0.74072533845901489:2.1347901821136475] [-1.7673932313919067:2.0583562850952148] [-1.7667678594589233:1.5904346704483032] [-2.0821592807769775:0.86301290988922119] [-1.7214943170547485:1.4719349145889282] [-0.34953078627586365:3.0795857906341553] [-1.3500963449478149:1.8100399971008301] [-2.8541231155395508:1.9950367212295532] [-1.996182918548584:1.3328039646148682] [-0.83717566728591919:1.6811304092407227] [-1.6913155317306519:1.6540365219116211] [-1.264844536781311:3.11399245262146] [-2.5380451679229736:1.2544114589691162] [-2.6273040771484375:0.72016578912734985] [-1.8602603673934937:1.2817977666854858] [-2.0907855033874512:1.9351398944854736] [-1.3641771078109741:1.0974724292755127] [-1.7636967897415161:1.7178897857666016] [-1.8557522296905518:1.4757630825042725] [-2.1844673156738281:1.3652768135070801] [-1.1323922872543335:1.9098120927810669] [-1.2084684371948242:1.7146260738372803] [-1.1412317752838135:2.26338791847229] [-1.9396144151687622:0.86788904666900635] [-2.275540828704834:1.0949915647506714] [-2.7271213531494141:0.70414531230926514] [-1.3822205066680908:1.9775941371917725] [-0.96821385622024536:2.7751598358154297] [-0.90994584560394287:2.1396720409393311] [-2.7998459339141846:1.383332371711731] [-1.2644584178924561:1.5736383199691772] [-2.0441064834594727:1.1122413873672485] [-1.9236023426055908:1.2358027696609497] [-1.2528655529022217:1.922974705696106] [-1.2677633762359619:1.7622174024581909] [-0.80025297403335571:1.9036655426025391] [-2.4313573837280273:1.3572664260864258] [-1.1301136016845703:2.1999120712280273] [-1.7167065143585205:1.3813488483428955] [-0.5567973256111145:1.9744499921798706] [-1.2302888631820679:2.3916218280792236] [-1.3098466396331787:2.3708081245422363] [-2.0599486827850342:0.96335387229919434] [-2.1549451351165771:2.3476307392120361] [-1.9953873157501221:0.49920755624771118] [-2.2114713191986084:1.4415498971939087] [-1.5947351455688477:1.9466935396194458] [-1.4672068357467651:1.999019980430603] [-1.0696721076965332:1.3718445301055908] [-2.4586696624755859:0.58419466018676758] [-2.4108223915100098:1.2124975919723511] [-1.6962263584136963:0.89919394254684448] [-2.3146512508392334:1.225877046585083] [-1.5225003957748413:1.5868194103240967] [-6.7558794021606445:-1.010184645652771] [-1.6721582412719727:1.5630336999893188] [-2.0889477729797363:1.0386826992034912] [-2.7308330535888672:1.2483510971069336] [-1.1369736194610596:2.9623508453369141] [-2.6498537063598633:0.81622433662414551] [-1.3957548141479492:1.1272982358932495] [-2.6455271244049072:0.63537997007369995] [-1.2279711961746216:1.52176833152771] [-1.1779308319091797:1.8385680913925171] [-0.8879324197769165:1.7204831838607788] [-1.3396880626678467:1.6135087013244629] [-1.3272655010223389:1.327358603477478] [-2.1636803150177002:0.95836174488067627] [-1.5665065050125122:2.5735585689544678] [-1.5622752904891968:1.1280016899108887] [-0.59205478429794312:1.7371435165405273] [-1.2932467460632324:1.5939819812774658] [-1.0809319019317627:2.2202615737915039] [-1.176794171333313:1.7423321008682251] [-1.9965829849243164:0.71680623292922974] [-1.2443877458572388:2.6025862693786621] [-1.7249778509140015:1.014203667640686] [-1.0250040292739868:2.184283971786499] [-1.6941136121749878:1.4632265567779541] [-0.82073467969894409:2.0966885089874268] [-1.6796597242355347:1.6022078990936279] [-0.8773963451385498:1.9213330745697021] [-2.854083776473999:0.66374659538269043] [-1.8187217712402344:1.3921949863433838] [-0.6653372049331665:2.1111390590667725] [-1.4700064659118652:2.5676109790802002] [-1.5431563854217529:2.3702657222747803] [-1.6166890859603882:1.133979320526123] [-2.0807666778564453:1.6891599893569946] [-0.95736849308013916:2.0010452270507812] [-1.1428277492523193:3.0222468376159668] [-1.0227924585342407:2.0603926181793213] [-1.5088452100753784:1.4432269334793091] [-1.9174718856811523:1.0553748607635498] [-1.2663347721099854:1.6392350196838379] [-2.2223579883575439:1.4280291795730591] [-4.0403099060058594:0.40318059921264648] [-1.6308518648147583:1.4160572290420532] [-1.448678731918335:1.5576800107955933] [-2.2687125205993652:1.2383333444595337] [-0.70939207077026367:2.5923163890838623] [-1.6019994020462036:2.4783859252929688] [-2.1939756870269775:1.1786291599273682] [-1.5204898118972778:1.3570405244827271] [-0.90794897079467773:1.926964282989502] [-1.0574910640716553:2.1482596397399902] [-1.0187954902648926:2.3286201953887939] [-2.170351505279541:0.73860889673233032] [-2.2312710285186768:1.2319338321685791] [-1.9870758056640625:1.6316981315612793] [-0.78919261693954468:2.8613152503967285] [-1.2062413692474365:2.2550022602081299] [-1.122267484664917:1.7140039205551147] [-1.8766591548919678:1.795900821685791] [-1.7310416698455811:0.95042425394058228] [-1.0461955070495605:1.7829384803771973] [-0.92370432615280151:2.4260692596435547] [-1.9405519962310791:1.3004492521286011] [-1.0800518989562988:1.8878141641616821] [-0.80662423372268677:2.7681777477264404] [-1.699286937713623:1.8658612966537476] [-0.94452774524688721:1.6544327735900879] [-1.940690279006958:1.6262010335922241] [-1.4059332609176636:1.8097820281982422] [-1.2583177089691162:1.489931583404541] [-2.1986396312713623:0.21738505363464355] [-1.1887643337249756:1.3129956722259521] [-2.4894967079162598:0.86593782901763916] [-1.4306167364120483:1.1543482542037964] [-1.8177193403244019:2.1375701427459717] [-1.6137114763259888:1.9579203128814697] [-2.1913301944732666:0.99069589376449585] [-1.0803964138031006:2.0991425514221191] [-1.6182210445404053:0.67440330982208252] [-1.2632356882095337:1.771269679069519] [-1.3087199926376343:2.0743918418884277] [-1.731687068939209:1.5058747529983521] [-2.2719941139221191:0.76422375440597534] [-1.4924397468566895:1.6316262483596802] [-0.8917853832244873:1.9521198272705078] [-1.454395055770874:1.8825346231460571] [-0.77327811717987061:1.4902199506759644] [-1.7093881368637085:1.2593307495117188] [-2.0651373863220215:0.54541105031967163] [-1.0338619947433472:1.6847649812698364] [-0.70446985960006714:1.9477312564849854] [-1.5098841190338135:1.8543249368667603] [-1.0382188558578491:2.1807613372802734] [-1.1521203517913818:2.1223576068878174] [-1.6539390087127686:1.9089616537094116] [-1.1860567331314087:1.4492183923721313] [-2.5958325862884521:1.7807402610778809] [-1.9266763925552368:1.0054415464401245] [-1.5790375471115112:1.3746432065963745] [-1.3689030408859253:0.85300230979919434] [-2.4371044635772705:1.5144662857055664] [-0.76595693826675415:2.8308968544006348] [-1.6146008968353271:1.0115618705749512] [-1.1472989320755005:1.8277432918548584] [-2.2737112045288086:1.4293535947799683] [-1.5919210910797119:1.1784708499908447] [-1.66986083984375:1.4446552991867065] [-1.83701491355896:1.1002904176712036] [-0.86114215850830078:2.135209321975708] [-1.6951483488082886:1.3108667135238647] [-1.3092966079711914:1.4927276372909546] [-2.0970842838287354:1.0922853946685791] [-1.3325737714767456:2.4744460582733154] [-1.3248966932296753:1.4661967754364014] [-2.2394750118255615:2.2946312427520752] [-2.0096213817596436:2.1431584358215332] [-2.2885584831237793:1.0868414640426636] [-1.8564940690994263:1.3396700620651245] [-1.617042064666748:1.039541482925415] [-2.0895969867706299:1.4822589159011841] [-1.2940161228179932:1.8924664258956909] [-1.8741919994354248:0.68234586715698242] [-2.0682923793792725:1.9621701240539551] [-1.7732670307159424:0.87458425760269165] [-1.1933224201202393:1.8300902843475342] [-1.9083571434020996:1.2924906015396118] [-1.5960720777511597:1.698999285697937] [-2.8849256038665771:0.69617491960525513] [-2.7651658058166504:1.4071327447891235] [-2.1574275493621826:0.50098955631256104] [-2.2866487503051758:1.2455542087554932] [-1.5366604328155518:0.76519596576690674] [-1.3051291704177856:1.5627702474594116] [-2.0221750736236572:2.5922040939331055] [-1.4811769723892212:1.5316199064254761] [-0.8809046745300293:2.4877204895019531] [-1.5659142732620239:1.586575984954834] [-2.2763919830322266:0.73836469650268555] [-0.97907871007919312:1.8047950267791748] [-2.814528226852417:0.34150660037994385] [-0.91631227731704712:1.5899044275283813] [-2.2769296169281006:0.85533696413040161] [-2.8931787014007568:0.051122725009918213] [-1.9710896015167236:1.4195903539657593] [-1.7136369943618774:0.84569001197814941] [-1.6642239093780518:1.6165026426315308] [-1.2341890335083008:1.4707839488983154] [-0.84069669246673584:2.8071892261505127] [-0.99464768171310425:1.7480999231338501] [-0.89165252447128296:1.6837453842163086] [-1.6391395330429077:1.5728963613510132] [-1.9433937072753906:1.0315197706222534] [-2.2423970699310303:0.68570554256439209] [-1.5241113901138306:1.9529561996459961] [-0.59573286771774292:2.8204960823059082] [-1.6678051948547363:1.2238494157791138] [-1.5780665874481201:2.3472459316253662] [-1.5493452548980713:1.7177333831787109] [-0.91514277458190918:2.0315735340118408] [-2.0254547595977783:1.1177361011505127] [-2.4481704235076904:0.95105594396591187] [-1.172895073890686:1.7988141775131226] [-1.482144832611084:1.6731554269790649] [-1.6895033121109009:1.4948571920394897] [-1.8058053255081177:1.443143367767334] [-1.2718319892883301:1.3852486610412598] [-1.7469691038131714:1.3973060846328735] [-2.034074068069458:1.4511038064956665] [-1.2878983020782471:1.2010620832443237] [-0.88968414068222046:2.3945024013519287] [-1.1962413787841797:1.5636370182037354] [-0.83797138929367065:2.5360457897186279] [-2.0314075946807861:1.1916708946228027] [-1.9613838195800781:1.5620496273040771] [-0.51422524452209473:2.0610132217407227] [-0.75536078214645386:3.2691967487335205] [-2.1693553924560547:1.3539707660675049] [-0.80156087875366211:2.669011116027832] [-1.0682163238525391:2.2359359264373779] [-0.99485635757446289:2.0273687839508057] [-1.7100850343704224:1.5119262933731079] [-1.9011451005935669:1.9924633502960205] [-1.163527250289917:1.9817206859588623] [-1.6978293657302856:1.6682268381118774] [-1.041922926902771:3.0465760231018066] [-0.73252379894256592:2.385697603225708] [-1.2166588306427002:1.7456427812576294] [-2.7086548805236816:0.47347173094749451] [-1.4885772466659546:1.5784130096435547] [-2.4951093196868896:1.1309925317764282] [-0.76631098985671997:2.4216158390045166] [-1.2814997434616089:1.9471375942230225] [-1.2212804555892944:1.6884657144546509] [-2.1465270519256592:0.93686985969543457] [-0.69407176971435547:1.5174384117126465] [-1.4684313535690308:1.5816532373428345] [-1.813327431678772:1.2828599214553833] [-1.7255167961120605:1.4667230844497681] [-1.2492021322250366:1.6235802173614502] [-1.7724436521530151:1.0323612689971924] [-1.3234955072402954:1.7316746711730957] [-1.4223519563674927:1.6901073455810547] [-1.2029197216033936:1.6180803775787354] [-1.0901378393173218:1.320481538772583] [-1.3529576063156128:1.5229820013046265] [-1.1815358400344849:1.2925938367843628] [-2.3249454498291016:0.469908207654953] [-0.66052764654159546:1.7886350154876709] [-1.6121490001678467:1.4877842664718628] [-2.8114655017852783:0.45324021577835083] [-1.4556827545166016:2.0466501712799072] [-1.459088921546936:1.7074539661407471] [-0.77426356077194214:2.1864023208618164] [-1.7934714555740356:2.2066595554351807] [-1.5057742595672607:1.8287341594696045] [-2.0515961647033691:1.8467962741851807] [-1.9451967477798462:1.7292251586914062] [-1.2390451431274414:1.5124380588531494] [-1.2368857860565186:1.3903933763504028] [-0.82197821140289307:2.4537353515625] [-1.1077989339828491:1.4375211000442505] [-2.3612890243530273:0.79543131589889526] [-2.5389902591705322:0.61601197719573975] [-1.2590341567993164:2.6860411167144775] [-1.8971483707427979:1.0666090250015259] [-1.142458438873291:1.0017949342727661] [-1.9743409156799316:1.5588345527648926] [-3.140754222869873:1.1068876981735229] [-1.638679027557373:0.96286386251449585] [-2.3138778209686279:1.7938156127929688] [-1.7790181636810303:0.95955449342727661] [-1.1081076860427856:1.4894187450408936] [-0.8906475305557251:2.1003327369689941] [-2.5751616954803467:0.79102593660354614] [-0.85528993606567383:1.7707897424697876] [-2.0474605560302734:1.8075556755065918] [-2.2969534397125244:1.038791298866272] [-1.157849907875061:1.9125329256057739] [-1.9392663240432739:2.043088436126709] [-1.0738142728805542:1.8016690015792847] [-3.261631965637207:0.72794032096862793] [-2.2638857364654541:0.83922398090362549] [-1.3734152317047119:1.7416287660598755] [-1.6080079078674316:1.3128671646118164] [-2.3016185760498047:1.0463507175445557] [-0.71682322025299072:1.8120124340057373] [-0.80491578578948975:2.5184552669525146] [-0.77727162837982178:2.8368608951568604] [-1.5977277755737305:1.3081841468811035] [-2.2134196758270264:1.7511264085769653] [-2.0347867012023926:0.98013174533843994] [-2.3616542816162109:0.26456454396247864] [-1.8987730741500854:1.5841270685195923] [-1.1912209987640381:2.7804684638977051] [-2.0914735794067383:1.4453569650650024] [-2.3689181804656982:1.2334209680557251] [-1.7874608039855957:1.2718774080276489] [-1.1027423143386841:2.4940240383148193] [-1.9983748197555542:1.7954225540161133] [-0.93138998746871948:1.7505557537078857] [-0.75169926881790161:2.6684417724609375] [-2.1542537212371826:0.41745147109031677] [-1.6289191246032715:2.0993173122406006] [-1.0842440128326416:2.1457629203796387] [-1.5990331172943115:1.9023382663726807] [-1.0184959173202515:1.9209023714065552] [-1.3748404979705811:1.8331109285354614] [-2.6852493286132812:0.75095295906066895] [-2.3809576034545898:2.0574591159820557] [-1.9458224773406982:1.979814887046814] [-1.6676373481750488:1.5237877368927002] [-1.4258594512939453:1.3628499507904053] [-1.8187074661254883:1.5893129110336304] [-0.40000274777412415:2.3045778274536133] [-1.9540857076644897:1.3670195341110229] [-1.8601762056350708:1.4035959243774414] [-1.8859366178512573:1.3944758176803589] [-1.6932855844497681:1.8521639108657837] [-1.0257682800292969:1.8161653280258179] [-1.768000602722168:3.0279419422149658] [-1.4139404296875:1.3858195543289185] [-2.4028990268707275:1.3412748575210571] [-1.1643474102020264:2.1173362731933594] [-0.85049527883529663:1.3909940719604492] [-1.5259236097335815:1.785984992980957] [-1.6777540445327759:1.5051349401473999] [-2.4098830223083496:1.4058765172958374] [-1.0802445411682129:1.8775025606155396] [-1.1359187364578247:1.6656981706619263] [-1.58732008934021:1.0523445606231689] [-2.089113712310791:0.35570505261421204] [-0.45993208885192871:2.1657326221466064] [-1.2833256721496582:1.8903218507766724] [-2.9155240058898926:1.087460994720459] [-1.7790273427963257:0.68703407049179077] [-1.099298357963562:2.0351047515869141] [-2.1332221031188965:1.2765265703201294] [-2.146125316619873:1.4962267875671387] [-1.5351605415344238:1.9277825355529785] [-2.4819133281707764:0.69392859935760498] [-1.8190329074859619:1.0334097146987915] [-1.3806451559066772:1.7285212278366089] [-1.312048077583313:1.8970197439193726] [-1.7749661207199097:2.5517129898071289] [-1.9963794946670532:1.439822793006897] [-1.6723551750183105:1.2399832010269165] [-2.0783522129058838:1.227996826171875] [0.34449154138565063:4.3336067199707031] [-0.89672797918319702:1.9136192798614502] [-2.9469001293182373:1.3747965097427368] [-1.9835937023162842:1.3269087076187134] [-1.9964067935943604:0.70718681812286377] [-0.70383697748184204:1.8810932636260986] [-1.6691833734512329:1.38346266746521] [-1.3445228338241577:2.1189906597137451] [-1.6039767265319824:2.1814548969268799] [-2.4549694061279297:1.1904098987579346] [-2.1368193626403809:0.25994229316711426] [-1.3645075559616089:1.4051827192306519] [-2.4987921714782715:1.2770993709564209] [-1.8383923768997192:1.8952757120132446] [-2.1725034713745117:1.0125124454498291] [-1.605894923210144:1.3229970932006836] [-2.200631856918335:1.1535181999206543] [-0.85317343473434448:2.0388665199279785] [-1.1891875267028809:1.2724928855895996] [-1.9027707576751709:1.2169158458709717] [-1.2537139654159546:1.7835410833358765] [-1.7666281461715698:1.4351440668106079] [-1.6296900510787964:1.1715754270553589] [-1.06927490234375:1.5509049892425537] [-1.2408370971679688:2.0948119163513184] [-1.9290355443954468:1.2020958662033081] [-1.4249176979064941:1.8953193426132202] [-0.90353494882583618:2.1780886650085449] [-2.636038064956665:0.51149582862854004] [-1.9022420644760132:1.519486665725708] [-1.5705103874206543:1.4081587791442871] [-1.0480556488037109:1.4727551937103271] [-0.85347485542297363:2.1135761737823486] [-1.2164019346237183:1.3426055908203125] [-1.0664166212081909:2.4501864910125732] [-1.4842680692672729:1.801282525062561] [-1.5376816987991333:1.198006272315979] [-0.80068421363830566:2.3165090084075928] [-2.0533626079559326:0.52941375970840454] [-1.5023571252822876:2.436077356338501] [-1.3022704124450684:0.92188763618469238] [-1.9543485641479492:1.442237377166748] [-1.2951995134353638:2.0025947093963623] [-1.8322740793228149:1.5965936183929443] [-1.8792396783828735:1.3843886852264404] [-0.96408188343048096:2.3037383556365967] [-3.0045411586761475:1.6464014053344727] [-0.63761502504348755:2.6309745311737061] [-2.5172724723815918:1.040061354637146] [-1.3701597452163696:2.139333963394165] [-1.8788611888885498:0.97544711828231812] [-1.2084019184112549:1.6814934015274048] [-1.636864185333252:1.1808505058288574] [-2.3311259746551514:1.5447219610214233] [-1.6423301696777344:1.9128961563110352] [-1.7466111183166504:0.9033045768737793] [-1.964397668838501:1.2503596544265747] [-1.1000974178314209:1.7382431030273438] [-1.6682256460189819:1.5085991621017456] [-2.0843892097473145:1.821397066116333] [-0.93671244382858276:2.9622046947479248] [-2.4271228313446045:1.6891649961471558] [-1.8070982694625854:1.1860781908035278] [-1.3583710193634033:1.5710102319717407] [-2.2537534236907959:0.98644554615020752] [-2.5140726566314697:1.5371466875076294] [-0.56670033931732178:1.9882974624633789] [-1.1549711227416992:2.0113739967346191] [-1.9993712902069092:1.2153871059417725] [-1.8707888126373291:1.7547386884689331] [-1.8094706535339355:1.6579530239105225] [-1.1888300180435181:0.99733555316925049] [-2.7579030990600586:0.91353243589401245] [-1.4836314916610718:1.8234500885009766] [-1.5260270833969116:2.5135674476623535] [-1.7846639156341553:1.7614502906799316] [-0.96109241247177124:2.3425426483154297] [-2.6014945507049561:1.0813256502151489] [-1.2186177968978882:2.1211552619934082] [-2.4397461414337158:0.36918538808822632] [-1.5551660060882568:0.94061625003814697] [-1.7576950788497925:1.3527954816818237] [-1.8489056825637817:1.3121634721755981] [-1.0938929319381714:1.5169984102249146] [-1.48089599609375:2.1026015281677246] [-2.5666441917419434:1.5177614688873291] [-0.65772038698196411:2.2375442981719971] [-1.6465597152709961:1.3751835823059082] [-1.6214727163314819:0.84837484359741211] [-3.0844628810882568:0.59600049257278442] [-0.78985905647277832:2.2765300273895264] [-1.8818626403808594:1.6949704885482788] [-2.5765125751495361:2.1550390720367432] [-1.6545944213867188:1.695387601852417] [-1.2363849878311157:1.828522801399231] [-2.2505245208740234:1.4084441661834717] [-0.63643324375152588:1.8999165296554565] [-1.4589184522628784:1.4963165521621704] [-2.3048686981201172:1.6313055753707886] [-1.5585964918136597:0.79259973764419556] [-0.87522369623184204:2.2212619781494141] [-2.5056664943695068:0.79704380035400391] [-1.1444368362426758:2.3120987415313721] [-1.4464529752731323:1.3408794403076172] [-1.6502640247344971:1.0796952247619629] [-1.2709627151489258:2.0079023838043213] [-2.0483624935150146:1.5757530927658081] [-3.1434497833251953:1.1339445114135742] [-0.60706996917724609:2.3501038551330566] [-1.7697943449020386:1.2076097726821899] [-1.7006438970565796:0.83760404586791992] [-2.0291299819946289:1.0865212678909302] [-1.1026192903518677:2.2881028652191162] [-1.5815887451171875:1.0135504007339478] [-2.5167803764343262:0.98666238784790039] [-2.3999688625335693:1.2477048635482788] [-2.2143573760986328:1.5552307367324829] [-1.4093037843704224:1.924810528755188] [-0.3898891806602478:2.4939274787902832] [-0.96221017837524414:2.4839274883270264] [-0.70966660976409912:2.343533992767334] [-1.143771767616272:2.5265903472900391] [-2.3812112808227539:0.42228594422340393] [-1.8184908628463745:1.5812194347381592] [-2.5039205551147461:1.2695727348327637] [-1.8234515190124512:0.81027507781982422] [-2.019132137298584:1.1380003690719604] [-0.83236563205718994:3.9762890338897705] [-1.0714092254638672:2.4026169776916504] [-1.6266988515853882:1.6594294309616089] [-1.2702984809875488:2.3755660057067871] [-2.3427050113677979:0.69721734523773193] [-1.1041760444641113:1.6552318334579468] [-1.343448281288147:2.0529508590698242] [-1.7922567129135132:1.2490280866622925] [-1.1997376680374146:2.0269351005554199] [-1.1942028999328613:2.1435601711273193] [-0.88893580436706543:1.7509071826934814] [-2.1648273468017578:1.5562741756439209] [-1.940126895904541:1.4358724355697632] [-2.5439550876617432:0.71310806274414062] [-2.6446912288665771:1.2431398630142212] [-1.233446478843689:2.5694003105163574] [-1.895882248878479:1.0064661502838135] [-1.5160566568374634:1.0503007173538208] [-1.8021354675292969:2.0576608180999756] [-1.8416640758514404:2.4020555019378662] [-1.0743939876556396:1.7539228200912476] [-2.0599713325500488:1.3859637975692749] [-1.264636754989624:1.3838006258010864] [-2.9595386981964111:0.388904869556427] [-2.94394850730896:1.1282916069030762] [-1.9222201108932495:0.59150218963623047] [-1.6993013620376587:1.4748202562332153] [-2.5273871421813965:0.81120473146438599] [-1.2705435752868652:2.6443808078765869] [-1.1661640405654907:1.9647989273071289] [-1.127275824546814:2.8464438915252686] [-2.6522033214569092:0.65471750497817993] [-1.4944491386413574:1.9748518466949463] [-2.262728214263916:1.8211411237716675] [-0.73717153072357178:1.9617973566055298] [-2.3256707191467285:0.97991794347763062] [-0.76477181911468506:2.2217576503753662] [-2.1107523441314697:1.610346794128418] [-1.3499115705490112:2.253171443939209] [-2.9748859405517578:0.65670102834701538] [-0.78905928134918213:2.8576905727386475] [-1.7891809940338135:0.93708717823028564] [-1.3807947635650635:1.2435489892959595] [-1.3669561147689819:1.1534354686737061] [-2.570941686630249:2.1437158584594727] [-2.5733742713928223:1.2576463222503662] [-1.6562728881835938:1.6630270481109619] [-1.9637072086334229:1.4728891849517822] [-1.0455113649368286:2.0791890621185303] [-1.7669386863708496:1.8643205165863037] [-1.3180549144744873:1.9640359878540039] [-1.4338169097900391:1.6791517734527588] [-1.8509382009506226:0.50309163331985474] [-2.6242315769195557:1.3511059284210205] [-1.2411459684371948:1.6703294515609741] [-1.588432788848877:1.7904469966888428] [-1.9633060693740845:1.3121898174285889] [-3.016648530960083:0.459514319896698] [-1.1882810592651367:2.8280916213989258] [-2.3137810230255127:0.90042459964752197] [-1.5667325258255005:1.637574315071106] [-0.86452621221542358:2.0031864643096924] [-1.3997414112091064:1.043771505355835] [-2.4497795104980469:0.81914502382278442] [-0.93775856494903564:3.0630350112915039] [-1.8396811485290527:1.7242170572280884] [-0.65108412504196167:2.0810248851776123] [-1.6754593849182129:0.97923219203948975] [-1.9119198322296143:1.5076582431793213] [-2.4594953060150146:1.3271522521972656] [-1.5093891620635986:1.110637903213501] [-1.640333890914917:1.7728618383407593] [-0.057460270822048187:3.8320953845977783] [-1.4369081258773804:3.0445559024810791] [-2.046933650970459:1.137019157409668] [-2.0194070339202881:1.2248576879501343] [-1.7289479970932007:1.2240086793899536] [-1.5094846487045288:1.5613265037536621] [-1.2946761846542358:1.2086209058761597] [-0.74246805906295776:2.3205487728118896] [-1.1915353536605835:2.4016561508178711] [-2.1929986476898193:1.9706590175628662] [-1.7583532333374023:2.0648281574249268] [-1.5766746997833252:1.9276758432388306] [-0.79506057500839233:2.5992064476013184] [-1.6841696500778198:2.0935840606689453] [-0.278765469789505:3.0360844135284424] [-1.8096394538879395:1.3840906620025635] [-0.8581203818321228:2.5990040302276611] [-3.0264012813568115:0.80170249938964844] [-2.1792116165161133:2.1575958728790283] [-2.1033828258514404:2.0350818634033203] [-1.648726224899292:1.59989333152771] [-1.7322744131088257:1.6069414615631104] [-1.9732495546340942:1.3630740642547607] [-1.725415825843811:1.5533547401428223] [-1.6472576856613159:1.6689232587814331] [-1.6461678743362427:2.0835702419281006] [-1.7538300752639771:1.5255934000015259] [-2.4808197021484375:1.2136131525039673] [-1.352117657661438:1.3995661735534668] [-1.3173155784606934:1.9421573877334595] [-2.2551305294036865:0.97580128908157349] [-0.98326408863067627:1.8508102893829346] [-2.1597020626068115:0.88221734762191772] [-0.84861350059509277:0.14678078889846802] [-1.8179680109024048:1.2852379083633423] [-2.0345518589019775:1.7116395235061646] [-2.0422899723052979:1.0803663730621338] [-0.65076225996017456:2.9305930137634277] [-1.6523300409317017:1.9526029825210571] [-2.2869329452514648:1.192690372467041] [-1.3675179481506348:1.3049081563949585] [-1.4637622833251953:1.4509637355804443] [-2.7327368259429932:2.0559623241424561] [-1.5104326009750366:2.5592935085296631] [-1.8095471858978271:1.1986442804336548] [-1.3484578132629395:1.5662853717803955] [-1.1947344541549683:1.3049650192260742] [-0.69512397050857544:2.7519726753234863] [-0.70636159181594849:2.2058398723602295] [-1.7859088182449341:1.4784595966339111] [-0.37342298030853271:4.2601900100708008] [-2.7187588214874268:1.0363447666168213] [-1.7642384767532349:0.96216452121734619] [-0.88655489683151245:2.2258994579315186] [-1.7196060419082642:1.6392734050750732] [-1.3050605058670044:2.1331079006195068] [-2.0600302219390869:1.2088985443115234] [-2.3653461933135986:1.5055966377258301] [-2.5496916770935059:1.02824866771698] [-0.94900244474411011:1.8271876573562622] [-1.7697454690933228:1.2241666316986084] [-1.7636290788650513:1.1686240434646606] [-1.885201096534729:1.1966500282287598] [-3.1594557762145996:1.4628121852874756] [-0.39631879329681396:1.626430869102478] [-21.486560821533203:-5.6990337371826172] [-1.86456298828125:1.1742135286331177] [-1.3297319412231445:2.3048291206359863] [-1.5663834810256958:1.8143870830535889] [-1.4753867387771606:2.0317778587341309] [-1.7759085893630981:0.89146876335144043] [-1.7572169303894043:1.0167142152786255] [-1.3389688730239868:-0.091833427548408508] [-1.3009052276611328:1.6344248056411743] [-1.8339781761169434:1.2796735763549805] [-2.1125235557556152:1.0100189447402954] [-1.5332660675048828:1.4006755352020264] [-1.2765349149703979:1.2697871923446655] [-0.9962807297706604:1.7929776906967163] [-2.0175330638885498:1.0547997951507568] [-1.8067711591720581:0.86672705411911011] [-3.0840859413146973:1.1407790184020996] [-2.3556289672851562:0.4028296172618866] [-1.8083293437957764:1.1496011018753052] [-1.7548904418945312:1.4963146448135376] [-1.8230413198471069:1.4673666954040527] [-1.6729468107223511:1.0834003686904907] [-1.5288819074630737:2.1956260204315186] [-1.8312970399856567:1.0545679330825806] [-2.3056962490081787:1.493855357170105] [-1.0244641304016113:2.0419492721557617] [-0.91094428300857544:2.4921622276306152] [-1.8573794364929199:0.9679674506187439] [-1.8897659778594971:1.2066062688827515] [-2.400273323059082:2.171147346496582] [-1.6198570728302002:1.753531813621521] [-1.8581439256668091:1.4007298946380615] [-1.5497543811798096:1.2349261045455933] [-1.1537696123123169:1.841039776802063] [-1.7024973630905151:1.9195648431777954] [-1.1258790493011475:2.41265869140625] [-1.2820420265197754:1.853395938873291] [-1.7706067562103271:2.4332520961761475] [-2.3079545497894287:0.924335777759552] [-2.9334487915039062:0.75296097993850708] [-2.871523380279541:0.57492685317993164] [-1.8418292999267578:1.4035798311233521] [-1.5935704708099365:1.7365189790725708] [-2.0813467502593994:1.8481121063232422] [-1.4999001026153564:1.5264533758163452] [-1.9724488258361816:1.4274786710739136] [-1.2550382614135742:1.9009395837783813] [-1.7870947122573853:1.4746005535125732] [-1.3848154544830322:1.7851365804672241] [-1.9451905488967896:1.0756479501724243] [-1.7883660793304443:1.4260686635971069] [-1.9228515625:1.2583227157592773] [-1.1236745119094849:1.9206151962280273] [-1.7603690624237061:2.7445909976959229] [-1.497429370880127:2.1138689517974854] [-0.75973063707351685:2.0219948291778564] [-1.3258755207061768:2.453869104385376] [-2.2067861557006836:1.7947318553924561] [-1.0501303672790527:2.2105607986450195] [-0.66323184967041016:1.8832887411117554] [-2.0348451137542725:1.8399091958999634] [-1.178158164024353:1.9054900407791138] [-1.8894244432449341:2.2234296798706055] [-2.2248516082763672:1.6839033365249634] [-1.0122363567352295:2.26790452003479] [-2.7393918037414551:1.0508984327316284] [-1.556360125541687:1.5045517683029175] [-1.8291091918945312:1.5427048206329346] [-1.8717209100723267:1.4792860746383667] [-3.1427569389343262:1.2891318798065186] [-1.2287514209747314:2.1228630542755127] [-1.809971809387207:1.2498081922531128] [-2.8487153053283691:0.54305136203765869] [-2.3364467620849609:0.69308745861053467] [-1.5087499618530273:1.6755164861679077] [-1.2789208889007568:1.4852385520935059] [-1.1149884462356567:2.194425106048584] [-2.025324821472168:0.66649794578552246] [-1.7632635831832886:1.7981427907943726] [-0.86143648624420166:2.4839150905609131] [-3.4907381534576416:0.21257343888282776] [-1.3274846076965332:2.6192405223846436] [-2.0814507007598877:1.2037473917007446] [-1.3726739883422852:2.1051526069641113] [-1.8487298488616943:1.0255078077316284] [-2.3052878379821777:1.8773607015609741] [-3.3434183597564697:1.4053767919540405] [-1.1690208911895752:2.0025207996368408] [-2.8519952297210693:0.86545670032501221] [-1.2715673446655273:2.1709167957305908] [-1.8015015125274658:1.4938124418258667] [-2.1395387649536133:2.3171224594116211] [-2.2244994640350342:1.2713401317596436] [-1.7297602891921997:1.231947660446167] [-1.2996107339859009:2.0798780918121338] [-1.68201744556427:1.2268044948577881] [-2.0387585163116455:1.1273856163024902] [-1.6123031377792358:1.6352821588516235] [-1.1546169519424438:1.2056169509887695] [-1.3816821575164795:1.7114560604095459] [-1.4034351110458374:1.6369887590408325] [-1.4827940464019775:2.0307867527008057] [-1.7144429683685303:1.6267330646514893] [-1.2992172241210938:2.0034518241882324] [-1.1119961738586426:1.6036690473556519] [-1.0794512033462524:1.473080039024353] [-1.2556674480438232:1.731232762336731] [-1.1982628107070923:1.3039534091949463] [-1.2901241779327393:1.4950889348983765] [-1.8891791105270386:2.5572524070739746] [-1.3794277906417847:1.4117286205291748] [-2.5367856025695801:0.90045428276062012] [-0.32625442743301392:3.3724610805511475] [-1.8679170608520508:1.5671181678771973] [-2.071638822555542:1.0981730222702026] [-0.91280120611190796:2.4657063484191895] [-1.8622870445251465:0.99847894906997681] [-2.1076445579528809:1.4989306926727295] [-1.8501498699188232:2.0004110336303711] [-0.96883338689804077:1.6978286504745483] [-1.7905780076980591:1.0923227071762085] [-2.6722011566162109:0.6960289478302002] [-1.3350943326950073:1.8389177322387695] [-1.1158624887466431:1.7658169269561768] [-1.6964085102081299:0.62808221578598022] [-2.0237977504730225:1.688043475151062] [-1.6561160087585449:1.6163070201873779] [-1.6598352193832397:2.0166919231414795] [-1.6023452281951904:1.37566077709198] [-1.9385819435119629:1.1996301412582397] [-2.3160958290100098:1.1400198936462402] [-1.6532447338104248:1.2132792472839355] [-1.0594918727874756:2.5896248817443848] [-2.0062847137451172:0.82995814085006714] [-2.1186904907226562:1.6032172441482544] [-2.2583515644073486:0.66303133964538574] [-1.5853561162948608:1.2561147212982178] [-1.9905598163604736:1.204743504524231] [-2.0230326652526855:1.0192638635635376] [-2.7769753932952881:0.50500726699829102] [-1.273525595664978:1.762500524520874] [-1.8897179365158081:2.3992397785186768] [-1.1234340667724609:1.8771640062332153] [-1.5390980243682861:1.8496726751327515] [-1.8493608236312866:1.5028648376464844] [-2.3347775936126709:0.65595948696136475] [-1.7531195878982544:1.7489714622497559] [-0.54146409034729004:2.9506933689117432] [-1.6998442411422729:1.0527117252349854] [-3.014690637588501:2.0780980587005615] [-1.6254408359527588:1.9034744501113892] [-1.012610912322998:1.9132797718048096] [-1.3988908529281616:1.3061915636062622] [-1.1937761306762695:3.5358784198760986] [-1.9044017791748047:1.4771924018859863] [-3.0543441772460938:1.2010821104049683] [-1.8022701740264893:1.4604841470718384] [-1.6501754522323608:1.8816376924514771] [-1.460019588470459:1.1510477066040039] [-1.6075477600097656:1.9080806970596313] [-1.7604048252105713:1.7808210849761963] [-2.2162203788757324:0.95186203718185425] [-1.5637288093566895:2.1628503799438477] [-1.0729398727416992:2.0775368213653564] [-1.4318021535873413:2.1151578426361084] [-2.1396207809448242:1.0956981182098389] [-1.9338912963867188:1.5429956912994385] [-2.8685743808746338:0.68663674592971802] [-1.9411277770996094:1.7206847667694092] [-0.92420500516891479:2.8584752082824707] [-1.0784307718276978:2.4095203876495361] [-2.8564350605010986:1.2539236545562744] [-1.1190767288208008:1.2897034883499146] [-1.2986093759536743:1.3737822771072388] [-1.7111269235610962:1.2660764455795288] [-1.5789276361465454:1.315278172492981] [-1.1838585138320923:1.8645902872085571] [-1.1666560173034668:1.4747236967086792] [-2.4562287330627441:1.2261381149291992] [-1.1584045886993408:1.7461349964141846] [-1.2661674022674561:1.397375226020813] [-1.2911214828491211:1.4911185503005981] [-0.83327323198318481:2.0552473068237305] [-1.1089767217636108:2.3861751556396484] [-2.3415515422821045:0.99392491579055786] [-2.1388041973114014:2.7803623676300049] [-2.2679159641265869:0.66803872585296631] [-2.8330652713775635:1.5523632764816284] [-1.9353784322738647:1.6911230087280273] [-1.7208775281906128:1.8865314722061157] [-1.2026126384735107:1.4263403415679932] [-2.3490159511566162:0.50664395093917847] [-2.7921016216278076:1.4975227117538452] [-1.7529815435409546:1.0631555318832397] [-2.3384189605712891:1.3329359292984009] [-1.2709150314331055:1.2586269378662109] [-6.589909553527832:-0.73340487480163574] [-1.8354401588439941:1.5851742029190063] [-2.1113383769989014:0.9899439811706543] [-2.519289493560791:1.0652767419815063] [-1.6683226823806763:2.6816709041595459] [-2.8412449359893799:1.1203261613845825] [-1.9840412139892578:1.3165081739425659] [-2.8105254173278809:0.79036879539489746] [-1.2522141933441162:1.9192639589309692] [-1.6654373407363892:2.1839616298675537] [-1.1469275951385498:1.650348424911499] [-1.438994288444519:1.3738253116607666] [-1.6422632932662964:1.5167990922927856] [-1.6586346626281738:1.06072998046875] [-1.4441097974777222:2.4688758850097656] [-1.4550585746765137:2.0036752223968506] [-0.65535998344421387:1.7943778038024902] [-1.2108145952224731:2.2069358825683594] [-1.1077893972396851:2.2593185901641846] [-1.2376115322113037:1.7091858386993408] [-1.6287851333618164:0.69875836372375488] [-1.5187631845474243:2.5875129699707031] [-1.6520301103591919:1.0907877683639526] [-1.2099361419677734:1.609619140625] [-1.737851619720459:1.4940751791000366] [-0.79306691884994507:1.9305756092071533] [-1.93172287940979:2.0206515789031982] [-1.0841095447540283:2.1258058547973633] [-2.8096652030944824:1.0335046052932739] [-1.3581359386444092:2.154773473739624] [-0.5691789984703064:2.0672004222869873] [-1.7032767534255981:2.7626636028289795] [-1.5283702611923218:2.4247827529907227] [-1.3143715858459473:0.95652443170547485] [-2.1974465847015381:1.4325982332229614] [-1.2358250617980957:1.8281407356262207] [-1.1427299976348877:2.3640656471252441] [-1.5281302928924561:1.7620408535003662] [-1.5216035842895508:1.8371884822845459] [-2.4874179363250732:1.0492649078369141] [-1.210468053817749:1.3060997724533081] [-2.0707623958587646:2.1076648235321045] [-3.7149868011474609:0.75230211019515991] [-1.1408653259277344:1.6572515964508057] [-1.380193829536438:1.6811606884002686] [-2.57131028175354:1.3982630968093872] [-0.78020787239074707:2.3248291015625] [-1.7937554121017456:1.4523746967315674] [-2.0236921310424805:1.1444050073623657] [-1.1673510074615479:1.3405672311782837] [-0.81873971223831177:2.0817463397979736] [-1.2284996509552002:2.2753298282623291] [-0.723277747631073:1.8841190338134766] [-2.4146807193756104:1.2108092308044434] [-2.2534782886505127:1.0497426986694336] [-2.0301270484924316:1.4001860618591309] [-0.70998203754425049:3.0479805469512939] [-1.2087591886520386:2.0927121639251709] [-0.79773521423339844:2.2645354270935059] [-1.8315423727035522:1.8127152919769287] [-1.740044116973877:0.98560339212417603] [-0.95481055974960327:1.6476856470108032] [-0.555961012840271:1.9581617116928101] [-2.0936844348907471:1.5973316431045532] [-1.0204083919525146:1.4149528741836548] [-1.0853654146194458:2.8195691108703613] [-1.5498753786087036:1.8200559616088867] [-0.99697655439376831:1.5153641700744629] [-1.9324899911880493:1.7518215179443359] [-1.1534680128097534:2.0694034099578857] [-1.4734687805175781:1.9510352611541748] [-2.2256269454956055:0.16738234460353851] [-1.2736620903015137:1.506847620010376] [-2.0570347309112549:1.1365445852279663] [-2.0917148590087891:1.3276947736740112] [-1.9046258926391602:2.3617267608642578] [-1.60779869556427:1.9248975515365601] [-2.3273475170135498:0.92895966768264771] [-1.2625273466110229:1.8066519498825073] [-1.4098759889602661:1.0120072364807129] [-1.5396314859390259:1.6441011428833008] [-1.1308379173278809:2.266230583190918] [-2.1009283065795898:1.4680802822113037] [-2.2921559810638428:0.89894562959671021] [-1.6391377449035645:1.9487626552581787] [-1.1457856893539429:2.2386760711669922] [-1.6125885248184204:1.7406775951385498] [-0.69546633958816528:1.7243491411209106] [-1.8249439001083374:1.1735997200012207] [-2.3289029598236084:0.70502710342407227] [-1.2539576292037964:1.7133188247680664] [-0.68197780847549438:1.7048289775848389] [-1.455796480178833:1.9401224851608276] [-0.9750068187713623:2.2711849212646484] [-0.98421543836593628:1.7600983381271362] [-1.7341521978378296:1.8133559226989746] [-1.2462218999862671:1.460731029510498] [-2.488818883895874:1.7409369945526123] [-1.5931237936019897:1.0647441148757935] [-1.5383468866348267:1.6512680053710938] [-1.6797276735305786:0.71979326009750366] [-2.6661579608917236:1.9691407680511475] [-0.81053650379180908:2.6241440773010254] [-2.0926361083984375:1.269040584564209] [-1.2712937593460083:1.8099285364151001] [-1.9095176458358765:1.5947039127349854] [-1.9461750984191895:1.2406005859375] [-1.4180495738983154:1.6673901081085205] [-1.7507611513137817:1.2617778778076172] [-1.1849919557571411:2.1952357292175293] [-1.7652531862258911:1.2996885776519775] [-1.1368616819381714:1.9386684894561768] [-2.164804220199585:1.1810821294784546] [-1.3670084476470947:2.5834503173828125] [-1.4408023357391357:1.8000196218490601] [-1.8111375570297241:2.0716543197631836] [-2.1003000736236572:2.2463192939758301] [-2.5474309921264648:1.227338433265686] [-1.8756989240646362:1.1432292461395264] [-1.2213842868804932:1.5897951126098633] [-2.3195197582244873:1.574320912361145] [-1.4227116107940674:1.5755271911621094] [-1.8053847551345825:0.97479707002639771] [-2.2199475765228271:1.6535806655883789] [-1.739454984664917:1.2564094066619873] [-1.558132529258728:1.8661681413650513] [-1.6503874063491821:1.2160961627960205] [-1.4674109220504761:2.0956981182098389] [-2.5433402061462402:0.72025889158248901] [-2.2125496864318848:1.5130263566970825] [-1.8958162069320679:0.74361026287078857] [-1.8798816204071045:1.2553960084915161] [-1.5959955453872681:1.072790265083313] [-1.8927056789398193:1.7129795551300049] [-1.8401491641998291:2.6089112758636475] [-1.5010027885437012:1.7111480236053467] [-1.2948713302612305:2.6388494968414307] [-1.8130874633789062:1.5710043907165527] [-2.2715225219726562:0.74957948923110962] [-1.2193710803985596:1.9668916463851929] [-2.8301780223846436:0.82362270355224609] [-0.78410464525222778:1.653275728225708] [-1.9353533983230591:1.2212702035903931] [-2.8944997787475586:0.24103310704231262] [-2.219897985458374:1.1018741130828857] [-2.0679781436920166:0.63720089197158813] [-1.6537978649139404:1.4925583600997925] [-1.0461475849151611:1.6977279186248779] [-0.70222628116607666:3.1981980800628662] [-1.417458176612854:1.7491134405136108] [-1.4094270467758179:1.5357716083526611] [-1.9078993797302246:2.2305350303649902] [-1.8973766565322876:1.09721839427948] [-2.5653445720672607:0.50627404451370239] [-1.6028172969818115:1.9381749629974365] [-0.64909690618515015:2.6481575965881348] [-1.8706777095794678:1.1185039281845093] [-1.5794676542282104:2.373767614364624] [-1.4122737646102905:1.2056063413619995] [-0.96369451284408569:2.153827428817749] [-1.5916318893432617:1.0212092399597168] [-2.605393648147583:1.1540286540985107] [-1.1904450654983521:1.75644850730896] [-1.5279570817947388:2.1662583351135254] [-1.8495652675628662:1.9038968086242676] [-1.8676135540008545:1.1415559053421021] [-1.4798291921615601:1.0779762268066406] [-1.3644572496414185:1.5886608362197876] [-2.4298322200775146:1.2902607917785645] [-1.528652548789978:1.3589696884155273] [-1.0483973026275635:2.1311483383178711] [-1.1197909116744995:1.8681674003601074] [-1.3246626853942871:2.6349384784698486] [-1.4875587224960327:1.277259349822998] [-1.5671708583831787:1.272800087928772] [-0.66793286800384521:2.2575955390930176] [-0.5507282018661499:3.7269532680511475] [-2.0847570896148682:1.3860137462615967] [-1.3680940866470337:2.0418715476989746] [-1.7586140632629395:2.1540915966033936] [-1.3189921379089355:2.203571081161499] [-1.8827903270721436:1.7575069665908813] [-1.8461178541183472:2.1400046348571777] [-1.2249895334243774:2.1343629360198975] [-1.5495439767837524:1.7504234313964844] [-1.3271909952163696:2.9978654384613037] [-1.1089973449707031:2.0987577438354492] [-1.7064961194992065:1.7370398044586182] [-2.5416908264160156:0.51940512657165527] [-1.0809333324432373:1.6958264112472534] [-2.8125755786895752:0.89877879619598389] [-0.69082212448120117:3.0391919612884521] [-1.2840306758880615:1.6643955707550049] [-1.4032441377639771:2.1077017784118652] [-2.6238782405853271:0.94144362211227417] [-0.93310767412185669:1.8462852239608765] [-1.55263352394104:1.6301590204238892] [-1.6435903310775757:1.6363325119018555] [-1.7542001008987427:1.714677095413208] [-1.3539198637008667:1.3411990404129028] [-2.6636509895324707:0.84757339954376221] [-1.1962970495223999:2.085777759552002] [-1.1173125505447388:1.8241173028945923] [-1.2116854190826416:1.8256545066833496] [-1.0645867586135864:0.97255837917327881] [-1.0502856969833374:1.5230432748794556] [-1.3311693668365479:1.4049465656280518] [-2.3936183452606201:0.47390186786651611] [-0.53389656543731689:1.9691429138183594] [-1.4674369096755981:1.382773756980896] [-2.8182969093322754:0.35199391841888428] [-1.4296339750289917:1.9983930587768555] [-1.380204439163208:1.5903369188308716] [-0.50078862905502319:2.1508467197418213] [-2.0868227481842041:2.1357545852661133] [-1.7751411199569702:1.8398468494415283] [-1.903056263923645:1.8454724550247192] [-1.7944915294647217:1.8979250192642212] [-1.4387028217315674:1.5005772113800049] [-1.2000719308853149:1.6871161460876465] [-0.83584338426589966:2.5423092842102051] [-1.3961607217788696:1.299747109413147] [-2.288752555847168:1.140018105506897] [-2.3482491970062256:0.95576971769332886] [-1.075596809387207:3.0886547565460205] [-1.9551736116409302:1.1965506076812744] [-1.4026176929473877:1.1827646493911743] [-2.0542006492614746:1.3487011194229126] [-2.6473584175109863:1.0203720331192017] [-1.5310753583908081:1.1192475557327271] [-2.78448486328125:1.894129753112793] [-1.8743582963943481:1.0736405849456787] [-1.1679270267486572:1.7308176755905151] [-0.76288288831710815:2.4331872463226318] [-3.1263184547424316:0.70706778764724731] [-0.78969007730484009:2.2765851020812988] [-2.3757057189941406:2.1960082054138184] [-1.7684872150421143:1.6435972452163696] [-0.87529343366622925:1.5476753711700439] [-1.9251301288604736:1.5196859836578369] [-1.2436323165893555:1.3948664665222168] [-3.5498154163360596:0.37181964516639709] [-2.1470088958740234:1.2819082736968994] [-1.4978022575378418:1.7481731176376343] [-1.1602777242660522:1.5918793678283691] [-2.6020402908325195:0.98463982343673706] [-1.2492282390594482:2.2775864601135254] [-0.96352571249008179:2.1893613338470459] [-1.2929465770721436:3.0448520183563232] [-1.3814256191253662:1.6749824285507202] [-2.05344557762146:1.7995796203613281] [-1.7734042406082153:1.0453064441680908] [-2.2956488132476807:0.28455549478530884] [-2.2299776077270508:1.4209737777709961] [-1.1711509227752686:3.2647252082824707] [-2.2966234683990479:1.3862845897674561] [-2.6884391307830811:0.75901257991790771] [-2.0107150077819824:1.3389719724655151] [-0.74151903390884399:2.8435177803039551] [-1.7114224433898926:2.0405702590942383] [-0.65676522254943848:2.1273131370544434] [-0.94655525684356689:2.6224932670593262] [-2.0404114723205566:0.74101895093917847] [-1.301169753074646:2.106029748916626] [-1.204958438873291:1.7833882570266724] [-1.6867226362228394:1.8292281627655029] [-1.3153562545776367:1.7846722602844238] [-1.7484668493270874:1.4823405742645264] [-2.828350305557251:0.71857672929763794] [-1.8346996307373047:2.7128088474273682] [-1.8181180953979492:1.7344342470169067] [-1.6107276678085327:1.2600952386856079] [-1.0636181831359863:1.6367038488388062] [-1.6299943923950195:1.4969327449798584] [-0.79228425025939941:2.3165397644042969] [-2.1505625247955322:1.3059965372085571] [-1.9927520751953125:1.4738713502883911] [-1.6434507369995117:1.1740391254425049] [-2.0983960628509521:1.752137303352356] [-1.4751513004302979:1.683397650718689] [-2.2344710826873779:3.1448559761047363] [-1.603196382522583:0.9605027437210083] [-2.3640024662017822:1.0808241367340088] [-1.4868843555450439:2.3502161502838135] [-0.78960990905761719:1.5323690176010132] [-1.275562047958374:1.9356063604354858] [-1.9340635538101196:0.93547302484512329] [-2.2801699638366699:1.6214686632156372] [-1.2237900495529175:1.7875843048095703] [-0.97839707136154175:1.6402887105941772] [-1.5696442127227783:1.0962257385253906] [-2.246112585067749:0.34006407856941223] [-0.77775579690933228:2.068305492401123] [-1.0541765689849854:1.8866817951202393] [-2.4882755279541016:1.4177523851394653] [-2.1170570850372314:0.75651103258132935] [-0.71302115917205811:1.7114394903182983] [-2.2108750343322754:1.6559650897979736] [-2.0555346012115479:1.3361022472381592] [-1.4260609149932861:1.9875189065933228] [-2.2466750144958496:1.0440826416015625] [-1.9861540794372559:1.1064075231552124] [-1.9720132350921631:1.3258142471313477] [-1.7095077037811279:1.6390444040298462] [-1.4976032972335815:2.1077942848205566] [-1.9647364616394043:1.2533364295959473] [-1.7350608110427856:1.1287833452224731] [-2.2024896144866943:0.95846438407897949] [-0.24491517245769501:4.8107204437255859] [-1.0500653982162476:1.5892338752746582] [-2.6590576171875:0.72258108854293823] [-2.0847759246826172:1.5145817995071411] [-2.0177438259124756:0.8996124267578125] [-0.87699991464614868:2.0581393241882324] [-1.2126889228820801:1.6877906322479248] [-1.1448866128921509:2.1227641105651855] [-2.0973384380340576:1.9260237216949463] [-1.9048960208892822:1.9052133560180664] [-1.9888103008270264:0.27841398119926453] [-1.4399535655975342:1.9365338087081909] [-2.3054571151733398:1.4539793729782104] [-1.7752103805541992:1.880805492401123] [-2.3312840461730957:0.83162200450897217] [-2.2197532653808594:1.8865746259689331] [-2.0585579872131348:1.3340965509414673] [-1.3069444894790649:2.1343953609466553] [-1.1472373008728027:1.3272494077682495] [-1.4090465307235718:1.2553616762161255] [-1.714458703994751:1.6058027744293213] [-1.5873889923095703:1.9294415712356567] [-1.8645076751708984:1.0215429067611694] [-1.0261768102645874:1.3121222257614136] [-1.2834886312484741:1.2382264137268066] [-1.6632717847824097:1.0865631103515625] [-1.3103998899459839:1.9301097393035889] [-0.93348234891891479:2.1186885833740234] [-2.5384080410003662:0.83161842823028564] [-1.9504070281982422:1.5489010810852051] [-1.7069336175918579:1.4367543458938599] [-1.008636474609375:1.553164005279541] [-1.1090825796127319:2.4565227031707764] [-1.5252233743667603:1.6396052837371826] [-1.5285208225250244:2.488971471786499] [-1.9509555101394653:1.6402944326400757] [-1.2855226993560791:1.4652045965194702] [-0.78645932674407959:2.4597749710083008] [-2.2830095291137695:0.62144225835800171] [-1.7383445501327515:2.2851932048797607] [-1.1192886829376221:1.0211315155029297] [-2.1238918304443359:1.179781436920166] [-0.97926312685012817:2.0824241638183594] [-1.7344040870666504:1.5229271650314331] [-1.7020654678344727:1.643491268157959] [-0.88930785655975342:2.1452147960662842] [-3.1423954963684082:2.0158507823944092] [-0.86840075254440308:2.6040489673614502] [-2.5662620067596436:1.0455844402313232] [-0.95516598224639893:2.0584952831268311] [-1.6464872360229492:0.85815858840942383] [-1.1945065259933472:1.6477333307266235] [-1.9126791954040527:1.2446215152740479] [-2.3647885322570801:1.7807475328445435] [-1.8516873121261597:1.6982628107070923] [-1.6635478734970093:0.88507634401321411] [-1.9269834756851196:1.1871176958084106] [-1.1839848756790161:1.5058599710464478] [-1.7177969217300415:1.5598016977310181] [-1.7562755346298218:1.795744776725769] [-1.2240064144134521:2.7220029830932617] [-2.7805836200714111:1.3082939386367798] 