tree
version=v2
num_class=2
num_tree_per_iteration=2
label_index=0
max_feature_idx=13
objective=multiclass num_class:2
feature_names=Column_0 Column_1 Column_2 Column_3 Column_4 Column_5 Column_6 Column_7 Column_8 Column_9 Column_10 Column_11 Column_12 Column_13
feature_infos=[0.4360344409942627:0.89896076917648315] [0.73540735244750977:0.95805066823959351] [0.72581779956817627:0.96616148948669434] [0.78475755453109741:0.97688645124435425] [0.81870925426483154:0.98253285884857178] [0.85154366493225098:0.9857405424118042] [0.85335069894790649:0.98641932010650635] [0.79842656850814819:0.98094022274017334] [0.74341440200805664:0.97353971004486084] [0.76577073335647583:0.97625750303268433] [0.79532831907272339:0.97645390033721924] [0.75552737712860107:0.97875630855560303] [0.53715974092483521:0.94631099700927734] [0.27918070554733276:0.91956460475921631]
tree_sizes=557 634 545 564 568 573 568 567 570 643 566 568 572 570 569 569 569 567 471 569 566 569 493 494 568 572 567 565 574 567 572 567 648 649 564 565 567 570 471 493 496 573 565 571 570 570 570 571 496 492 493 570 490 488 569 563 571 570 572 568 570 570 570 567 571 566 549 566 543 496 548 646 549 570 566 496 567 573 547 574 573 551 495 567 568 571 477 550 567 572 625 627 568 647 549 624 571 572 630 626 572 641 572 573 549 572 495 551 495 475 550 552 569 570 573 497 568 570 552 495 572 574 571 571 632 572 631 575 550 494 552 571 494 550 550 529 574 496 494 494 576 497 476 553 648 628 574 574 573 573 633 638 562 566 574 566 495 573 494 494 496 550 494 496 497 495 554 574 628 569 574 573 570 495 478 564 558 547 565 569 557 542 560 476 569 575 570 570 575 571 566 497 572 565 626 625 627 627 561 621 572 575 552 576 552 578 552 578 550 571 551 571 570 497 564 572 567 652 652 561 650 565 651 571 552 652 656 571 573 572 554 570 573 574 573 576 571 575 575 572 573 572 574 550 572 570 500 572 499 571 574 498 499 569 572 497 500 475 557 553 495 498 499 475 576 572 576 551 496 549 571 574 475 497 493 550 495 572 574 497 572 572 576 576 554 574 552 571 498 498 580 577 496 577 498 498 574 556 576 556 554 576 551 492 574 476 475 571 569 570 497 574 561 559 565 562 564 571 574 625 495 502 500 499 497 501 498 571 500 572 577 574 489 578 580 564 577 576 573 576 574 568 556 580 558 560 579 582 578 564 501 568 500 476 497 579 555 576 500 576 577 493 503 568 581 567 573 570 488 497 497 487 489 489 487 485 576 475

Tree=0
num_leaves=6
num_cat=0
split_feature=7 13 3 7 8
split_gain=9.62105 3.22993 1.58743 1.57474 0.729656
threshold=0.8875282108783723 0.58730605244636547 0.9029279649257661 0.94580993056297313 0.91558951139450084
decision_type=6 6 6 6 6
left_child=-1 -2 -3 4 -4
right_child=1 2 3 -5 -6
leaf_value=-0.50347897585469825 -0.50925838416746239 -0.51089695057554396 -0.51457753833305775 -0.51177226766370998 -0.51897886597145915
leaf_count=29 41 29 27 24 21
internal_value=0 -0.174333 -0.314944 -0.42989 -0.583405
internal_count=171 142 101 72 48
shrinkage=1


Tree=1
num_leaves=7
num_cat=0
split_feature=10 6 12 2 5 11
split_gain=7.84098 2.53487 1.22865 1.68196 0.836552 1.18011
threshold=0.92255342006683361 0.92436000704765331 0.78805437684059154 0.84144145250320446 0.95086741447448742 0.95661717653274547
decision_type=6 6 6 6 6 6
left_child=1 -1 3 -3 -2 -6
right_child=4 2 -4 -5 5 -7
leaf_value=-0.92265436845274429 -0.90981793590934523 -0.91863594764120138 -0.91953211123589729 -0.91323288034503192 -0.91620467321908783 -0.91135356811134061
leaf_count=25 22 22 30 25 24 23
internal_value=0 -0.234407 -0.0944414 0.0397176 0.394341 0.260371
internal_count=171 102 77 47 69 47
shrinkage=1


Tree=2
num_leaves=6
num_cat=0
split_feature=7 9 5 7 5
split_gain=9.47824 3.91038 2.1231 1.74015 1.32872
threshold=0.8875282108783723 0.91240447759628307 0.92385193705558788 0.94580993056297313 0.93549194931983959
decision_type=6 6 6 4 4
left_child=-1 2 -2 -3 -4
right_child=1 3 4 -5 -6
leaf_value=0.0073032098062851131 -0.0031504800932627679 -0.0061654442305550681 0.0045514502235821852 -0.00092158887298640136 0
leaf_count=29 23 41 24 24 30
internal_value=0 -0.1728 0.0400949 -0.433496 0.203486
internal_count=171 142 77 65 54
shrinkage=0.01


Tree=3
num_leaves=6
num_cat=0
split_feature=7 9 8 1 7
split_gain=9.47824 3.91038 1.97521 2.34579 1.74015
threshold=0.8875282108783723 0.91240447759628307 0.86888739466667186 0.8606366515159608 0.94580993056297313
decision_type=6 6 6 4 4
left_child=-1 2 -2 -4 -3
right_child=1 4 3 -5 -6
leaf_value=-0.0073032098062851131 0.0032481644400628343 0.0061654442305550681 -0.0049677582143955283 0.00077968116923698017 0.00092158887298640136
leaf_count=29 21 41 27 29 24
internal_value=0 0.1728 -0.0400949 -0.18874 0.433496
internal_count=171 142 77 56 65
shrinkage=0.01


Tree=4
num_leaves=6
num_cat=0
split_feature=7 9 8 1 7
split_gain=9.31351 3.82549 1.94061 2.32097 1.69497
threshold=0.8875282108783723 0.91240447759628307 0.86888739466667186 0.8606366515159608 0.94580993056297313
decision_type=6 6 6 4 4
left_child=-1 2 -2 -4 -3
right_child=1 4 3 -5 -6
leaf_value=0.0072528080232937579 -0.0032173424480112325 -0.0060895968761905585 0.0049390404040443765 -0.00077970491991377405 -0.00091212200453463582
leaf_count=29 21 41 27 29 24
internal_value=0 -0.171035 0.039587 0.187132 -0.428575
internal_count=171 142 77 56 65
shrinkage=0.01


Tree=5
num_leaves=6
num_cat=0
split_feature=13 4 13 6 6
split_gain=8.07192 2.22274 0.803683 1.04449 0.748167
threshold=0.58730605244636547 0.91858571767807018 0.47709570825099951 0.93645191192626964 0.96179702877998363
decision_type=6 6 6 4 6
left_child=2 -2 -1 -4 -3
right_child=1 4 3 -5 -6
leaf_value=-0.0010142335095711576 -0.00046843429049441037 0.0054625536521333232 -0.0070749138917929368 -0.0020709488418504114 0.0021330486144466839
leaf_count=21 30 40 24 21 35
internal_value=0 0.266998 -0.376148 -0.489323 0.400235
internal_count=171 105 66 45 75
shrinkage=0.01


Tree=6
num_leaves=6
num_cat=0
split_feature=7 9 8 1 7
split_gain=9.18971 3.75404 1.92765 2.28904 1.66802
threshold=0.8875282108783723 0.91240447759628307 0.86888739466667186 0.8606366515159608 0.94580993056297313
decision_type=6 6 6 4 4
left_child=-1 2 -2 -4 -3
right_child=1 4 3 -5 -6
leaf_value=0.0072155610613302817 -0.0032092848526683142 -0.0060320336374328825 0.0049123062916702175 -0.00076700674171953918 -0.00089649184467300626
leaf_count=29 21 41 27 29 24
internal_value=0 -0.169611 0.0390789 0.186229 -0.42448
internal_count=171 142 77 56 65
shrinkage=0.01


Tree=7
num_leaves=6
num_cat=0
split_feature=7 9 5 1 7
split_gain=9.18971 3.75404 2.08496 2.15695 1.66802
threshold=0.8875282108783723 0.91240447759628307 0.92385193705558788 0.86490249633789074 0.94580993056297313
decision_type=6 6 6 4 4
left_child=-1 2 -2 -4 -3
right_child=1 4 3 -5 -6
leaf_value=-0.0072155610613302817 0.0031253255604821446 0.0060320336374328825 -0.0049193674154954445 0.00066925201355236264 0.00089649184467300626
leaf_count=29 23 41 27 27 24
internal_value=0 0.169611 -0.0390789 -0.201259 0.42448
internal_count=171 142 77 54 65
shrinkage=0.01


Tree=8
num_leaves=6
num_cat=0
split_feature=8 13 6 5 9
split_gain=10.3661 0.978943 0.670873 1.90957 0.774919
threshold=0.90219706296920787 0.66639292240142833 0.92436000704765331 0.92448127269744884 0.89257019758224498
decision_type=6 6 6 6 6
left_child=2 -2 -1 -4 -5
right_child=1 -3 3 4 -6
leaf_value=0.0051094920173903428 -0.0016656941525788915 -0.0057175999903273655 -0.0012632478202755817 0.0010604436932227007 0.0050574003037700535
leaf_count=30 26 39 21 21 34
internal_value=0 -0.420238 0.309426 0.221357 0.365518
internal_count=171 65 106 76 55
shrinkage=0.01


Tree=9
num_leaves=7
num_cat=0
split_feature=8 0 0 2 12 9
split_gain=10.3661 1.33528 1.85424 0.567704 1.24106 0.379452
threshold=0.90219706296920787 0.62785470485687267 0.67538109421730053 0.9280298948287965 0.8409731686115266 0.88934063911437999
decision_type=6 6 6 6 4 6
left_child=1 -1 -3 4 -2 -4
right_child=3 2 5 -5 -6 -7
leaf_value=-0.0055520694685476588 0.0053167187280393933 0.001055359447112945 -0.0018760937313210108 0.0063645883232956524 0.00011195563077968419 -0.0051754728937381568
leaf_count=34 22 26 24 22 21 22
internal_value=0 -0.309426 -0.183942 0.420238 0.293121 -0.361046
internal_count=171 106 72 65 43 46
shrinkage=0.01


Tree=10
num_leaves=6
num_cat=0
split_feature=9 4 13 11 6
split_gain=9.51267 2.13832 1.05535 1.50196 0.896223
threshold=0.91712218523025524 0.92741945385932933 0.47709570825099951 0.92510181665420543 0.960363268852234
decision_type=6 6 6 6 4
left_child=1 2 -1 -4 -2
right_child=4 -3 3 -5 -6
leaf_value=0.0006446650487032619 -0.0065189994380449147 -0.0012065250734623395 0.0062045180666136139 0.001392174258492743 -0.0023895033237163899
leaf_count=23 27 21 45 25 30
internal_value=0 0.27176 0.367861 0.457828 -0.447388
internal_count=171 114 93 70 57
shrinkage=0.01


Tree=11
num_leaves=6
num_cat=0
split_feature=5 2 5 3 0
split_gain=8.11079 1.50946 2.95591 0.959885 2.34581
threshold=0.94161316752433788 0.9280298948287965 0.95086741447448742 0.88887831568717968 0.62785470485687267
decision_type=6 6 4 6 4
left_child=3 2 -2 4 -1
right_child=1 -3 -4 -5 -6
leaf_value=-0.0048136430982094738 0.0045362336676782553 0.0062949644161565885 -0.0018207304223792819 -0.0057132737287260054 0.00061095065458092817
leaf_count=33 33 22 26 27 30
internal_value=0 0.298772 0.163211 -0.329216 -0.213433
internal_count=171 81 59 90 63
shrinkage=0.01


Tree=12
num_leaves=6
num_cat=0
split_feature=8 7 11 13 10
split_gain=10.0136 1.06346 1.56023 0.957216 0.623695
threshold=0.90219706296920787 0.8875282108783723 0.93136411905288707 0.66639292240142833 0.90130704641342174
decision_type=6 6 6 6 6
left_child=1 -1 4 -2 -3
right_child=3 2 -4 -5 -6
leaf_value=0.0053298835772471968 -0.0016134083257530421 0.0018252133886428414 0.0051532865166859119 -0.0056161597528147748 -0.0013352995001399183
leaf_count=33 26 30 22 39 21
internal_value=0 0.304765 0.193139 -0.412133 0.0401918
internal_count=171 106 73 65 51
shrinkage=0.01


Tree=13
num_leaves=6
num_cat=0
split_feature=8 7 9 13 7
split_gain=10.0136 1.06346 1.64341 0.957216 0.38806
threshold=0.90219706296920787 0.8875282108783723 0.88687226176261913 0.66639292240142833 0.91223445534706127
decision_type=6 6 6 6 6
left_child=1 -1 -3 -2 -4
right_child=3 2 4 -5 -6
leaf_value=-0.0053298835772471968 0.0016134083257530421 0.00095865690640524373 -0.0016336342661608817 0.0056161597528147748 -0.0048341254854071978
leaf_count=33 26 24 23 39 26
internal_value=0 -0.304765 -0.193139 0.412133 -0.34744
internal_count=171 106 73 65 49
shrinkage=0.01


Tree=14
num_leaves=6
num_cat=0
split_feature=9 4 6 11 10
split_gain=9.19649 2.08214 0.906577 0.880869 1.29981
threshold=0.91712218523025524 0.92741945385932933 0.960363268852234 0.92510181665420543 0.89228287339210521
decision_type=6 6 4 6 6
left_child=1 3 -2 4 -1
right_child=2 -3 -4 -5 -6
leaf_value=0.0025856712287094558 -0.0064376583049694193 -0.0011897919315415285 -0.0023053494174154069 0.0010992539684148205 0.0071494260350218339
leaf_count=39 27 21 30 27 27
internal_value=0 0.267741 -0.438988 0.362844 0.456885
internal_count=171 114 57 93 66
shrinkage=0.01


Tree=15
num_leaves=6
num_cat=0
split_feature=8 0 3 3 5
split_gain=9.81866 1.31684 1.94472 1.02781 0.615711
threshold=0.90219706296920787 0.62785470485687267 0.88765230774879467 0.91130930185318004 0.95736044645309459
decision_type=6 6 6 4 4
left_child=1 -1 -3 -4 -2
right_child=4 2 3 -5 -6
leaf_value=-0.0054675668870540163 0.0056003290249497621 0.00095308947040068136 -0.0060000995060812403 -0.0010712003805363557 0.0022807496345222558
leaf_count=34 33 29 22 21 32
internal_value=0 -0.302197 -0.17752 -0.37486 0.407553
internal_count=171 106 72 43 65
shrinkage=0.01


Tree=16
num_leaves=6
num_cat=0
split_feature=8 7 4 13 11
split_gain=8.92334 1.87118 2.90778 1.16578 0.846888
threshold=0.90219706296920787 0.8875282108783723 0.90088245272636425 0.6223391890525819 0.95661717653274547
decision_type=6 6 6 4 6
left_child=1 -1 -3 -4 -2
right_child=4 2 3 -5 -6
leaf_value=0.0056113032239190046 -0.0026652053315644893 -0.0033020620762051391 0.0047239623521222384 0.00021290302996424809 -0.0064836431983399737
leaf_count=29 38 21 32 24 27
internal_value=0 0.240675 0.112368 0.290518 -0.436054
internal_count=171 106 77 56 65
shrinkage=0.01


Tree=17
num_leaves=6
num_cat=0
split_feature=8 7 3 2 3
split_gain=8.92334 1.87118 2.45235 1.17289 0.745293
threshold=0.90219706296920787 0.8875282108783723 0.88651329278945934 0.90561029314994823 0.9029279649257661
decision_type=6 6 6 6 4
left_child=1 -1 -3 -2 -4
right_child=3 2 4 -5 -6
leaf_value=-0.0056113032239190046 0.0014661229928742186 0.0019717522867864512 -0.005175337146305004 0.0058920260825520944 -0.0010915066875205942
leaf_count=29 24 30 23 41 24
internal_value=0 -0.240675 -0.112368 0.436054 -0.323149
internal_count=171 106 77 65 47
shrinkage=0.01


Tree=18
num_leaves=5
num_cat=0
split_feature=12 2 0 5
split_gain=8.96283 1.71116 0.886604 1.03402
threshold=0.8228907883167268 0.90561029314994823 0.68672770261764537 0.9195430874824525
decision_type=6 6 6 4
left_child=2 -2 3 -1
right_child=1 -3 -4 -5
leaf_value=0.0036084750910880059 -0.001164700297449801 -0.0061814260422921917 0.0042794937224540511 -0
leaf_count=25 27 40 39 40
internal_value=0 -0.426367 0.248162 0.12932
internal_count=171 67 104 65
shrinkage=0.01


Tree=19
num_leaves=6
num_cat=0
split_feature=12 1 7 3 13
split_gain=8.96283 1.90557 1.73504 1.97992 1.36282
threshold=0.8228907883167268 0.90036174654960643 0.8875282108783723 0.88651329278945934 0.61618122458457958
decision_type=6 6 6 6 4
left_child=2 -2 -1 -4 -5
right_child=1 -3 3 4 -6
leaf_value=-0.005570689892223946 0.0012068023118913833 0.0064115296947493414 0.0016009864223677287 -0.0054068462995548469 -9.4196013630166566e-05
leaf_count=29 29 38 29 25 21
internal_value=0 0.426367 -0.248162 -0.121148 -0.311974
internal_count=171 67 104 75 46
shrinkage=0.01


Tree=20
num_leaves=6
num_cat=0
split_feature=1 7 4 13 0
split_gain=8.27644 2.75581 1.79082 2.29893 2.0019
threshold=0.90036174654960643 0.8875282108783723 0.90088245272636425 0.6223391890525819 0.68672770261764537
decision_type=6 6 6 6 6
left_child=1 -1 -3 4 -4
right_child=-2 2 3 -5 -6
leaf_value=0.0055370786915367219 -0.0059607128063417347 -0.0032730881169343307 0.00036525453361565397 -0.0010010428133000783 0.0069296896384613586
leaf_count=29 39 21 22 39 21
internal_value=0 0.155034 0.038357 0.140123 0.373691
internal_count=171 132 103 82 43
shrinkage=0.01


Tree=21
num_leaves=6
num_cat=0
split_feature=12 1 7 3 0
split_gain=8.78416 1.85992 1.71694 1.95905 0.576652
threshold=0.8228907883167268 0.90036174654960643 0.8875282108783723 0.88651329278945934 0.68672770261764537
decision_type=6 6 6 6 6
left_child=2 -2 -1 -4 -5
right_child=1 -3 3 4 -6
leaf_value=-0.0055370786915367219 0.0011927523877817319 0.0063357049081412568 0.001600006167694841 -0.00091524510701811342 -0.0046507071537643359
leaf_count=29 29 38 29 21 25
internal_value=0 0.421632 -0.246007 -0.119644 -0.309684
internal_count=171 67 104 75 46
shrinkage=0.01


Tree=22
num_leaves=5
num_cat=0
split_feature=12 1 0 6
split_gain=8.63193 1.8069 0.85497 1.82898
threshold=0.8228907883167268 0.90036174654960643 0.68672770261764537 0.92967903614044201
decision_type=6 6 6 4
left_child=2 -2 3 -1
right_child=1 -3 -4 -5
leaf_value=0.0043834932729746399 -0.0011895395703297124 -0.0062622821971437641 0.0042131712648440277 -0.00050332802126279788
leaf_count=25 29 38 39 40
internal_value=0 -0.417531 0.244198 0.127236
internal_count=171 67 104 65
shrinkage=0.01


Tree=23
num_leaves=5
num_cat=0
split_feature=12 2 0 6
split_gain=8.63193 1.62009 0.85497 1.82898
threshold=0.8228907883167268 0.90561029314994823 0.68672770261764537 0.92967903614044201
decision_type=6 6 6 4
left_child=2 -2 3 -1
right_child=1 -3 -4 -5
leaf_value=-0.0043834932729746399 0.0011498567226716516 0.0060375806499099764 -0.0042131712648440277 0.00050332802126279788
leaf_count=25 27 40 39 40
internal_value=0 0.417531 -0.244198 -0.127236
internal_count=171 67 104 65
shrinkage=0.01


Tree=24
num_leaves=6
num_cat=0
split_feature=13 9 3 4 8
split_gain=6.80535 2.79548 1.48196 3.78654 1.07975
threshold=0.6223391890525819 0.91930031776428234 0.88887831568717968 0.8950762450695039 0.9338207244873048
decision_type=6 6 6 4 4
left_child=2 -2 3 -1 -3
right_child=1 4 -4 -5 -6
leaf_value=0.0046033255562116715 -0.00013914141204587853 -0.0078995645720499625 0.0047875141931444324 -0.0033359872831371807 -0.0027371801266895032
leaf_count=27 39 23 38 23 21
internal_value=0 -0.314365 0.261041 0.0797635 -0.560004
internal_count=171 83 88 50 44
shrinkage=0.01


Tree=25
num_leaves=6
num_cat=0
split_feature=12 12 11 3 1
split_gain=5.45785 1.64413 2.54408 0.963922 0.668998
threshold=0.76528501510620128 0.82874935865402233 0.92283701896667492 0.87049537897109996 0.90036174654960643
decision_type=6 6 4 4 6
left_child=3 2 -2 -1 -3
right_child=1 4 -4 -5 -6
leaf_value=-0.0059112876104826188 0.0043195860697366377 0.0014877974235943225 -0.0018528271728627463 -0.0015742097533635953 0.0051475797124976731
leaf_count=24 21 24 40 30 32
internal_value=0 0.193885 0.017693 -0.362421 0.370604
internal_count=171 117 61 54 56
shrinkage=0.01


Tree=26
num_leaves=6
num_cat=0
split_feature=13 9 7 3 7
split_gain=6.69509 2.7414 1.80769 1.47949 3.49672
threshold=0.6223391890525819 0.91930031776428234 0.94498771429061901 0.88887831568717968 0.8875282108783723
decision_type=6 6 4 6 4
left_child=3 -2 -3 4 -1
right_child=1 2 -4 -5 -6
leaf_value=0.0049170585626578884 -0.00013790616623738018 -0.0085349504856561589 -0.0022181990924921313 0.0047676201498484594 -0.0027038764974731118
leaf_count=24 39 22 22 38 26
internal_value=0 -0.31157 -0.554572 0.259183 0.0780167
internal_count=171 83 44 88 50
shrinkage=0.01


Tree=27
num_leaves=6
num_cat=0
split_feature=13 9 3 4 3
split_gain=6.69509 2.7414 1.47949 3.73467 0.26053
threshold=0.6223391890525819 0.91930031776428234 0.88887831568717968 0.8950762450695039 0.94210433959960949
decision_type=6 6 6 4 4
left_child=2 -2 3 -1 -3
right_child=1 4 -4 -5 -6
leaf_value=-0.0045679771800726451 0.00013790616623738018 0.0069960076488388007 -0.0047676201498484594 0.0033201142671021693 0.0036174996017327059
leaf_count=27 39 23 38 23 21
internal_value=0 0.31157 -0.259183 -0.0780167 0.554572
internal_count=171 83 88 50 44
shrinkage=0.01


Tree=28
num_leaves=6
num_cat=0
split_feature=12 12 11 0 1
split_gain=5.31685 1.56162 2.51124 1.36531 0.641227
threshold=0.76528501510620128 0.82874935865402233 0.92283701896667492 0.63384610414505016 0.90036174654960643
decision_type=6 6 4 4 6
left_child=3 2 -2 -1 -3
right_child=1 4 -4 -5 -6
leaf_value=0.0060500843279270768 -0.0043023333098060309 -0.0014523776419952947 0.0018291573396124017 0.0010616753892525904 -0.0050419003674587034
leaf_count=26 21 24 40 28 32
internal_value=0 -0.191096 -0.0188843 0.358397 -0.363127
internal_count=171 117 61 54 56
shrinkage=0.01


Tree=29
num_leaves=6
num_cat=0
split_feature=13 9 7 3 7
split_gain=6.56655 2.68009 1.77676 1.45466 3.44734
threshold=0.6223391890525819 0.91930031776428234 0.94498771429061901 0.88887831568717968 0.8875282108783723
decision_type=6 6 4 6 4
left_child=3 -2 -3 4 -1
right_child=1 2 -4 -5 -6
leaf_value=-0.0048871985878999611 0.00013652651036566671 0.0084434776828939268 0.0021832745018388368 -0.0047297801155485762 0.0026823884948198873
leaf_count=24 39 22 22 38 26
internal_value=0 0.308363 0.548359 -0.256924 -0.0771671
internal_count=171 83 44 88 50
shrinkage=0.01


Tree=30
num_leaves=6
num_cat=0
split_feature=12 12 11 0 2
split_gain=5.23622 1.52563 2.4817 1.35697 0.54025
threshold=0.76528501510620128 0.82874935865402233 0.92283701896667492 0.63384610414505016 0.90613549947738659
decision_type=6 6 4 4 6
left_child=3 2 -2 -1 -3
right_child=1 4 -4 -5 -6
leaf_value=0.0060221789278975093 -0.0042776949697122899 -0.0013967011397024993 0.0018162831481054842 0.0010454935156944218 -0.0048090097906111247
leaf_count=26 21 22 40 28 34
internal_value=0 -0.189492 -0.0190774 0.356064 -0.359434
internal_count=171 117 61 54 56
shrinkage=0.01


Tree=31
num_leaves=6
num_cat=0
split_feature=13 9 7 3 4
split_gain=6.46221 2.62796 1.75847 1.45238 3.65297
threshold=0.6223391890525819 0.91930031776428234 0.94498771429061901 0.88887831568717968 0.8950762450695039
decision_type=6 6 4 6 6
left_child=3 -2 -3 4 -1
right_child=1 2 -4 -5 -6
leaf_value=-0.0045143265824275133 0.00013604444314189328 0.0083725421316743539 0.0021486046713253128 -0.0047106847560525475 0.0032924676686113875
leaf_count=27 39 22 22 38 23
internal_value=0 0.305687 0.543118 -0.255137 -0.0754733
internal_count=171 83 44 88 50
shrinkage=0.01


Tree=32
num_leaves=7
num_cat=0
split_feature=9 13 13 13 13 12
split_gain=11.0934 2.62441 1.03246 1.87 0.690172 0.0238593
threshold=0.90948438644409191 0.66157209873199474 0.46516168117523199 0.56629517674446117 0.6389673948287965 0.86703976988792431
decision_type=6 6 6 6 6 6
left_child=2 -2 -1 -4 -5 -3
right_child=1 5 3 4 -6 -7
leaf_value=4.9339152340492783e-05 -0.00012132906317274884 -0.007637000813261189 0.0069957451059835399 1.2756834563142465e-05 0.0036173340002358997 -0.0047885695618870953
leaf_count=22 23 22 29 24 29 22
internal_value=0 -0.434116 0.316242 0.391392 0.211256 -0.637801
internal_count=171 67 104 82 53 44
shrinkage=0.01


Tree=33
num_leaves=7
num_cat=0
split_feature=9 13 13 13 13 7
split_gain=11.0934 2.62441 1.03246 1.87 0.690172 0.543795
threshold=0.90948438644409191 0.66157209873199474 0.46516168117523199 0.56629517674446117 0.6389673948287965 0.94330480694770824
decision_type=6 6 6 6 6 4
left_child=2 -2 -1 -4 -5 -3
right_child=1 5 3 4 -6 -7
leaf_value=-4.9339152340492783e-05 0.00012132906317274884 0.0084130904262567849 -0.0069957451059835399 -1.2756834563142465e-05 -0.0036173340002358997 0.0042041961519023946
leaf_count=22 23 21 29 24 29 23
internal_value=0 0.434116 -0.316242 -0.391392 -0.211256 0.637801
internal_count=171 67 104 82 53 44
shrinkage=0.01


Tree=34
num_leaves=6
num_cat=0
split_feature=12 7 8 2 2
split_gain=10.2986 1.20731 1.4907 1.47307 0.680224
threshold=0.8228907883167268 0.8875282108783723 0.86888739466667186 0.86702302098274242 0.90797349810600292
decision_type=6 6 6 4 6
left_child=1 -1 -3 -4 -2
right_child=4 2 3 -5 -6
leaf_value=0.0054164520999513523 -0.0025116591604200261 -0.0013569374821055542 0.0055031290395993705 0.00071167214006927378 -0.0061901132244036637
leaf_count=30 27 21 27 34 32
internal_value=0 0.27781 0.17547 0.293538 -0.46331
internal_count=171 112 82 61 59
shrinkage=0.01


Tree=35
num_leaves=6
num_cat=0
split_feature=12 1 4 1 1
split_gain=10.2986 1.29183 1.33279 1.21093 1.0034
threshold=0.8228907883167268 0.84410876035690319 0.91289120912551891 0.81722098588943493 0.90036174654960643
decision_type=6 6 6 6 6
left_child=1 3 -3 -1 -2
right_child=4 2 -4 -5 -6
leaf_value=-0.0017272712044534167 0.0018581953414828825 0.0012168723406688108 -0.0029417242201645066 -0.0069513713574367655 0.0061963333826229542
leaf_count=22 23 24 41 25 36
internal_value=0 -0.27781 -0.13144 -0.468197 0.46331
internal_count=171 112 65 47 59
shrinkage=0.01


Tree=36
num_leaves=6
num_cat=0
split_feature=12 13 7 3 13
split_gain=10.0974 1.7085 1.20073 1.73443 2.59401
threshold=0.8228907883167268 0.66157209873199474 0.8875282108783723 0.87600293755531322 0.62001484632492077
decision_type=6 6 6 6 4
left_child=2 -2 -1 -4 -5
right_child=1 -3 3 4 -6
leaf_value=0.0053885453334192954 -0.00092040098226466331 -0.0064035719389698743 -0.0014408187206637955 0.006295905796717626 5.1252579911223713e-06
leaf_count=30 21 38 23 28 31
internal_value=0 -0.458255 0.275475 0.17341 0.308654
internal_count=171 59 112 82 59
shrinkage=0.01


Tree=37
num_leaves=6
num_cat=0
split_feature=12 13 1 4 1
split_gain=10.0974 1.7085 1.27805 1.32338 1.20587
threshold=0.8228907883167268 0.66157209873199474 0.84410876035690319 0.91289120912551891 0.81722098588943493
decision_type=6 6 6 6 6
left_child=2 -2 4 -4 -1
right_child=1 -3 3 -5 -6
leaf_value=-0.0017009237766349302 0.00092040098226466331 0.0064035719389698743 0.0012240491378413922 -0.0029216856549703941 -0.0069177369302379464
leaf_count=22 21 38 24 41 25
internal_value=0 0.458255 -0.275475 -0.129834 -0.465082
internal_count=171 59 112 65 47
shrinkage=0.01


Tree=38
num_leaves=5
num_cat=0
split_feature=9 1 0 1
split_gain=10.534 1.03723 0.903481 1.13449
threshold=0.90948438644409191 0.90036174654960643 0.69085457921028148 0.84410876035690319
decision_type=6 6 6 6
left_child=2 -2 3 -1
right_child=1 -3 -4 -5
leaf_value=0.0037309585345371393 -0.0018246630933251198 -0.0058407377722950304 0.0054845358930619556 0
leaf_count=42 29 38 28 34
internal_value=0 -0.421808 0.309362 0.21183
internal_count=171 67 104 76
shrinkage=0.01


Tree=39
num_leaves=5
num_cat=0
split_feature=9 1 7 11
split_gain=10.534 1.03723 0.862901 1.89159
threshold=0.90948438644409191 0.90036174654960643 0.8875282108783723 0.9202503263950349
decision_type=6 6 6 6
left_child=2 -2 -1 -4
right_child=1 -3 3 -5
leaf_value=-0.0053609421031233992 0.0018246630933251198 0.0058407377722950304 0.00023267527757765382 -0.0042541405095129258
leaf_count=30 29 38 34 40
internal_value=0 0.421808 -0.309362 -0.210561
internal_count=171 67 104 74
shrinkage=0.01


Tree=40
num_leaves=5
num_cat=0
split_feature=13 1 13 4
split_gain=10.8128 2.13076 0.506856 0.236071
threshold=0.59886106848716747 0.87632927298545849 0.73516198992729198 0.8950762450695039
decision_type=6 6 4 6
left_child=3 -2 -3 -1
right_child=1 2 -4 -5
leaf_value=0.006235921609427323 0.00013114554176473625 -0.0053225247432462245 -0.0021549919307281358 0.0036528450044571482
leaf_count=32 37 36 27 39
internal_value=0 -0.248089 -0.406699 0.490481
internal_count=171 100 63 71
shrinkage=0.01


Tree=41
num_leaves=6
num_cat=0
split_feature=9 9 9 6 1
split_gain=7.80096 2.08319 1.14185 0.929573 0.711279
threshold=0.91712218523025524 0.87666174769401561 0.89257019758224498 0.94452902674674999 0.90036174654960643
decision_type=6 6 6 6 6
left_child=1 -1 -3 -4 -2
right_child=4 2 3 -5 -6
leaf_value=-0.0061569302360696401 0.0012771566668473902 0.00035587298495728693 -0.00060872716025819602 -0.0051033003318591685 0.0049019864869192555
leaf_count=31 24 34 23 23 36
internal_value=0 -0.284106 -0.150256 -0.300339 0.357161
internal_count=171 111 80 46 60
shrinkage=0.01


Tree=42
num_leaves=6
num_cat=0
split_feature=5 7 5 0 1
split_gain=7.0369 1.42777 2.90426 1.33641 1.78231
threshold=0.9407116472721101 0.8875282108783723 0.93149328231811535 0.70380297303199779 0.90036174654960643
decision_type=6 6 6 6 6
left_child=1 -1 -3 -2 -5
right_child=3 2 -4 4 -6
leaf_value=0.0060602206674637204 -0.0056589243688619454 -0.00057712603634171096 0.0059143508407561883 0.0017497150546149803 -0.0031881038180938872
leaf_count=31 21 35 23 23 38
internal_value=0 0.338551 0.188452 -0.246745 -0.125462
internal_count=171 89 58 82 61
shrinkage=0.01


Tree=43
num_leaves=6
num_cat=0
split_feature=13 8 6 8 4
split_gain=10.6648 2.53531 1.87186 1.51565 0.233335
threshold=0.59886106848716747 0.90705379843711864 0.94170957803726207 0.93458509445190441 0.8950762450695039
decision_type=6 6 4 4 6
left_child=4 2 -2 -3 -1
right_child=1 3 -4 -5 -6
leaf_value=-0.0062038862924157171 0.0034034862762335311 0.0068702146677297286 -0.0022421425937227076 0.0013940497641506773 -0.0036290651376080082
leaf_count=32 21 29 29 21 39
internal_value=0 0.246224 0.000761207 0.470672 -0.487655
internal_count=171 100 50 50 71
shrinkage=0.01


Tree=44
num_leaves=6
num_cat=0
split_feature=13 9 7 13 4
split_gain=10.5151 3.29116 2.62572 1.28119 0.229238
threshold=0.59886106848716747 0.91712218523025524 0.91223445534706127 0.72836026549339306 0.8950762450695039
decision_type=6 6 6 4 6
left_child=4 2 -2 -3 -1
right_child=1 3 -4 -5 -6
leaf_value=0.006169761696278993 -0.0028457786071777662 -0.0072047679000253042 0.0040282770575543834 -0.0023342294103503563 0.0036064033632907323
leaf_count=32 24 26 22 28 39
internal_value=0 -0.244335 0.0303305 -0.480646 0.484779
internal_count=171 100 46 54 71
shrinkage=0.01


Tree=45
num_leaves=6
num_cat=0
split_feature=9 9 9 2 7
split_gain=7.53768 2.03398 1.13517 0.752374 0.366921
threshold=0.91712218523025524 0.87666174769401561 0.89257019758224498 0.90797349810600292 0.91562786698341381
decision_type=6 6 6 6 6
left_child=1 -1 -3 -2 -4
right_child=3 2 4 -5 -6
leaf_value=-0.0060874994908214257 0.0011725383876069701 0.00037893393922257853 -0.0011773298896876365 0.0048646322605460576 -0.0043388891730183152
leaf_count=31 24 34 22 36 24
internal_value=0 -0.279824 -0.14757 0.35055 -0.297444
internal_count=171 111 80 60 46
shrinkage=0.01


Tree=46
num_leaves=6
num_cat=0
split_feature=13 9 8 6 4
split_gain=10.3733 3.22093 1.56856 1.54422 0.226456
threshold=0.59886106848716747 0.91712218523025524 0.93458509445190441 0.94303253293037426 0.8950762450695039
decision_type=6 6 4 6 6
left_child=4 3 -3 -2 -1
right_child=1 2 -4 -5 -6
leaf_value=0.0061383420226365486 -0.0024314459169106008 -0.0067427205890882823 -0.0013273595698331201 0.0028405617378715869 0.0035833370413100325
leaf_count=32 21 33 21 25 39
internal_value=0 -0.242566 -0.476131 0.0291681 0.482017
internal_count=171 100 54 46 71
shrinkage=0.01


Tree=47
num_leaves=6
num_cat=0
split_feature=13 9 8 6 1
split_gain=10.3733 3.22093 1.56856 1.54422 0.205262
threshold=0.59886106848716747 0.91712218523025524 0.93458509445190441 0.94303253293037426 0.84200510382652294
decision_type=6 6 4 6 6
left_child=4 3 -3 -2 -1
right_child=1 2 -4 -5 -6
leaf_value=-0.0058899486539937341 0.0024314459169106008 0.0067427205890882823 0.0013273595698331201 -0.0028405617378715869 -0.0033982402127922017
leaf_count=38 21 33 21 25 33
internal_value=0 0.242566 0.476131 -0.0291681 -0.482017
internal_count=171 100 54 46 71
shrinkage=0.01


Tree=48
num_leaves=5
num_cat=0
split_feature=13 2 2 13
split_gain=11.9036 5.81464 0.579876 0.183124
threshold=0.59528058767318737 0.88223525881767284 0.83631330728530895 0.69133794307708751
decision_type=6 6 6 6
left_child=2 -2 -1 -3
right_child=1 3 -4 -5
leaf_value=0.0060729542921162082 0.00056219087229068506 -0.0043863775129107004 0.0028882176140584471 -0.0074513032627869895
leaf_count=32 42 21 42 34
internal_value=0 -0.339425 0.433743 -0.64157
internal_count=171 97 74 55
shrinkage=0.01


Tree=49
num_leaves=5
num_cat=0
split_feature=2 3 2 2
split_gain=10.9026 2.24398 5.15318 1.22235
threshold=0.87953168153762828 0.88887831568717968 0.83778288960456859 0.90231934189796459
decision_type=6 6 4 6
left_child=1 2 -1 -2
right_child=3 -3 -4 -5
leaf_value=-0.0049029798560469356 0.0016995869964893861 -0.0063968852866282859 0.0032629001538429306 0.0058540936824481807
leaf_count=40 30 31 27 43
internal_value=0 -0.310009 -0.145183 0.426468
internal_count=171 98 67 73
shrinkage=0.01


Tree=50
num_leaves=5
num_cat=0
split_feature=3 7 3 1
split_gain=10.1646 1.85358 3.41814 0.587094
threshold=0.91344493627548229 0.8875282108783723 0.88887831568717968 0.90282073616981517
decision_type=6 6 6 6
left_child=1 -1 -3 -2
right_child=3 2 -4 -5
leaf_value=0.0055753918896743184 -0.0028381240421948522 -0.0017524573931775569 0.0046705583639908253 -0.0060948996809426313
leaf_count=36 37 35 33 30
internal_value=0 0.277616 0.125806 -0.441725
internal_count=171 104 68 67
shrinkage=0.01


Tree=51
num_leaves=6
num_cat=0
split_feature=13 1 3 1 8
split_gain=11.7342 5.12026 1.57261 0.712871 0.092037
threshold=0.59528058767318737 0.87769877910614025 0.89500278234481823 0.83624437451362621 0.92301860451698314
decision_type=6 6 6 6 4
left_child=3 2 -2 -1 -3
right_child=1 4 -4 -5 -6
leaf_value=-0.0061302683527078711 0.0023956781023085263 0.0077167043697780784 -0.0030897939701158405 -0.0027201785832302945 0.004948344307321678
leaf_count=33 21 23 22 41 31
internal_value=0 0.336684 -0.0258079 -0.431315 0.625571
internal_count=171 97 43 74 54
shrinkage=0.01


Tree=52
num_leaves=5
num_cat=0
split_feature=2 3 2 2
split_gain=10.51 2.23239 5.05861 1.16421
threshold=0.87953168153762828 0.88887831568717968 0.83778288960456859 0.90231934189796459
decision_type=6 6 4 6
left_child=1 2 -1 -2
right_child=3 -3 -4 -5
leaf_value=0.0048425446253697437 -0.0016686406023052678 0.0063465002358461999 -0.0032573740455891492 -0.0057304331785289677
leaf_count=40 30 31 27 43
internal_value=0 0.305331 0.140763 -0.417953
internal_count=171 98 67 73
shrinkage=0.01


Tree=53
num_leaves=5
num_cat=0
split_feature=2 7 5 2
split_gain=10.51 1.6358 3.29545 1.16421
threshold=0.87953168153762828 0.8875282108783723 0.93149328231811535 0.90231934189796459
decision_type=6 6 6 6
left_child=1 -1 -3 -2
right_child=3 2 -4 -5
leaf_value=-0.0056062217542749556 0.0016686406023052678 0.0010116964973171563 -0.0058506910842071038 0.0057304331785289677
leaf_count=37 30 38 23 43
internal_value=0 -0.305331 -0.146068 0.417953
internal_count=171 98 61 73
shrinkage=0.01


Tree=54
num_leaves=6
num_cat=0
split_feature=5 4 4 12 9
split_gain=9.97324 1.8993 2.92776 0.946674 0.191525
threshold=0.94161316752433788 0.9107797145843507 0.8950762450695039 0.82874935865402233 0.93105557560920726
decision_type=6 6 6 6 4
left_child=1 2 -1 -2 -5
right_child=3 -3 -4 4 -6
leaf_value=0.0052250423014226543 -0.00099695909179051091 0.0067288366244577028 -0.00068677097573557346 -0.006433604324098635 -0.0036506652499262867
leaf_count=31 22 24 40 23 31
internal_value=0 0.308821 0.174113 -0.393328 -0.496566
internal_count=171 95 71 76 54
shrinkage=0.01


Tree=55
num_leaves=6
num_cat=0
split_feature=13 3 4 11 9
split_gain=11.4511 4.5576 1.28399 0.536305 0.144405
threshold=0.59528058767318737 0.91663950681686412 0.91289120912551891 0.91830334067344677 0.93258929252624523
decision_type=6 6 6 6 4
left_child=3 2 -2 -1 -3
right_child=1 4 -4 -5 -6
leaf_value=-0.0027796038541062313 0.0023847859929689934 0.0076375704834910465 -0.0024374356301079523 -0.0058598279821809604 0.0046872058064170727
leaf_count=41 23 24 23 33 27
internal_value=0 0.332112 -0 -0.427254 0.621172
internal_count=171 97 46 74 51
shrinkage=0.01


Tree=56
num_leaves=6
num_cat=0
split_feature=7 5 5 5 11
split_gain=6.38672 1.08589 1.75828 1.54705 0.697471
threshold=0.90534257888793956 0.95086741447448742 0.94230729341506969 0.96043109893798839 0.91524946689605724
decision_type=6 6 6 6 4
left_child=4 2 -2 -3 -1
right_child=1 3 -4 -5 -6
leaf_value=0.0048223768855459124 -0.0016045169539862453 0.0010697947418831849 -0.0071906864131101094 -0.0035013285343668361 0.0011691731337434477
leaf_count=33 32 29 23 28 26
internal_value=0 -0.260365 -0.410853 -0.108406 0.330822
internal_count=171 112 55 57 59
shrinkage=0.01


Tree=57
num_leaves=6
num_cat=0
split_feature=7 13 1 7 7
split_gain=6.38672 0.981042 1.41634 1.37968 0.489994
threshold=0.90534257888793956 0.65446034073829662 0.87430524826049816 0.94498771429061901 0.8875282108783723
decision_type=6 6 4 4 4
left_child=4 2 -2 -3 -1
right_child=1 3 -4 -5 -6
leaf_value=-0.0049053310598227966 0.0035900795814462817 0.0053785115469447524 -0.001222895576144734 0.00061087848045065769 -0.0017077339768348239
leaf_count=28 23 41 26 22 31
internal_value=0 0.260365 0.0881762 0.380256 -0.330822
internal_count=171 112 49 63 59
shrinkage=0.01


Tree=58
num_leaves=6
num_cat=0
split_feature=7 0 2 10 11
split_gain=6.2671 1.57182 2.66633 1.13692 0.690956
threshold=0.90534257888793956 0.70020484924316417 0.90695247054100048 0.92150333523750316 0.91524946689605724
decision_type=6 6 6 6 4
left_child=4 3 -3 -2 -1
right_child=1 2 -4 -5 -6
leaf_value=0.0047920846190897112 -0.0022424397781793111 0.0028058440890314841 -0.0032260024351985954 -0.0071828429368451128 0.0011524753250544023
leaf_count=33 28 23 40 21 26
internal_value=0 -0.257636 -0.0962987 -0.455604 0.328264
internal_count=171 112 63 49 59
shrinkage=0.01


Tree=59
num_leaves=6
num_cat=0
split_feature=7 5 3 5 11
split_gain=6.2671 1.06674 2.00826 1.74015 0.690956
threshold=0.90534257888793956 0.95086741447448742 0.93487441539764415 0.94230729341506969 0.91524946689605724
decision_type=6 6 6 6 4
left_child=4 3 -3 -2 -1
right_child=1 2 -4 -5 -6
leaf_value=-0.0047920846190897112 0.0015765139369969506 -0.0021445386150075523 0.0032375852887294256 0.0071296731626463465 -0.0011524753250544023
leaf_count=33 32 22 35 23 26
internal_value=0 0.257636 0.106889 0.406668 -0.328264
internal_count=171 112 57 55 59
shrinkage=0.01


Tree=60
num_leaves=6
num_cat=0
split_feature=12 13 9 8 3
split_gain=5.17162 2.19221 0.918962 2.31707 0.856287
threshold=0.76679351925849926 0.59528058767318737 0.90948438644409191 0.92009466886520397 0.8712582290172578
decision_type=6 6 6 4 4
left_child=4 -2 -3 -4 -1
right_child=1 2 3 -5 -6
leaf_value=0.0053879570628901034 0.0011169000694424428 -0.000686268196480152 -0.007748194950588279 -0.0019024460848340058 0.0012389002582620194
leaf_count=24 28 25 25 39 30
internal_value=0 -0.227337 -0.337174 -0.428416 0.318098
internal_count=171 117 89 64 54
shrinkage=0.01


Tree=61
num_leaves=6
num_cat=0
split_feature=7 13 6 7 8
split_gain=6.15012 0.966826 1.65822 1.36234 0.501188
threshold=0.90534257888793956 0.65446034073829662 0.94891008734703075 0.94498771429061901 0.8618936836719514
decision_type=6 6 4 4 6
left_child=4 2 -2 -3 -1
right_child=1 3 -4 -5 -6
leaf_value=-0.0017790325376564151 0.0033518550279191934 0.0053012639918152121 -0.0018767319835306837 0.00056805532795345154 -0.0050374720353880756
leaf_count=35 27 41 22 22 24
internal_value=0 0.254967 0.084224 0.373821 -0.325721
internal_count=171 112 49 63 59
shrinkage=0.01


Tree=62
num_leaves=6
num_cat=0
split_feature=7 0 1 10 0
split_gain=6.04344 1.5472 2.44073 1.11064 0.540567
threshold=0.90534257888793956 0.70020484924316417 0.90036174654960643 0.92150333523750316 0.6360151767730714
decision_type=6 6 6 6 4
left_child=4 3 -3 -2 -1
right_child=1 2 -4 -5 -6
leaf_value=0.0046876088627331499 -0.0021983068441976902 0.0024378016395802896 -0.0032333645773817972 -0.0070799951036793363 0.0013837293775488344
leaf_count=31 28 25 38 21 28
internal_value=0 -0.252479 -0.0924218 -0.448572 0.323403
internal_count=171 112 63 49 59
shrinkage=0.01


Tree=63
num_leaves=6
num_cat=0
split_feature=7 0 1 5 11
split_gain=6.04344 1.5472 2.44073 0.965247 0.682913
threshold=0.90534257888793956 0.70020484924316417 0.90036174654960643 0.9407116472721101 0.91524946689605724
decision_type=6 6 6 6 4
left_child=4 3 -3 -2 -1
right_child=1 2 -4 -5 -6
leaf_value=-0.0047379067906384827 0.0021461199223948811 -0.0024378016395802896 0.0032333645773817972 0.006736108178504752 -0.001115479303494406
leaf_count=33 26 25 38 23 26
internal_value=0 0.252479 0.0924218 0.448572 -0.323403
internal_count=171 112 63 49 59
shrinkage=0.01


Tree=64
num_leaves=6
num_cat=0
split_feature=12 7 5 2 13
split_gain=7.27967 1.59985 1.21795 1.87766 0.598251
threshold=0.8228907883167268 0.8875282108783723 0.92385193705558788 0.86579555273056041 0.66639292240142833
decision_type=6 6 6 4 6
left_child=1 -1 -3 -4 -2
right_child=4 2 3 -5 -6
leaf_value=0.0048940597002164578 -0.0020375666302291694 -0.0020770954121279274 0.0050068678332942989 -5.2455232372105382e-05 -0.0056208801589794563
leaf_count=29 22 22 24 37 37
internal_value=0 0.180592 0.0708224 0.182198 -0.441335
internal_count=171 112 83 61 59
shrinkage=0.01


Tree=65
num_leaves=6
num_cat=0
split_feature=8 7 5 1 5
split_gain=6.59301 1.69834 1.5645 2.40225 0.402349
threshold=0.90219706296920787 0.8875282108783723 0.92385193705558788 0.8606366515159608 0.95634007453918468
decision_type=6 6 6 4 4
left_child=1 -1 -3 -4 -2
right_child=4 2 3 -5 -6
leaf_value=-0.0048940597002164578 0.005711141888647138 0.0024888033119549106 -0.0052468826848292857 0.00051111007614435943 0.0027088318908343513
leaf_count=29 27 23 26 33 33
internal_value=0 -0.172671 -0.0588346 -0.190684 0.41688
internal_count=171 111 82 59 60
shrinkage=0.01


Tree=66
num_leaves=6
num_cat=0
split_feature=9 7 5 2 8
split_gain=6.92579 1.61133 1.15769 1.14518 0.395736
threshold=0.91507902741432201 0.8875282108783723 0.92385193705558788 0.86579555273056041 0.92009466886520397
decision_type=6 6 6 4 6
left_child=1 -1 -3 -4 -2
right_child=4 2 3 -5 -6
leaf_value=0.0048614389872690547 -0.0059480597127637112 -0.0020523858434843534 0.0039215969813441885 -0 -0.0028973816366350035
leaf_count=29 25 22 28 33 34
internal_value=0 0.175972 0.0659073 0.175016 -0.430359
internal_count=171 112 83 61 59
shrinkage=0.01


Tree=67
num_leaves=6
num_cat=0
split_feature=12 4 3 1 13
split_gain=7.15156 1.24761 0.93255 1.86083 0.590895
threshold=0.8228907883167268 0.9267784357070924 0.88887831568717968 0.8390374779701234 0.66639292240142833
decision_type=6 6 6 6 6
left_child=1 2 3 -1 -2
right_child=4 -3 -4 -5 -6
leaf_value=-0.0034575742818943704 0.0020106452757989177 0.0011564219789667203 -0.0047763610056028773 0.001688364061841743 0.0055721251584503794
leaf_count=38 22 21 30 23 37
internal_value=0 -0.179185 -0.257297 -0.136219 0.43724
internal_count=171 112 91 61 59
shrinkage=0.01


Tree=68
num_leaves=6
num_cat=0
split_feature=9 7 5 3 6
split_gain=6.7901 1.596 1.14531 1.05193 0.221725
threshold=0.91507902741432201 0.8875282108783723 0.92385193705558788 0.89767619967460643 0.960363268852234
decision_type=6 6 6 4 6
left_child=1 -1 -3 -4 -2
right_child=4 2 3 -5 -6
leaf_value=0.0048355432537392669 -0.0054180232154573517 -0.0020473166192000146 0.0036270258265125132 -0 -0.0028342552474874116
leaf_count=29 30 22 31 30 29
internal_value=0 0.174398 0.064873 0.173535 -0.425953
internal_count=171 112 83 61 59
shrinkage=0.01


Tree=69
num_leaves=5
num_cat=0
split_feature=12 2 0 13
split_gain=7.02516 1.46787 1.29232 0.582712
threshold=0.8228907883167268 0.84144145250320446 0.68672770261764537 0.66639292240142833
decision_type=6 6 6 6
left_child=1 -1 -3 -2
right_child=3 2 -4 -5
leaf_value=-0.0039582988418425799 0.0019850180092798987 0.0013612420545408288 -0.0025850978484118436 0.0055229998643632674
leaf_count=43 22 37 32 37
internal_value=0 -0.177782 -0.0371299 0.433174
internal_count=171 112 69 59
shrinkage=0.01


Tree=70
num_leaves=6
num_cat=0
split_feature=12 7 9 1 13
split_gain=6.89823 1.5381 0.779402 0.878771 0.576213
threshold=0.8228907883167268 0.8875282108783723 0.88687226176261913 0.8606366515159608 0.66639292240142833
decision_type=6 6 6 4 6
left_child=1 -1 -3 -4 -2
right_child=4 2 3 -5 -6
leaf_value=0.0048080231037365461 -0.0019569866288550444 -0.0013819456856861306 0.0036395156348543911 0 -0.0054747218625008556
leaf_count=29 22 24 26 33 37
internal_value=0 0.17635 0.0687611 0.163303 -0.429063
internal_count=171 112 83 59 59
shrinkage=0.01


Tree=71
num_leaves=7
num_cat=0
split_feature=12 4 5 6 13 1
split_gain=6.89823 1.21852 0.796053 1.14046 0.576213 0.518956
threshold=0.8228907883167268 0.9267784357070924 0.92385193705558788 0.92436000704765331 0.66639292240142833 0.85959312319755565
decision_type=6 6 6 4 6 4
left_child=1 2 3 -1 -2 -4
right_child=4 -3 5 -5 -6 -7
leaf_value=-0.0033357906663175458 0.0019569866288550444 0.0011472042527581109 -0.0056766366572451226 0.0011841998754196922 0.0054747218625008556 -0.0018667503994552676
leaf_count=24 22 21 23 22 37 22
internal_value=0 -0.17635 -0.253773 -0.095638 0.429063 -0.396458
internal_count=171 112 91 46 59 45
shrinkage=0.01


Tree=72
num_leaves=6
num_cat=0
split_feature=5 13 3 2 9
split_gain=4.65522 1.97368 4.46841 1.74051 1.06656
threshold=0.91404139995574962 0.66157209873199474 0.88651329278945934 0.90561029314994823 0.9143396019935609
decision_type=6 6 6 6 4
left_child=-1 2 -2 -3 -4
right_child=1 3 4 -5 -6
leaf_value=0.0062055526786929339 -0.003886312242415878 0 0.0046523951375223192 -0.0049073436099541573 0.00027365366408169025
leaf_count=25 30 26 35 33 22
internal_value=0 -0.0761578 0.0590405 -0.277111 0.302413
internal_count=171 146 87 59 57
shrinkage=0.01


Tree=73
num_leaves=6
num_cat=0
split_feature=7 1 0 7 12
split_gain=5.86945 1.68643 2.72364 0.542165 0.24937
threshold=0.8875282108783723 0.90036174654960643 0.68106698989868175 0.90702089667320263 0.81918436288833629
decision_type=6 6 6 6 4
left_child=-1 2 3 -2 -4
right_child=1 -3 4 -5 -6
leaf_value=-0.0058301424355752755 0.0003827999632592622 0.0036082502725907047 -0.0037709083065352524 0.0036767458757263633 -0.0010842221525401059
leaf_count=34 24 38 22 29 24
internal_value=0 0.108966 0.00137888 0.231756 -0.248205
internal_count=171 137 99 53 46
shrinkage=0.01


Tree=74
num_leaves=6
num_cat=0
split_feature=7 13 3 4 1
split_gain=5.79162 2.05621 4.37333 1.10848 1.06549
threshold=0.8875282108783723 0.65446034073829662 0.88887831568717968 0.9267784357070924 0.90036174654960643
decision_type=6 6 6 4 6
left_child=-1 2 -2 -4 -3
right_child=1 4 3 -5 -6
leaf_value=0.0058023003597848103 -0.004030324081756108 -0.0009336378977310944 0.0056306050371461684 0.00080217766734062487 -0.00493635673692002
leaf_count=34 27 33 23 24 30
internal_value=0 -0.108094 0.0503814 0.324842 -0.296768
internal_count=171 137 74 47 63
shrinkage=0.01


Tree=75
num_leaves=5
num_cat=0
split_feature=5 1 3 13
split_gain=4.58887 2.0522 2.39002 2.74431
threshold=0.91404139995574962 0.90036174654960643 0.88651329278945934 0.62001484632492077
decision_type=6 6 6 6
left_child=-1 2 -2 -4
right_child=1 -3 3 -5
leaf_value=-0.0061743601479555465 0.0027099999193879432 0.0035719240103274912 -0.0050513575004734529 0.0005539169325832823
leaf_count=25 37 38 32 39
internal_value=0 0.0754781 -0.0232282 -0.183092
internal_count=171 146 108 71
shrinkage=0.01


Tree=76
num_leaves=6
num_cat=0
split_feature=7 13 3 2 1
split_gain=5.71704 2.01742 4.31218 1.05478 0.897742
threshold=0.8875282108783723 0.65446034073829662 0.88887831568717968 0.90561029314994823 0.87769877910614025
decision_type=6 6 6 6 4
left_child=-1 2 -2 -3 -4
right_child=1 3 4 -5 -6
leaf_value=0.0057752694366631921 -0.0040000553339226879 -0.00058602579763299882 0.0054970648686727668 -0.0045954867917944679 0.001060983107621565
leaf_count=34 27 28 22 35 25
internal_value=0 -0.1073 0.049678 -0.294124 0.322692
internal_count=171 137 74 63 47
shrinkage=0.01


Tree=77
num_leaves=6
num_cat=0
split_feature=5 1 4 13 11
split_gain=4.5273 2.00732 3.35892 1.79648 0.401078
threshold=0.91404139995574962 0.90036174654960643 0.90088245272636425 0.61618122458457958 0.93698209524154674
decision_type=6 6 6 6 4
left_child=-1 2 -2 -4 -5
right_child=1 -3 3 4 -6
leaf_value=-0.0061452060331757151 0.0046463144456325356 0.0035343091483051696 -0.0039400892061695796 0.0015328730082637624 -0.0010983470923492107
leaf_count=25 23 38 39 25 21
internal_value=0 0.0748914 -0.0227168 -0.160566 0.017425
internal_count=171 146 108 85 46
shrinkage=0.01


Tree=78
num_leaves=6
num_cat=0
split_feature=5 4 13 2 13
split_gain=4.46646 1.92341 4.34157 1.41946 1.00794
threshold=0.91404139995574962 0.90088245272636425 0.66157209873199474 0.90561029314994823 0.59528058767318737
decision_type=6 6 6 6 4
left_child=-1 -2 4 -4 -3
right_child=1 2 3 -5 -6
leaf_value=0.0061164101581964231 -0.0046130749432379495 0.0044098347301974369 -0 -0.0047895702294085416 0.00058769571671108529
leaf_count=25 23 32 23 33 35
internal_value=0 -0.0742875 -0 -0.292691 0.248864
internal_count=171 146 123 56 67
shrinkage=0.01


Tree=79
num_leaves=6
num_cat=0
split_feature=6 13 3 1 12
split_gain=4.19497 2.07302 3.93539 1.40303 0.978439
threshold=0.92436000704765331 0.66157209873199474 0.88651329278945934 0.90036174654960643 0.82064083218574535
decision_type=6 6 6 6 4
left_child=-1 2 -2 -3 -4
right_child=1 3 4 -5 -6
leaf_value=-0.0054642348808031987 0.0037210584173589917 0.00046117749920930004 -0.0045076988486633055 0.0051452034350725432 -0.0002713271276369999
leaf_count=29 28 30 34 28 22
internal_value=0 0.0793875 -0.0622966 0.286101 -0.290588
internal_count=171 142 84 58 56
shrinkage=0.01


Tree=80
num_leaves=6
num_cat=0
split_feature=10 1 7 11 5
split_gain=5.95287 1.41956 1.29788 1.94353 0.00835096
threshold=0.92255342006683361 0.90036174654960643 0.8875282108783723 0.91999551653862011 0.93505793809890758
decision_type=6 6 6 6 4
left_child=2 -2 -1 -4 -5
right_child=1 -3 3 4 -6
leaf_value=0.0048133502601765488 -0.00091195790584268658 -0.0054494747286039733 -0.0015946022451682816 0.0038457103345135549 0.0019128257992668072
leaf_count=31 30 34 32 22 22
internal_value=0 -0.344278 0.210628 0.0997861 0.303797
internal_count=171 64 107 76 44
shrinkage=0.01


Tree=81
num_leaves=6
num_cat=0
split_feature=8 7 5 12 7
split_gain=5.97771 1.34274 1.92344 0.90232 0.642737
threshold=0.90219706296920787 0.8875282108783723 0.92266225814819347 0.77969849109649669 0.94498771429061901
decision_type=6 6 6 6 6
left_child=1 -1 -3 -4 -2
right_child=4 2 3 -5 -6
leaf_value=-0.0048133502601765488 0.0046793016704961927 0.0024023171402465533 -0 -0.0040195736745822358 0.0011906179246213842
leaf_count=31 40 23 22 33 22
internal_value=0 -0.205417 -0.0957211 -0.250369 0.353981
internal_count=171 109 78 55 62
shrinkage=0.01


Tree=82
num_leaves=5
num_cat=0
split_feature=13 10 10 7
split_gain=6.84607 3.82386 3.34913 1.18721
threshold=0.59528058767318737 0.91916072368621837 0.89228287339210521 0.94498771429061901
decision_type=6 6 6 6
left_child=2 -2 -1 -3
right_child=1 3 -4 -5
leaf_value=-6.821434620572756e-05 0.00093905925152740189 -0.006314188790980349 0.0061557740875258764 -0.0016245330494263849
leaf_count=32 39 38 41 21
internal_value=0 -0.249276 0.341842 -0.47511
internal_count=171 98 73 59
shrinkage=0.01


Tree=83
num_leaves=6
num_cat=0
split_feature=13 8 11 6 0
split_gain=6.84607 4.4871 1.63192 1.56105 0.528328
threshold=0.59528058767318737 0.90219706296920787 0.9202503263950349 0.960363268852234 0.66683000326156627
decision_type=6 6 6 4 6
left_child=2 4 -1 -3 -2
right_child=1 3 -4 -5 -6
leaf_value=-0.0014089108861739348 0.00060884389115132219 0.008329010704374043 -0.0062231185102685146 0.0028642902792436506 -0.0023489508763859931
leaf_count=45 23 22 28 30 23
internal_value=0 0.249276 -0.341842 0.531275 -0.0730835
internal_count=171 98 73 52 46
shrinkage=0.01


Tree=84
num_leaves=6
num_cat=0
split_feature=8 7 5 1 1
split_gain=5.76544 1.33107 1.89643 1.31216 0.935462
threshold=0.90219706296920787 0.8875282108783723 0.92266225814819347 0.90036174654960643 0.8606366515159608
decision_type=6 6 6 6 4
left_child=1 -1 -3 -2 -4
right_child=3 2 4 -5 -6
leaf_value=0.0047745855176274353 -0.00089619201011846539 -0.0024058218311842679 0.0047725652661216138 -0.0053691194264573784 0.00062040136111428986
leaf_count=31 28 23 23 34 32
internal_value=0 0.20214 0.0929485 -0.347428 0.246865
internal_count=171 109 78 62 55
shrinkage=0.01


Tree=85
num_leaves=6
num_cat=0
split_feature=13 8 7 11 0
split_gain=6.71814 4.41016 1.86805 1.60833 0.524165
threshold=0.59528058767318737 0.90219706296920787 0.94498771429061901 0.9202503263950349 0.66683000326156627
decision_type=6 6 6 6 6
left_child=3 4 -3 -1 -2
right_child=1 2 -4 -5 -6
leaf_value=-0.0013945244710285652 0.00060566040696478603 0.0075242842464189061 0.0016019573023233204 -0.0061808011320101334 -0.0023401916169415002
leaf_count=45 23 31 21 28 23
internal_value=0 0.246804 0.526298 -0.339065 -0.0727593
internal_count=171 98 52 73 46
shrinkage=0.01


Tree=86
num_leaves=5
num_cat=0
split_feature=10 1 10 1
split_gain=5.63215 1.37821 0.859933 0.779558
threshold=0.92255342006683361 0.90036174654960643 0.89061719179153453 0.8606366515159608
decision_type=6 6 6 6
left_child=2 -2 -1 -4
right_child=1 -3 3 -5
leaf_value=0 -0.00085102027263904011 -0.0053208701385674476 0.0042339425093104906 0.00072872283130125061
leaf_count=36 30 34 44 27
internal_value=0 -0.334564 0.205513 0.298032
internal_count=171 64 107 71
shrinkage=0.01


Tree=87
num_leaves=6
num_cat=0
split_feature=8 7 12 7 8
split_gain=5.65702 1.32541 1.87837 0.633087 0.275943
threshold=0.90219706296920787 0.8875282108783723 0.78805437684059154 0.94498771429061901 0.86888739466667186
decision_type=6 6 6 4 4
left_child=1 -1 4 -2 -3
right_child=3 2 -4 -5 -6
leaf_value=-0.0047548041418904808 0.004568581448812668 0.0021117041105599803 -0.0035207548254349019 0.0011137502536323319 -0
leaf_count=31 40 22 34 22 22
internal_value=0 -0.200443 -0.091497 0.344051 0.0962418
internal_count=171 109 78 62 44
shrinkage=0.01


Tree=88
num_leaves=6
num_cat=0
split_feature=12 7 7 8 2
split_gain=4.56676 1.37887 0.951684 2.18461 1.22619
threshold=0.82064083218574535 0.93898865580558788 0.8875282108783723 0.86888739466667186 0.87824276089668285
decision_type=6 6 6 6 4
left_child=2 -2 -1 -4 -5
right_child=1 -3 3 4 -6
leaf_value=0.0046634520581475747 -0.0045303721466202753 -0.00015921872498446418 -0.002187122325535972 0.004885603794928352 1.6459383061923764e-05
leaf_count=30 35 30 24 31 21
internal_value=0 -0.25977 0.224491 0.127966 0.301441
internal_count=171 65 106 76 52
shrinkage=0.01


Tree=89
num_leaves=6
num_cat=0
split_feature=12 7 7 5 1
split_gain=4.56676 1.37887 0.951684 1.80156 0.946173
threshold=0.82064083218574535 0.93898865580558788 0.8875282108783723 0.92519742250442516 0.87430524826049816
decision_type=6 6 6 6 4
left_child=2 -2 -1 -4 -5
right_child=1 -3 3 4 -6
leaf_value=-0.0046634520581475747 0.0045303721466202753 0.00015921872498446418 0.0020402622091521753 -0.0043469813737812618 -7.1015045903416305e-05
leaf_count=30 35 30 22 33 21
internal_value=0 0.25977 -0.224491 -0.127966 -0.277208
internal_count=171 65 106 76 54
shrinkage=0.01


Tree=90
num_leaves=7
num_cat=0
split_feature=13 2 5 13 6 7
split_gain=4.24314 2.14952 2.20983 1.49168 1.18128 0.54089
threshold=0.59528058767318737 0.87953168153762828 0.95086741447448742 0.46516168117523199 0.96424838900566112 0.90534257888793956
decision_type=6 6 6 6 6 4
left_child=3 -2 -3 -1 -4 -5
right_child=1 2 4 5 -6 -7
leaf_value=-0 0.0015417522669563771 -0.0062911208798625941 0.0013796734657591852 0.0062338602945706178 -0.0032512973275079966 0.0024292904186374326
leaf_count=23 30 26 21 26 21 24
internal_value=0 -0.158758 -0.299118 0.306331 -0.0809516 0.449512
internal_count=171 98 68 73 42 50
shrinkage=0.01


Tree=91
num_leaves=7
num_cat=0
split_feature=13 1 5 13 7 5
split_gain=4.24314 2.16239 2.21946 1.49168 0.54089 0.499615
threshold=0.59528058767318737 0.87129160761833202 0.95086741447448742 0.46516168117523199 0.90534257888793956 0.96298912167549144
decision_type=6 6 6 6 4 6
left_child=3 -2 -3 -1 -5 -4
right_child=1 2 5 4 -6 -7
leaf_value=0 -0.0015515561030562685 0.0063025873705183965 -0.00051555982368051796 -0.0062338602945706178 -0.0024292904186374326 0.0024000733295923022
leaf_count=23 30 26 21 26 24 21
internal_value=0 0.158758 0.299546 -0.306331 -0.449512 0.0809516
internal_count=171 98 68 73 50 42
shrinkage=0.01


Tree=92
num_leaves=6
num_cat=0
split_feature=12 7 7 8 2
split_gain=4.42347 1.34393 0.928723 2.17054 1.18985
threshold=0.82064083218574535 0.93898865580558788 0.8875282108783723 0.86888739466667186 0.87824276089668285
decision_type=6 6 6 6 4
left_child=2 -2 -1 -4 -5
right_child=1 -3 3 4 -6
leaf_value=0.0046122105497746748 -0.0044607591165425464 -0.00014441805859117941 -0.0021967382972905552 0.0048411428592062744 3.518699485278501e-05
leaf_count=30 35 30 24 31 21
internal_value=0 -0.255426 0.221351 0.12594 0.299138
internal_count=171 65 106 76 52
shrinkage=0.01


Tree=93
num_leaves=7
num_cat=0
split_feature=12 0 5 5 13 3
split_gain=4.42347 1.18747 1.06962 0.605148 1.47907 0.4751
threshold=0.82064083218574535 0.70380297303199779 0.96043109893798839 0.92385193705558788 0.6223391890525819 0.86229765415191661
decision_type=6 6 6 6 4 4
left_child=3 -2 -3 5 -5 -1
right_child=1 2 -4 4 -6 -7
leaf_value=-0.0022710867407630523 0.0052040325793998579 -0.0011273163612717798 0.003258430056825164 -0.0054259823727602812 -0.00053362846781864555 0.00060552629427730077
leaf_count=24 23 21 21 32 28 22
internal_value=0 0.255426 0.094423 -0.221351 -0.320685 -0.0709746
internal_count=171 65 42 106 60 46
shrinkage=0.01


Tree=94
num_leaves=6
num_cat=0
split_feature=13 9 6 13 7
split_gain=4.11833 2.05003 1.52303 1.47007 0.530334
threshold=0.59528058767318737 0.90948438644409191 0.95970040559768688 0.46516168117523199 0.90820670127868663
decision_type=6 6 4 6 6
left_child=3 -2 -3 -1 -5
right_child=1 2 -4 4 -6
leaf_value=-0 0.0009266235127874115 -0.0055769504010722308 -0.00074527956534736176 0.0061810177577976992 0.002400051019685618
leaf_count=23 39 29 30 26 24
internal_value=0 -0.15625 -0.322369 0.302398 0.445008
internal_count=171 98 59 73 50
shrinkage=0.01


Tree=95
num_leaves=7
num_cat=0
split_feature=13 2 5 13 6 7
split_gain=4.11833 2.08146 2.15442 1.47007 1.15859 0.530334
threshold=0.59528058767318737 0.87953168153762828 0.95086741447448742 0.46516168117523199 0.96424838900566112 0.90820670127868663
decision_type=6 6 6 6 6 6
left_child=3 -2 -3 -1 -4 -5
right_child=1 2 4 5 -6 -7
leaf_value=0 -0.0015179228445696422 0.0061982168719999743 -0.0013809246007869872 -0.0061810177577976992 0.0032059686669078076 -0.002400051019685618
leaf_count=23 30 26 21 26 21 24
internal_value=0 0.15625 0.294289 -0.302398 0.0786319 -0.445008
internal_count=171 98 68 73 42 50
shrinkage=0.01


Tree=96
num_leaves=6
num_cat=0
split_feature=9 10 12 2 0
split_gain=4.51837 1.49997 2.42665 0.936228 1.26379
threshold=0.90921401977539074 0.92998966574668895 0.86970019340515148 0.84144145250320446 0.68106698989868175
decision_type=6 6 6 6 6
left_child=3 -2 -3 -1 -5
right_child=1 2 -4 4 -6
leaf_value=0.0039899918610836541 -0.0056565324212235445 0.0023962212734514629 -0.0035523805045397671 -0.0010206947795955421 0.0035140027719527014
leaf_count=40 23 22 34 30 22
internal_value=0 -0.252056 -0.112776 0.220353 0.0757205
internal_count=171 79 56 92 52
shrinkage=0.01


Tree=97
num_leaves=6
num_cat=0
split_feature=13 8 11 11 0
split_gain=6.0687 2.12119 1.15552 1.74679 0.618372
threshold=0.58730605244636547 0.87845635414123546 0.94511637091636669 0.95661717653274547 0.64120659232139599
decision_type=6 6 6 6 6
left_child=4 -2 -3 -4 -1
right_child=1 2 3 -5 -6
leaf_value=-0.0018637741999124708 -0.0015788770864054152 0.0053506936888864281 -0.00074175205993162155 0.0043344080304113068 -0.0053180562614613359
leaf_count=33 24 33 26 25 30
internal_value=0 0.208536 0.315694 0.164512 -0.365277
internal_count=171 108 84 51 63
shrinkage=0.01


Tree=98
num_leaves=7
num_cat=0
split_feature=13 2 5 0 4 12
split_gain=5.97688 1.83891 2.31622 0.616388 0.54857 0.0904278
threshold=0.58730605244636547 0.88428509235382091 0.95634007453918468 0.64120659232139599 0.95487341284751903 0.77969849109649669
decision_type=6 6 6 6 6 4
left_child=3 5 -3 -1 -4 -2
right_child=1 2 4 -5 -6 -7
leaf_value=0.001843522668515754 0.00090482982782658648 -0.0074987915836022181 -0 0.0052939198873032172 -0.0031599491478545489 -0.00032044610043562342
leaf_count=33 22 21 23 30 21 21
internal_value=0 -0.206757 -0.355107 0.363034 -0.15203 0.0153645
internal_count=171 108 65 63 44 43
shrinkage=0.01


Tree=99
num_leaves=7
num_cat=0
split_feature=13 2 5 9 0 9
split_gain=5.97688 1.83891 2.31622 0.617796 0.616388 0.530307
threshold=0.58730605244636547 0.88428509235382091 0.95634007453918468 0.94395163655281078 0.64120659232139599 0.89587268233299266
decision_type=6 6 6 6 6 6
left_child=4 5 -3 -4 -1 -2
right_child=1 2 3 -5 -6 -7
leaf_value=-0.001843522668515754 -0.0018693204758348039 0.0074987915836022181 -0 0.0032627320015637508 -0.0052939198873032172 0.0013072568106779309
leaf_count=33 22 21 23 21 30 21
internal_value=0 0.206757 0.355107 0.15203 -0.363034 -0.0153645
internal_count=171 108 65 44 63 43
shrinkage=0.01


Tree=100
num_leaves=6
num_cat=0
split_feature=13 8 7 13 7
split_gain=5.86967 2.0488 0.95684 0.763376 0.620389
threshold=0.58730605244636547 0.87845635414123546 0.94580993056297313 0.66157209873199474 0.8875282108783723
decision_type=6 6 6 6 4
left_child=4 -2 3 -3 -1
right_child=1 2 -4 -5 -6
leaf_value=0.0057932455910971745 0.0015541984886430619 -0.0017853695025149979 -0.00049393110830351706 -0.0055874821777023489 0.0021906467874507739
leaf_count=24 24 25 25 34 39
internal_value=0 -0.204731 -0.309974 -0.41152 0.360307
internal_count=171 108 84 59 63
shrinkage=0.01


Tree=101
num_leaves=7
num_cat=0
split_feature=13 1 10 10 9 7
split_gain=5.86967 1.4882 1.80964 1.44138 0.679539 0.620389
threshold=0.58730605244636547 0.87769877910614025 0.93195092678070079 0.94847020506858837 0.89587268233299266 0.8875282108783723
decision_type=6 6 4 6 4 4
left_child=5 4 -3 -4 -2 -1
right_child=1 2 3 -5 -6 -7
leaf_value=-0.0057932455910971745 -0.0018578998196290162 0.0067822032929758733 -0.00090831043114407385 0.0041444014673400744 0.0017410163093168544 -0.0021906467874507739
leaf_count=24 22 22 21 21 22 39
internal_value=0 0.204731 0.340328 0.148618 -0 -0.360307
internal_count=171 108 64 42 44 63
shrinkage=0.01


Tree=102
num_leaves=6
num_cat=0
split_feature=9 10 12 4 11
split_gain=4.30812 1.45554 2.34682 1.02993 1.12791
threshold=0.90921401977539074 0.92998966574668895 0.86970019340515148 0.89586997032165538 0.92283701896667492
decision_type=6 6 6 6 6
left_child=3 -2 -3 -1 -5
right_child=1 2 -4 4 -6
leaf_value=0.0046328094859733309 -0.0055441984075513947 0.0023833124580961772 -0.0034689448052178037 -0.00030682276208724335 0.0036868065275051489
leaf_count=29 23 22 34 41 22
internal_value=0 -0.245793 -0.108372 0.215924 0.099268
internal_count=171 79 56 92 63
shrinkage=0.01


Tree=103
num_leaves=6
num_cat=0
split_feature=13 8 11 11 7
split_gain=5.76504 2.01034 1.11574 1.70704 0.613955
threshold=0.58730605244636547 0.87845635414123546 0.94511637091636669 0.95661717653274547 0.8875282108783723
decision_type=6 6 6 6 4
left_child=4 -2 -3 -4 -1
right_child=1 2 3 -5 -6
leaf_value=-0.0057625896738687631 -0.0015406683266067057 0.0052210000496220686 -0.00077777240359573499 0.0042418299518041588 -0.0021714017259768384
leaf_count=24 24 33 26 25 39
internal_value=0 0.202699 0.306913 0.158119 -0.357706
internal_count=171 108 84 51 63
shrinkage=0.01


Tree=104
num_leaves=6
num_cat=0
split_feature=10 3 1 13 6
split_gain=5.69458 1.33172 5.38896 1.30427 1.06709
threshold=0.92518356442451488 0.88887831568717968 0.84025365114212047 0.66157209873199474 0.94554319977760326
decision_type=6 6 6 6 4
left_child=1 2 -1 -2 -3
right_child=3 4 -4 -5 -6
leaf_value=0.0045857789084638775 -0 0.0072532777403098514 -0.0043364391455482801 -0.0043295411005481862 0.0021238321297746576
leaf_count=43 25 23 22 36 22
internal_value=0 0.285756 0.13177 -0.262168 0.484651
internal_count=171 110 65 61 45
shrinkage=0.01


Tree=105
num_leaves=6
num_cat=0
split_feature=8 3 2 3 2
split_gain=6.04163 2.15406 6.4413 0.630813 0.459001
threshold=0.90219706296920787 0.88887831568717968 0.83778288960456859 0.91130930185318004 0.90613549947738659
decision_type=6 6 6 4 6
left_child=1 2 -1 -3 -2
right_child=4 3 -4 -5 -6
leaf_value=-0.0049672635408576664 0.00084326031052609927 -0.0073321061512555893 0.0042984947084329398 -0.0030168294887561293 0.0039042251968852771
leaf_count=41 22 23 27 22 36
internal_value=0 -0.283751 -0.101111 -0.535086 0.286624
internal_count=171 113 68 45 58
shrinkage=0.01


Tree=106
num_leaves=5
num_cat=0
split_feature=9 3 1 1
split_gain=7.14969 1.30999 4.10256 0.724926
threshold=0.90921401977539074 0.88887831568717968 0.83764010667800914 0.90413492918014537
decision_type=6 6 6 6
left_child=1 2 -1 -2
right_child=3 -3 -4 -5
leaf_value=0.0048567602961783187 -0.0012899430884499943 0.0054741521793787206 -0.0028936378828282212 -0.0046091672589379943
leaf_count=40 41 40 23 27
internal_value=0 0.331585 0.177852 -0.272532
internal_count=171 103 63 68
shrinkage=0.01


Tree=107
num_leaves=6
num_cat=0
split_feature=8 3 1 13 3
split_gain=5.9415 2.12795 5.85974 1.54649 0.625166
threshold=0.90219706296920787 0.88887831568717968 0.84025365114212047 0.66639292240142833 0.91130930185318004
decision_type=6 6 6 6 4
left_child=1 2 -1 -2 -3
right_child=3 4 -4 -5 -6
leaf_value=-0.0045577754587440688 -0 -0.0072970040239671852 0.0043894783929307197 0.0046959572976905707 -0.0029933597448970443
leaf_count=43 23 23 25 35 22
internal_value=0 -0.281675 -0.100043 0.28412 -0.531913
internal_count=171 113 68 58 45
shrinkage=0.01


Tree=108
num_leaves=5
num_cat=0
split_feature=9 3 2 2
split_gain=7.02929 1.29085 4.57324 0.742719
threshold=0.90921401977539074 0.88887831568717968 0.83778288960456859 0.90613549947738659
decision_type=6 6 4 6
left_child=1 2 -1 -2
right_child=3 -3 -4 -5
leaf_value=0.0049140723058945538 -0.00089098253360288347 0.0054386827324111858 -0.003353533694404171 -0.0041795352544995506
leaf_count=41 33 40 22 35
internal_value=0 0.329181 0.176398 -0.270071
internal_count=171 103 63 68
shrinkage=0.01


Tree=109
num_leaves=5
num_cat=0
split_feature=10 13 2 2
split_gain=5.49165 1.26953 1.11968 2.35798
threshold=0.92518356442451488 0.66157209873199474 0.83778288960456859 0.85730987787246715
decision_type=6 6 6 6
left_child=2 -2 -1 -4
right_child=1 -3 3 -5
leaf_value=-0.0049140723058945538 0 0.0042560370557996174 0.0017747971489528497 -0.0037090230084830854
leaf_count=41 25 36 26 43
internal_value=0 0.257106 -0.28131 -0.154383
internal_count=171 61 110 69
shrinkage=0.01


Tree=110
num_leaves=6
num_cat=0
split_feature=10 3 2 13 2
split_gain=5.38802 1.28584 5.64644 1.25214 0.278327
threshold=0.92518356442451488 0.88887831568717968 0.83778288960456859 0.66157209873199474 0.87750360369682323
decision_type=6 6 4 6 4
left_child=1 2 -1 -2 -3
right_child=3 4 -4 -5 -6
leaf_value=0.0048825489304957469 -0 0.0062612090683613775 -0.0041004396065617956 -0.0042184141009245146 0.0029170601185133207
leaf_count=41 25 23 24 36 22
internal_value=0 0.278984 0.12726 -0.254496 0.475298
internal_count=171 110 65 61 45
shrinkage=0.01


Tree=111
num_leaves=6
num_cat=0
split_feature=8 3 1 13 3
split_gain=5.7374 2.09275 5.70853 1.50685 0.629331
threshold=0.90219706296920787 0.88887831568717968 0.84025365114212047 0.66639292240142833 0.91130930185318004
decision_type=6 6 6 6 4
left_child=1 2 -1 -2 -3
right_child=3 4 -4 -5 -6
leaf_value=-0.0045021147243114778 -0 -0.007246728495077061 0.0043338373186379425 0.0046209614564306422 -0.0029326078411374503
leaf_count=43 23 23 25 35 22
internal_value=0 -0.277362 -0.0970076 0.278974 -0.526162
internal_count=171 113 68 58 45
shrinkage=0.01


Tree=112
num_leaves=6
num_cat=0
split_feature=9 3 4 13 5
split_gain=4.92444 2.41218 2.82922 2.30878 0.29609
threshold=0.90948438644409191 0.88765230774879467 0.89586997032165538 0.66157209873199474 0.95736044645309459
decision_type=6 6 4 6 4
left_child=1 2 -1 -2 -5
right_child=3 -3 -4 4 -6
leaf_value=0.0040768721245472133 0.0013078105344383917 0.0060991025784928746 -0.0024463359779268203 -0.0053021370710605257 -0.002413195531821882
leaf_count=33 26 34 26 22 30
internal_value=0 0.292174 0.0921078 -0.203055 -0.376273
internal_count=171 93 59 78 52
shrinkage=0.01


Tree=113
num_leaves=6
num_cat=0
split_feature=9 3 7 7 11
split_gain=4.92444 2.41218 3.1275 0.334643 0.498311
threshold=0.90948438644409191 0.88765230774879467 0.8930402696132661 0.94580993056297313 0.94569846987724315
decision_type=6 6 6 6 6
left_child=1 2 -1 4 -2
right_child=3 -3 -4 -5 -6
leaf_value=-0.0038251471437890988 0.0011546585170229226 -0.0060991025784928746 0.0031679465333831931 0.00028318232765654755 0.0042952052713020631
leaf_count=37 31 34 22 23 24
internal_value=0 -0.292174 -0.0921078 0.203055 0.265922
internal_count=171 93 59 78 55
shrinkage=0.01


Tree=114
num_leaves=6
num_cat=0
split_feature=12 3 7 13 13
split_gain=4.61175 1.99181 3.56877 0.845834 0.155931
threshold=0.8228907883167268 0.88765230774879467 0.8930402696132661 0.68455561995506298 0.63459068536758434
decision_type=6 6 6 6 6
left_child=1 2 -1 -2 -3
right_child=3 4 -4 -5 -6
leaf_value=0.0038032199129601359 -1.8254432370519188e-05 0.0061836849176691126 -0.0034210194397351818 -0.0036716575608346518 0.0031925849736439511
leaf_count=37 24 23 25 40 22
internal_value=0 0.247579 0.0578587 -0.241786 0.484307
internal_count=171 107 62 64 45
shrinkage=0.01


Tree=115
num_leaves=5
num_cat=0
split_feature=12 3 2 1
split_gain=4.61175 1.99181 3.91744 0.483429
threshold=0.8228907883167268 0.88765230774879467 0.83778288960456859 0.90036174654960643
decision_type=6 6 6 6
left_child=1 2 -1 -2
right_child=3 -3 -4 -5
leaf_value=-0.0036104648670539021 0.00070825195883188641 -0.0048430702089853608 0.0041237612921056497 0.0035466636019426986
leaf_count=40 28 45 22 36
internal_value=0 -0.247579 -0.0578587 0.241786
internal_count=171 107 62 64
shrinkage=0.01


Tree=116
num_leaves=6
num_cat=0
split_feature=9 3 7 13 7
split_gain=4.77343 2.35515 3.0453 2.26676 0.406338
threshold=0.90948438644409191 0.88765230774879467 0.8930402696132661 0.66157209873199474 0.94498771429061901
decision_type=6 6 6 6 4
left_child=1 2 -1 -2 -5
right_child=3 -3 -4 4 -6
leaf_value=0.0037831734469211554 0.0013086693886685018 0.0060345743488199512 -0.0031199343281314764 -0.0049840241515987866 -0.0018356732784101631
leaf_count=37 26 34 22 29 23
internal_value=0 0.288166 0.0903527 -0.199883 -0.37158
internal_count=171 93 59 78 52
shrinkage=0.01


Tree=117
num_leaves=6
num_cat=0
split_feature=9 3 7 0 11
split_gain=4.77343 2.35515 3.0453 0.405547 1.62944
threshold=0.90948438644409191 0.88765230774879467 0.8930402696132661 0.78523212671279918 0.95183950662612926
decision_type=6 6 6 6 6
left_child=1 2 -1 4 -2
right_child=3 -3 -4 -5 -6
leaf_value=-0.0037831734469211554 0.00035230828634322432 -0.0060345743488199512 0.0031199343281314764 0.00013100940179165284 0.0055493549469497654
leaf_count=37 32 34 22 23 23
internal_value=0 -0.288166 -0.0903527 0.199883 0.267949
internal_count=171 93 59 78 55
shrinkage=0.01


Tree=118
num_leaves=6
num_cat=0
split_feature=10 3 7 13 6
split_gain=4.12795 1.61244 3.0721 0.786006 0.370331
threshold=0.92446896433830272 0.88765230774879467 0.8930402696132661 0.66639292240142833 0.96424838900566112
decision_type=6 6 6 6 6
left_child=1 2 -1 -2 -5
right_child=3 -3 -4 4 -6
leaf_value=0.0037566698425104462 0 0.0047970116490181772 -0.0030113010178240132 -0.0014202519383350674 -0.0044674653828920474
leaf_count=37 21 41 24 24 24
internal_value=0 0.249029 0.0784762 -0.209035 -0.308351
internal_count=171 102 61 69 48
shrinkage=0.01


Tree=119
num_leaves=5
num_cat=0
split_feature=9 3 7 1
split_gain=4.68811 2.32222 2.99052 0.891289
threshold=0.90948438644409191 0.88765230774879467 0.8930402696132661 0.90036174654960643
decision_type=6 6 6 6
left_child=1 2 -1 -2
right_child=3 -3 -4 -5
leaf_value=-0.0037566698425104462 0.00026006594566811882 -0.0059979103643119447 0.0030846143480386568 0.0034952304069410037
leaf_count=37 39 34 22 39
internal_value=0 -0.285932 -0.0894472 0.197983
internal_count=171 93 59 78
shrinkage=0.01


Tree=120
num_leaves=6
num_cat=0
split_feature=10 13 5 5 13
split_gain=7.45759 2.87402 0.939728 1.29394 0.232727
threshold=0.90130704641342174 0.59528058767318737 0.95086741447448742 0.96043109893798839 0.52492517232894909
decision_type=6 6 6 6 6
left_child=4 -2 -3 -4 -1
right_child=1 2 3 -5 -6
leaf_value=0.00339742702596443 0.0024269316162418599 -0.0045667604857189169 0.0010396637541658597 -0.0034753328751853129 0.0064522130024842516
leaf_count=27 29 38 22 26 29
internal_value=0 -0.148557 -0.279834 -0.129746 0.515713
internal_count=171 115 86 48 56
shrinkage=0.01


Tree=121
num_leaves=6
num_cat=0
split_feature=10 13 12 8 13
split_gain=7.45759 2.87402 0.759965 0.651936 0.232727
threshold=0.90130704641342174 0.59528058767318737 0.82064083218574535 0.93041813373565685 0.52492517232894909
decision_type=6 6 6 4 6
left_child=4 -2 -3 -4 -1
right_child=1 2 3 -5 -6
leaf_value=-0.00339742702596443 -0.0024269316162418599 0.00064613076653617684 0.0050967414909201389 0.0014576536244013528 -0.0064522130024842516
leaf_count=27 29 30 34 22 29
internal_value=0 0.148557 0.279834 0.378274 -0.515713
internal_count=171 115 86 56 56
shrinkage=0.01


Tree=122
num_leaves=6
num_cat=0
split_feature=10 13 5 6 13
split_gain=7.33575 2.81885 0.930118 1.46107 0.228834
threshold=0.90130704641342174 0.59528058767318737 0.95086741447448742 0.96424838900566112 0.52492517232894909
decision_type=6 6 6 6 6
left_child=4 -2 -3 -4 -1
right_child=1 2 3 -5 -6
leaf_value=0.0033726518501816572 0.002405976865848368 -0.004528431075705993 0.00082561507544512869 -0.0039877691093301018 0.0064159870038701869
leaf_count=27 29 38 26 22 29
internal_value=0 -0.147094 -0.277045 -0.12766 0.51254
internal_count=171 115 86 48 56
shrinkage=0.01


Tree=123
num_leaves=6
num_cat=0
split_feature=10 13 5 6 13
split_gain=7.33575 2.81885 0.930118 1.46107 0.228834
threshold=0.90130704641342174 0.59528058767318737 0.95086741447448742 0.96424838900566112 0.52492517232894909
decision_type=6 6 6 6 6
left_child=4 -2 -3 -4 -1
right_child=1 2 3 -5 -6
leaf_value=-0.0033726518501816572 -0.002405976865848368 0.004528431075705993 -0.00082561507544512869 0.0039877691093301018 -0.0064159870038701869
leaf_count=27 29 38 26 22 29
internal_value=0 0.147094 0.277045 0.12766 -0.51254
internal_count=171 115 86 48 56
shrinkage=0.01


Tree=124
num_leaves=7
num_cat=0
split_feature=10 12 11 12 12 10
split_gain=7.21483 1.57635 0.913604 0.879292 0.454202 0.130938
threshold=0.90130704641342174 0.82064083218574535 0.92809984087944042 0.8512411117553712 0.87546229362487804 0.88983213901519786
decision_type=6 6 6 6 6 6
left_child=5 2 -2 -3 -5 -1
right_child=1 3 -4 4 -6 -7
leaf_value=0.0035838290728125418 -0.0016058946986518389 -0.0051465049543235461 0.0023371354420155706 0 -0.0028807626566558519 0.0063410807510464878
leaf_count=29 22 24 27 21 21 27
internal_value=0 -0.145573 0.0451199 -0.287268 -0.142046 0.5094
internal_count=171 115 49 66 42 56
shrinkage=0.01


Tree=125
num_leaves=6
num_cat=0
split_feature=7 12 5 5 7
split_gain=6.48406 1.49358 0.910696 1.2298 0.718976
threshold=0.90534257888793956 0.82064083218574535 0.95170009136199962 0.96298912167549144 0.8930402696132661
decision_type=6 6 6 6 4
left_child=4 -2 -3 -4 -1
right_child=1 2 3 -5 -6
leaf_value=-0.0061145856685339344 -0.00052977483370998625 0.0054356639350860636 -0.00054916479658212848 0.0039417380500748759 -0.0023194655915736357
leaf_count=35 41 21 23 22 29
internal_value=0 0.156352 0.287268 0.153148 -0.441554
internal_count=171 107 66 45 64
shrinkage=0.01


Tree=126
num_leaves=7
num_cat=0
split_feature=10 12 6 12 12 10
split_gain=7.10728 1.54252 1.32254 0.868153 0.448711 0.132492
threshold=0.90130704641342174 0.82064083218574535 0.94303253293037426 0.8512411117553712 0.87546229362487804 0.88983213901519786
decision_type=6 6 6 6 6 6
left_child=5 2 -2 -3 -5 -1
right_child=1 3 -4 4 -6 -7
leaf_value=0.0035534485553715502 -0.0019468282853478374 -0.0051032029380283263 0.0028049049440962604 0 -0.0028523320386039104 0.0063142161355784166
leaf_count=29 23 24 26 21 21 27
internal_value=0 -0.144288 0.044274 -0.284437 -0.140042 0.506586
internal_count=171 115 49 66 42 56
shrinkage=0.01


Tree=127
num_leaves=6
num_cat=0
split_feature=10 13 12 7 13
split_gain=7.10728 2.74696 0.743867 0.885953 0.22839
threshold=0.90130704641342174 0.59528058767318737 0.82064083218574535 0.94498771429061901 0.52492517232894909
decision_type=6 6 6 4 6
left_child=4 -2 -3 -4 -1
right_child=1 2 3 -5 -6
leaf_value=-0.0033143835134212007 -0.0023865362053990934 0.00059944373472018363 0.0051277068726100616 0.0010123958004729925 -0.0063555986329978465
leaf_count=27 29 30 35 21 29
internal_value=0 0.144288 0.272531 0.369881 -0.506586
internal_count=171 115 86 56 56
shrinkage=0.01


Tree=128
num_leaves=6
num_cat=0
split_feature=9 13 13 13 13
split_gain=5.53355 1.2425 0.985304 0.596841 1.38821
threshold=0.90921401977539074 0.63459068536758434 0.7521897852420808 0.5586337447166444 0.6426476538181306
decision_type=6 6 4 6 6
left_child=3 -2 -3 -1 -5
right_child=1 2 -4 4 -6
leaf_value=0.0041840810211637384 -0 -0.0061943972616020221 -0.001660323116363966 -0.00057927173177790923 0.004064792204551174
leaf_count=42 28 23 25 29 24
internal_value=0 -0.260381 -0.397291 0.268535 0.145136
internal_count=171 76 48 95 53
shrinkage=0.01


Tree=129
num_leaves=5
num_cat=0
split_feature=9 1 2 3
split_gain=5.53355 0.614325 0.547804 1.62714
threshold=0.90921401977539074 0.90036174654960643 0.83631330728530895 0.89500278234481823
decision_type=6 6 6 6
left_child=2 -2 -1 -4
right_child=1 -3 3 -5
leaf_value=-0.0043425639354588257 0.0011361060586760358 0.0040099233284096305 0.0008434414791083757 -0.003946364837419539
leaf_count=36 40 36 27 32
internal_value=0 0.260381 -0.268535 -0.162446
internal_count=171 76 95 59
shrinkage=0.01


Tree=130
num_leaves=6
num_cat=0
split_feature=9 13 13 13 13
split_gain=5.43213 1.22652 0.976116 0.592628 1.37427
threshold=0.90921401977539074 0.63459068536758434 0.7521897852420808 0.5586337447166444 0.6426476538181306
decision_type=6 6 6 6 6
left_child=3 -2 -3 -1 -5
right_child=1 2 -4 4 -6
leaf_value=0.0041594685040283966 -0 -0.0061501626003732492 -0.0016369085150313174 -0.0005855701819516226 0.0040380009407996352
leaf_count=42 28 23 25 29 24
internal_value=0 -0.257907 -0.393937 0.266371 0.143391
internal_count=171 76 48 95 53
shrinkage=0.01


Tree=131
num_leaves=6
num_cat=0
split_feature=8 6 3 2 11
split_gain=4.9343 1.04374 0.878685 3.66364 0.143781
threshold=0.90219706296920787 0.9564776122570039 0.88887831568717968 0.83631330728530895 0.95277118682861339
decision_type=6 6 6 4 4
left_child=2 -2 3 -1 -3
right_child=1 4 -4 -5 -6
leaf_value=-0.0043170465816312542 0.0053656545409629039 0.0021716183945158581 -0.0039109258288691834 0.0029716351770397147 0.00013303303774516559
leaf_count=36 23 21 44 26 21
internal_value=0 0.282972 -0.224812 -0.0931099 0.129859
internal_count=171 65 106 62 42
shrinkage=0.01


Tree=132
num_leaves=5
num_cat=0
split_feature=9 7 3 1
split_gain=5.34006 1.02714 1.48765 0.606353
threshold=0.90921401977539074 0.8875282108783723 0.88887831568717968 0.90036174654960643
decision_type=6 6 6 6
left_child=1 -1 -3 -2
right_child=3 2 -4 -5
leaf_value=0.0050899323862775691 -0.0010995762181383252 -0.00086446134699263652 0.0035555683660620225 -0.0039528718578397334
leaf_count=32 40 28 35 36
internal_value=0 0.264371 0.143446 -0.255668
internal_count=171 95 63 76
shrinkage=0.01


Tree=133
num_leaves=6
num_cat=0
split_feature=9 13 7 12 13
split_gain=5.34006 1.21829 1.02714 1.66985 0.964518
threshold=0.90921401977539074 0.63459068536758434 0.8875282108783723 0.78805437684059154 0.7521897852420808
decision_type=6 6 6 6 6
left_child=2 -2 -1 -4 -3
right_child=1 4 3 -5 -6
leaf_value=-0.0050899323862775691 0 0.0061106419481117748 0.00024544920041516522 -0.0046138391845611188 0.0016219259768847911
leaf_count=32 28 23 40 23 25
internal_value=0 0.255668 -0.264371 -0.143446 0.391237
internal_count=171 76 95 63 48
shrinkage=0.01


Tree=134
num_leaves=6
num_cat=0
split_feature=9 13 7 12 13
split_gain=5.24283 1.20273 1.01557 1.6514 0.955684
threshold=0.90921401977539074 0.63459068536758434 0.8875282108783723 0.78805437684059154 0.7521897852420808
decision_type=6 6 6 6 6
left_child=2 -2 -1 -4 -3
right_child=1 4 3 -5 -6
leaf_value=0.0050623280182813318 -0 -0.0060675138298765434 -0.0002484296574572689 0.0045871936909702496 -0.0015989777010049478
leaf_count=32 28 23 40 23 25
internal_value=0 -0.253245 0.262292 0.142056 -0.387955
internal_count=171 76 95 63 48
shrinkage=0.01


Tree=135
num_leaves=6
num_cat=0
split_feature=7 8 8 6 5
split_gain=5.18164 1.34871 0.996903 1.04266 0.413178
threshold=0.90534257888793956 0.86090677976608287 0.90219706296920787 0.9564776122570039 0.96368262171745311
decision_type=6 6 6 6 6
left_child=1 -1 -2 -4 -5
right_child=2 -3 3 4 -6
leaf_value=-0.0015738207431414202 -0 -0.0064202953139979911 0.005312979059395445 -0 0.0026490897476640451
leaf_count=40 41 25 23 21 21
internal_value=0 -0.364926 0.170932 0.278181 0.125285
internal_count=171 65 106 65 42
shrinkage=0.01


Tree=136
num_leaves=6
num_cat=0
split_feature=13 9 5 13 1
split_gain=2.88212 1.95341 2.41407 1.00249 0.3173
threshold=0.58730605244636547 0.90948438644409191 0.95736044645309459 0.47709570825099951 0.85625761747360241
decision_type=6 6 4 6 6
left_child=3 4 -3 -1 -2
right_child=1 2 -4 -5 -6
leaf_value=-0.00018333783046168225 -0.00067362070798781604 -0.0063900179414856893 -0.00051621728472271884 0.003469561777958409 0.0017105586050507344
leaf_count=24 22 30 31 42 22
internal_value=0 -0.189676 -0.350892 0.205739 0.0377357
internal_count=171 105 61 66 44
shrinkage=0.01


Tree=137
num_leaves=5
num_cat=0
split_feature=7 0 13 7
split_gain=3.35372 2.02162 2.23593 0.788224
threshold=0.90534257888793956 0.70020484924316417 0.66157209873199474 0.8875282108783723
decision_type=6 6 6 4
left_child=3 -2 -3 -1
right_child=1 2 -4 -5
leaf_value=-0.0042185326366920026 0.0043814564663046838 -0.0031349450003114905 0.0024311876284573873 -0.00056101633020686382
leaf_count=31 44 24 38 34
internal_value=0 0.19868 0.0225546 -0.230002
internal_count=171 106 62 65
shrinkage=0.01


Tree=138
num_leaves=5
num_cat=0
split_feature=7 0 0 7
split_gain=3.30739 1.99813 1.34905 0.782355
threshold=0.90534257888793956 0.70020484924316417 0.77080801129341137 0.8875282108783723
decision_type=6 6 6 4
left_child=3 -2 -3 -1
right_child=1 2 -4 -5
leaf_value=0.0042018468321203296 -0.0043513777385545335 0.0016132339487747495 -0.002586036353347781 0.00055471324993674608
leaf_count=31 44 34 28 34
internal_value=0 -0.19715 -0.0219288 0.228744
internal_count=171 106 62 65
shrinkage=0.01


Tree=139
num_leaves=5
num_cat=0
split_feature=7 0 0 7
split_gain=3.30739 1.99813 1.34905 0.782355
threshold=0.90534257888793956 0.70020484924316417 0.77080801129341137 0.8875282108783723
decision_type=6 6 6 4
left_child=3 -2 -3 -1
right_child=1 2 -4 -5
leaf_value=-0.0042018468321203296 0.0043513777385545335 -0.0016132339487747495 0.002586036353347781 -0.00055471324993674608
leaf_count=31 44 34 28 34
internal_value=0 0.19715 0.0219288 -0.228744
internal_count=171 106 62 65
shrinkage=0.01


Tree=140
num_leaves=6
num_cat=0
split_feature=13 9 5 13 13
split_gain=2.80123 1.91309 2.37293 1.00333 0.287127
threshold=0.58730605244636547 0.90948438644409191 0.95736044645309459 0.47709570825099951 0.65446034073829662
decision_type=6 6 4 6 6
left_child=3 4 -3 -1 -2
right_child=1 2 -4 -5 -6
leaf_value=-0.00021172899255582562 -0.0005971176887535945 -0.0063187979384456121 -0.0004939271928538218 0.0034502052171876112 0.0016583470502825345
leaf_count=24 22 30 31 42 22
internal_value=0 -0.186642 -0.346254 0.203484 0.0382846
internal_count=171 105 61 66 44
shrinkage=0.01


Tree=141
num_leaves=5
num_cat=0
split_feature=11 0 2 2
split_gain=2.78757 1.58837 1.58171 0.835309
threshold=0.91756814718246471 0.68479526042938244 0.90695247054100048 0.83631330728530895
decision_type=6 6 6 4
left_child=3 -2 -3 -1
right_child=1 2 -4 -5
leaf_value=-0.0047047762246666212 0.0039114770497717267 -0.0017560472388620158 0.0023169832520486254 -0.00043176110921834836
leaf_count=25 42 38 40 26
internal_value=0 0.16115 0.0312207 -0.257417
internal_count=171 120 78 51
shrinkage=0.01


Tree=142
num_leaves=5
num_cat=0
split_feature=7 0 0 11
split_gain=3.20909 1.94406 1.31155 0.818871
threshold=0.90534257888793956 0.70020484924316417 0.77080801129341137 0.91689372062683117
decision_type=6 6 6 4
left_child=3 -2 -3 -1
right_child=1 2 -4 -5
leaf_value=0.003577404581785645 -0.0042829476260071242 0.0015995626744223054 -0.0025423282012841447 0
leaf_count=42 44 34 28 23
internal_value=0 -0.193812 -0.0207212 0.226071
internal_count=171 106 62 65
shrinkage=0.01


Tree=143
num_leaves=6
num_cat=0
split_feature=13 9 5 10 1
split_gain=2.75881 1.89183 2.35208 1.26181 0.321025
threshold=0.58730605244636547 0.90948438644409191 0.95736044645309459 0.89228287339210521 0.85625761747360241
decision_type=6 6 4 6 6
left_child=3 4 -3 -1 -2
right_child=1 2 -4 -5 -6
leaf_value=0 0.00067338411040560465 0.0062823128360440395 0.00048237246722941592 -0.0040413860307650295 -0.0017240608974903122
leaf_count=33 22 30 31 33 22
internal_value=0 0.185103 0.343861 -0.202205 -0.038504
internal_count=171 105 61 66 44
shrinkage=0.01


Tree=144
num_leaves=7
num_cat=0
split_feature=8 6 11 5 6 1
split_gain=4.83904 2.44365 1.17731 0.919189 0.827341 0.449095
threshold=0.90219706296920787 0.9564776122570039 0.90591508150100719 0.92385193705558788 0.94170957803726207 0.91774010658264171
decision_type=6 6 6 6 4 6
left_child=2 -2 -1 -4 -5 -3
right_child=1 5 3 4 -6 -7
leaf_value=-0.00089197484473928766 -0.0068696611897277569 0.00011711016687135088 0.00031241969928283837 0.0061410480747892092 0.0017316040116049328 -0.0025283046578151013
leaf_count=25 24 23 29 24 25 21
internal_value=0 -0.317239 0.182079 0.273203 0.397957 -0.10187
internal_count=171 68 103 78 49 44
shrinkage=0.01


Tree=145
num_leaves=7
num_cat=0
split_feature=10 6 11 11 1 0
split_gain=3.69032 1.59785 0.967337 1.17353 0.449095 0.298156
threshold=0.92446896433830272 0.9564776122570039 0.90591508150100719 0.92510181665420543 0.91774010658264171 0.66683000326156627
decision_type=6 6 6 6 6 4
left_child=2 -2 -1 5 -3 -4
right_child=1 4 3 -5 -6 -7
leaf_value=0.00089197484473928766 0.005798278012621557 -0.00011711016687135088 -0.0053084844437071722 -0 0.0025283046578151013 -0.0020906979757879165
leaf_count=25 24 23 24 30 21 24
internal_value=0 0.28027 -0.155383 -0.238626 0.10187 -0.38891
internal_count=171 68 103 78 44 48
shrinkage=0.01


Tree=146
num_leaves=6
num_cat=0
split_feature=9 6 11 11 0
split_gain=3.95125 2.35656 0.909266 1.2001 0.297842
threshold=0.91712218523025524 0.95742356777191173 0.90591508150100719 0.92510181665420543 0.66683000326156627
decision_type=6 4 6 6 4
left_child=2 -2 -1 4 -4
right_child=1 -3 3 -5 -6
leaf_value=-0.00088256008245889974 -0.0068263575823525801 -0.00086452866786405316 0.0052841570042025613 4.4397295314937369e-05 0.0020684142679799396
leaf_count=25 22 41 24 35 24
internal_value=0 -0.305687 0.150369 0.226565 0.386565
internal_count=171 63 108 83 48
shrinkage=0.01


Tree=147
num_leaves=6
num_cat=0
split_feature=9 6 7 9 10
split_gain=3.95125 2.35656 1.09368 1.96044 0.731095
threshold=0.91712218523025524 0.95742356777191173 0.8875282108783723 0.88839492201805126 0.91360375285148632
decision_type=6 4 6 6 4
left_child=2 -2 -1 -4 -5
right_child=1 -3 3 4 -6
leaf_value=-0.0041123040902222643 0.0068263575823525801 0.00086452866786405316 0.0024017303208853417 -0.0043769746942725072 -0.00039790619089619095
leaf_count=31 22 41 29 23 25
internal_value=0 0.305687 -0.150369 -0.0509878 -0.240475
internal_count=171 63 108 77 48
shrinkage=0.01


Tree=148
num_leaves=6
num_cat=0
split_feature=8 10 11 5 5
split_gain=4.69739 2.2903 1.15391 0.922217 0.172498
threshold=0.90219706296920787 0.93455553054809581 0.90591508150100719 0.92385193705558788 0.93505793809890758
decision_type=6 6 6 6 6
left_child=2 -2 -1 -4 -5
right_child=1 -3 3 4 -6
leaf_value=-0.00088338329044246994 -0.0062753411565192275 -0.00076669682185756267 0.00027925495362925043 0.0052378752186468917 0.0024804289252741045
leaf_count=25 28 40 29 24 25
internal_value=0 -0.312314 0.179886 0.270368 0.39537
internal_count=171 68 103 78 49
shrinkage=0.01


Tree=149
num_leaves=6
num_cat=0
split_feature=9 6 7 9 12
split_gain=3.87766 2.30933 1.08785 1.94255 0.277656
threshold=0.91712218523025524 0.95742356777191173 0.8875282108783723 0.88839492201805126 0.79774075746536266
decision_type=6 4 6 6 4
left_child=2 -2 -1 -4 -5
right_child=1 -3 3 4 -6
leaf_value=-0.0040960150536796984 0.0067605117936888753 0.00085595815028227044 0.0023967801062795202 -0.0036506188111828089 -0.00089319924856423138
leaf_count=31 22 41 29 24 24
internal_value=0 0.302786 -0.14911 -0.0500148 -0.238879
internal_count=171 63 108 77 48
shrinkage=0.01


Tree=150
num_leaves=7
num_cat=0
split_feature=8 6 4 4 1 6
split_gain=4.62323 2.34732 1.2716 1.705 0.442837 0.421132
threshold=0.90219706296920787 0.9564776122570039 0.90007808804512035 0.89168906211853038 0.91774010658264171 0.93819802999496471
decision_type=6 6 6 4 6 4
left_child=2 -2 3 -1 -3 -4
right_child=1 4 5 -5 -6 -7
leaf_value=0.0028829036300757854 -0.0067220121196968465 0.00014508646749266754 0.0051336854654116014 -0.00274166598516768 -0.002486159458758417 0.0018451025454121683
leaf_count=26 24 23 23 24 21 30
internal_value=0 -0.309747 0.178681 0 -0.0983508 0.337766
internal_count=171 68 103 50 44 53
shrinkage=0.01


Tree=151
num_leaves=7
num_cat=0
split_feature=8 9 4 7 7 7
split_gain=4.62323 2.16765 1.2716 2.38506 0.919891 0.567517
threshold=0.90219706296920787 0.92535850405693065 0.90007808804512035 0.8875282108783723 0.9104222059249879 0.94580993056297313
decision_type=6 6 6 6 4 6
left_child=2 -2 3 -1 -4 -3
right_child=1 5 4 -5 -6 -7
leaf_value=-0.0035187375972132663 0.0065870957920737992 0.0026338789099788363 -0.0054359995729011991 0.0031413816744932811 -0.0010864727536545784 -0.00038514974108625247
leaf_count=26 24 23 27 24 26 21
internal_value=0 0.309747 -0.178681 -0 -0.337766 0.105569
internal_count=171 68 103 50 53 44
shrinkage=0.01


Tree=152
num_leaves=6
num_cat=0
split_feature=7 5 2 3 2
split_gain=2.69486 1.51243 1.53336 1.26203 3.19388
threshold=0.92181468009948742 0.95086741447448742 0.92492023110389721 0.88887831568717968 0.83778288960456859
decision_type=6 6 6 6 6
left_child=3 -2 -3 4 -1
right_child=1 2 -4 -5 -6
leaf_value=0.0029797273403723086 -0.0052226761209732417 0.0018654621971144238 -0.003231244613439157 0.0035369701849036705 -0.0041845422517411343
leaf_count=38 23 23 23 42 22
internal_value=0 -0.219277 -0.0560119 0.154484 0
internal_count=171 69 46 102 60
shrinkage=0.01


Tree=153
num_leaves=6
num_cat=0
split_feature=8 3 1 5 13
split_gain=3.16772 1.17737 3.15656 0.731952 0.727562
threshold=0.90219706296920787 0.88887831568717968 0.83624437451362621 0.95736044645309459 0.6223391890525819
decision_type=6 6 6 4 4
left_child=1 2 -1 -2 -3
right_child=3 4 -4 -5 -6
leaf_value=-0.003273083850372538 0.0041662327929515323 -0.0051344095971263852 0.0037412631127925391 0.00079985484985916396 -0.00097048769292643142
leaf_count=35 31 26 25 32 22
internal_value=0 -0.155357 -0 0.255011 -0.328818
internal_count=171 108 60 63 48
shrinkage=0.01


Tree=154
num_leaves=6
num_cat=0
split_feature=9 3 1 13 5
split_gain=3.71056 0.782401 2.80766 0.860388 0.672715
threshold=0.91712218523025524 0.88887831568717968 0.83624437451362621 0.65446034073829662 0.95736044645309459
decision_type=6 6 6 4 4
left_child=1 2 -1 -3 -2
right_child=4 3 -4 -5 -6
leaf_value=0.0032525058177885636 -0.0046241948122537528 0.0044307091785952442 -0.0034300324632894801 0.00029500386968922722 -0.0011560405859746316
leaf_count=35 28 33 24 22 29
internal_value=0 0.155763 0.0184574 0.283222 -0.296902
internal_count=171 114 59 55 57
shrinkage=0.01


Tree=155
num_leaves=6
num_cat=0
split_feature=8 3 2 5 13
split_gain=3.1131 1.16006 3.13875 0.722582 0.722522
threshold=0.90219706296920787 0.88887831568717968 0.83778288960456859 0.95736044645309459 0.6223391890525819
decision_type=6 6 6 4 4
left_child=1 2 -1 -2 -3
right_child=3 4 -4 -5 -6
leaf_value=-0.0029604298992750334 0.0041328098014603923 -0.0051093065819884645 0.0041414529558745439 0.00078704904215657842 -0.00095594387737327148
leaf_count=38 31 26 22 32 22
internal_value=0 -0.154187 -0 0.252735 -0.326597
internal_count=171 108 60 63 48
shrinkage=0.01


Tree=156
num_leaves=5
num_cat=0
split_feature=9 0 6 6
split_gain=3.64955 1.09889 1.45956 1.07262
threshold=0.91712218523025524 0.68479526042938244 0.93062117695808422 0.95819866657257091
decision_type=6 6 6 4
left_child=1 2 -1 -2
right_child=3 -3 -4 -5
leaf_value=0.0029982416995000443 -0.0055768008676011843 0.0035723109782247503 -0.0012963689206369926 -0.0012256389585211813
leaf_count=32 21 40 42 36
internal_value=0 0.154649 0.0340749 -0.294402
internal_count=171 114 74 57
shrinkage=0.01


Tree=157
num_leaves=6
num_cat=0
split_feature=12 6 0 1 2
split_gain=3.51422 1.1797 0.671756 1.93288 0.101632
threshold=0.83338993787765514 0.95931413769721996 0.68363475799560558 0.84410876035690319 0.87953168153762828
decision_type=6 4 6 4 4
left_child=2 -2 3 -1 -4
right_child=1 -3 4 -5 -6
leaf_value=-0.0028236742673779683 0.0057180076973415992 0.0010983240060852557 -0.0039148915403255545 0.0021103007453312957 -0.0015672775092776849
leaf_count=40 21 33 24 32 21
internal_value=0 0.301268 -0.144928 -0.0414545 -0.290264
internal_count=171 54 117 72 45
shrinkage=0.01


Tree=158
num_leaves=5
num_cat=0
split_feature=9 0 7 6
split_gain=3.58747 1.08253 1.67925 1.05253
threshold=0.91712218523025524 0.68479526042938244 0.89834982156753551 0.95819866657257091
decision_type=6 6 6 4
left_child=1 2 -1 -2
right_child=3 -3 -4 -5
leaf_value=0.0028891810144125291 -0.0055285129271187726 0.0035479727967847215 -0.0016511737397962422 -0.0012146034747097995
leaf_count=36 21 40 38 36
internal_value=0 0.153451 0.0337198 -0.29188
internal_count=171 114 74 57
shrinkage=0.01


Tree=159
num_leaves=5
num_cat=0
split_feature=9 0 7 6
split_gain=3.58747 1.08253 1.67925 1.05253
threshold=0.91712218523025524 0.68479526042938244 0.89834982156753551 0.95819866657257091
decision_type=6 6 6 4
left_child=1 2 -1 -2
right_child=3 -3 -4 -5
leaf_value=-0.0028891810144125291 0.0055285129271187726 -0.0035479727967847215 0.0016511737397962422 0.0012146034747097995
leaf_count=36 21 40 38 36
internal_value=0 -0.153451 -0.0337198 0.29188
internal_count=171 114 74 57
shrinkage=0.01


Tree=160
num_leaves=5
num_cat=0
split_feature=7 2 0 5
split_gain=3.72486 0.898603 2.23796 0.656352
threshold=0.90534257888793956 0.90695247054100048 0.68363475799560558 0.92153629660606395
decision_type=6 6 6 6
left_child=3 2 -2 -1
right_child=1 -3 -4 -5
leaf_value=0.0014873046525477852 -0.003089218950138728 -0.0032325288010111516 0.0022197994379989016 0.0051200941122728754
leaf_count=40 34 41 32 24
internal_value=0 -0.157685 -0.0396314 0.301884
internal_count=171 107 66 64
shrinkage=0.01


Tree=161
num_leaves=6
num_cat=0
split_feature=7 5 4 4 5
split_gain=3.72486 0.845809 2.68343 2.49912 0.656352
threshold=0.90534257888793956 0.95086741447448742 0.9267784357070924 0.94796660542488109 0.92153629660606395
decision_type=6 6 6 6 6
left_child=4 2 -2 -3 -1
right_child=1 3 -4 -5 -6
leaf_value=-0.0014873046525477852 0 -0.0035088757178068329 0.0068484622253307042 0.0027340569243834568 -0.0051200941122728754
leaf_count=40 32 21 21 33 24
internal_value=0 0.157685 0.291421 0.0214502 -0.301884
internal_count=171 107 53 54 64
shrinkage=0.01


Tree=162
num_leaves=5
num_cat=0
split_feature=7 2 0 7
split_gain=3.65861 0.887614 2.21509 0.622511
threshold=0.90534257888793956 0.90695247054100048 0.68363475799560558 0.8875282108783723
decision_type=6 6 4 4
left_child=3 2 -2 -1
right_child=1 -3 -4 -5
leaf_value=0.0048001500325776311 -0.0030664920446030024 -0.0032069670130611921 0.002215007735551635 0.0013121352695686294
leaf_count=31 34 41 32 33
internal_value=0 -0.156132 -0.0387853 0.29965
internal_count=171 107 66 64
shrinkage=0.01


Tree=163
num_leaves=5
num_cat=0
split_feature=7 2 1 5
split_gain=3.65861 0.887614 2.04529 0.646763
threshold=0.90534257888793956 0.90695247054100048 0.88183405995368969 0.92153629660606395
decision_type=6 6 6 6
left_child=3 2 -2 -1
right_child=1 -3 -4 -5
leaf_value=-0.0014742850235441979 0.0025122561956265471 0.0032069670130611921 -0.0026850332629401227 -0.0050880045118458471
leaf_count=40 41 41 25 24
internal_value=0 0.156132 0.0387853 -0.29965
internal_count=171 107 66 64
shrinkage=0.01


Tree=164
num_leaves=5
num_cat=0
split_feature=7 2 0 5
split_gain=3.59343 0.870448 2.17886 0.645919
threshold=0.90534257888793956 0.90695247054100048 0.68363475799560558 0.92153629660606395
decision_type=6 6 6 6
left_child=3 2 -2 -1
right_child=1 -3 -4 -5
leaf_value=0.0014530506295940377 -0.0030380429913405638 -0.0031757565407534876 0.0021989735475261979 0.0050661961052678207
leaf_count=40 34 41 32 24
internal_value=0 -0.154553 -0.0382867 0.297485
internal_count=171 107 66 64
shrinkage=0.01


Tree=165
num_leaves=5
num_cat=0
split_feature=7 2 0 7
split_gain=3.59343 0.870448 2.17886 0.623498
threshold=0.90534257888793956 0.90695247054100048 0.68363475799560558 0.8875282108783723
decision_type=6 6 6 4
left_child=3 2 -2 -1
right_child=1 -3 -4 -5
leaf_value=-0.0047816263830345977 0.0030380429913405638 0.0031757565407534876 -0.0021989735475261979 -0.001290217470218078
leaf_count=31 34 41 32 33
internal_value=0 0.154553 0.0382867 -0.297485
internal_count=171 107 66 64
shrinkage=0.01


Tree=166
num_leaves=6
num_cat=0
split_feature=6 13 9 8 8
split_gain=3.41738 1.16144 0.633211 1.74458 0.422654
threshold=0.93062117695808422 0.59528058767318737 0.9204845428466798 0.93458509445190441 0.89153206348419201
decision_type=6 6 6 4 4
left_child=-1 -2 4 -4 -3
right_child=1 2 3 -5 -6
leaf_value=0.0037142174321908297 0.0011743709167649557 -0.0019899684273212599 -0.0054262938626579316 -0 0.0007272404021282403
leaf_count=46 32 23 28 21 21
internal_value=0 -0.117955 -0.199022 -0.311322 -0.0524905
internal_count=171 125 93 49 44
shrinkage=0.01


Tree=167
num_leaves=6
num_cat=0
split_feature=7 2 10 5 10
split_gain=3.52954 0.853534 1.59459 0.645083 0.0803068
threshold=0.90534257888793956 0.90695247054100048 0.92940267920494091 0.92153629660606395 0.91360375285148632
decision_type=6 6 6 6 6
left_child=3 2 4 -1 -2
right_child=1 -3 -4 -5 -6
leaf_value=-0.0014319741600648372 0.00087651401068095558 0.0031449052963577126 -0.002694171700318423 -0.005044576833288076 0.0028387949609281573
leaf_count=40 22 41 21 24 23
internal_value=0 0.153006 0.0377999 -0.295336 0.204921
internal_count=171 107 66 64 45
shrinkage=0.01


Tree=168
num_leaves=7
num_cat=0
split_feature=9 13 13 13 10 4
split_gain=4.06657 2.05721 1.3846 0.853756 1.67952 0.515836
threshold=0.90948438644409191 0.63459068536758434 0.77398300170898449 0.56787848472595226 0.88983213901519786 0.91419720649719249
decision_type=6 6 4 6 6 6
left_child=3 -2 -3 4 -1 -5
right_child=1 2 -4 5 -6 -7
leaf_value=0 0.00015461008553309443 -0.0069361420012741875 -0.0015947162214929489 -0.0012684520601102644 0.0058738773254443568 0.0017394829116265124
leaf_count=25 24 27 21 26 24 24
internal_value=0 -0.305166 -0.473672 0.15121 0.300831 0.0029501
internal_count=171 72 48 99 49 50
shrinkage=0.01


Tree=169
num_leaves=6
num_cat=0
split_feature=9 13 13 3 2
split_gain=4.06657 2.05721 1.3846 0.92305 1.08825
threshold=0.90948438644409191 0.63459068536758434 0.77398300170898449 0.88887831568717968 0.83277001976966869
decision_type=6 6 4 6 6
left_child=3 -2 -3 4 -1
right_child=1 2 -4 -5 -6
leaf_value=-0.002036883743657983 -0.00015461008553309443 0.0069361420012741875 0.0015947162214929489 -0.0032866651494158944 0.0021373099750890299
leaf_count=36 24 27 21 40 23
internal_value=0 0.305166 0.473672 -0.15121 -0.0153866
internal_count=171 72 48 99 59
shrinkage=0.01


Tree=170
num_leaves=6
num_cat=0
split_feature=13 1 4 13 13
split_gain=3.73818 2.25506 2.05912 1.8226 0.961398
threshold=0.56787848472595226 0.87632927298545849 0.9107797145843507 0.47709570825099951 0.73516198992729198
decision_type=6 6 6 6 4
left_child=3 2 -2 -1 -3
right_child=1 4 -4 -5 -6
leaf_value=-0.00030340420737196445 -0.0025143624483851242 -0.0054631955006093939 0.0036007430139880364 0.0049878494066487207 -0.0016071106143627221
leaf_count=24 24 34 24 34 31
internal_value=0 -0.202695 0.0346718 0.267407 -0.371702
internal_count=171 113 48 58 65
shrinkage=0.01


Tree=171
num_leaves=6
num_cat=0
split_feature=8 3 2 2 2
split_gain=3.68631 1.19193 2.52241 0.729144 0.626784
threshold=0.90219706296920787 0.88887831568717968 0.83778288960456859 0.87599405646324169 0.90613549947738659
decision_type=6 6 6 4 6
left_child=1 2 -1 -3 -2
right_child=4 3 -4 -5 -6
leaf_value=-0.0021926038375734416 0.0010612283067635965 -0.0049668119740501875 0.0040617729700660491 -0.00073415113407988971 0.0044323702178913869
leaf_count=41 24 24 22 22 38
internal_value=0 -0.118469 0.00841398 -0.30216 0.324462
internal_count=171 109 63 46 62
shrinkage=0.01


Tree=172
num_leaves=6
num_cat=0
split_feature=9 13 13 3 0
split_gain=3.9325 2.00285 1.35609 0.900813 1.73197
threshold=0.90948438644409191 0.63459068536758434 0.77398300170898449 0.88887831568717968 0.62785470485687267
decision_type=6 6 4 6 6
left_child=3 -2 -3 4 -1
right_child=1 2 -4 -5 -6
leaf_value=0.0024108533243828137 0.0001605978715462506 -0.006843338332186995 -0.0015527729498372837 0.0032480348679708566 -0.0029071048465003123
leaf_count=36 24 27 21 40 23
internal_value=0 -0.300044 -0.466468 0.149053 0.0147606
internal_count=171 72 48 99 59
shrinkage=0.01


Tree=173
num_leaves=5
num_cat=0
split_feature=9 3 1 2
split_gain=3.9325 0.900813 1.51181 0.714222
threshold=0.90948438644409191 0.88887831568717968 0.83624437451362621 0.90613549947738659
decision_type=6 6 6 6
left_child=1 2 -1 -2
right_child=3 -3 -4 -5
leaf_value=-0.0022612029443347214 0.0012098428290203255 -0.0032480348679708566 0.0027083742477450939 0.0043974637028890116
leaf_count=37 34 40 22 38
internal_value=0 -0.149053 -0.0147606 0.300044
internal_count=171 99 59 72
shrinkage=0.01


Tree=174
num_leaves=5
num_cat=0
split_feature=9 0 8 10
split_gain=3.85785 1.15091 0.608811 0.824983
threshold=0.90948438644409191 0.72320881485939037 0.86031663417816173 0.90543481707572948
decision_type=6 6 6 6
left_child=2 -2 -1 -4
right_child=1 -3 3 -5
leaf_value=-0 -0.00063443992007315166 -0.0045509565355435272 0.00072471318737830036 0.0045742998686819107
leaf_count=38 31 41 37 24
internal_value=0 -0.297213 0.147746 0.237612
internal_count=171 72 99 61
shrinkage=0.01


Tree=175
num_leaves=6
