tree
version=v2
num_class=2
num_tree_per_iteration=2
label_index=0
max_feature_idx=3
objective=multiclass num_class:2
feature_names=Column_0 Column_1 Column_2 Column_3
feature_infos=[0:1] [0:1] [1:17] [0:6]
tree_sizes=729 343 749 354 744 352 748 354 1044 354 1051 354 1054 355 1053 354 906 355 907 353 888 355 816 354 808 354 808 354 792 355 792 355 907 355 823 353 820 355 823 355 928 354 927 354 927 354 928 355 895 355 897 355 898 355 899 355 1114 433 1138 355 1109 432 1117 355 929 355 933 354 932 352 931 355 941 355 922 354 918 353 918 354 899 433 901 430 903 431 902 429 794 354 795 355 797 352 793 354 896 352 903 355 904 356 902 355 655 357 657 357 657 357 658 357 967 356 963 356 964 357 968 356 1085 357 1083 356 1084 355 1082 356 906 356 907 356 904 357 902 355 955 357 955 357 949 356 950 357 511 356 511 355 512 356 510 356 857 436 861 436 932 434 928 435 975 357 970 355 975 357 974 356 803 357 803 357 802 357 804 357 727 357 728 357 728 357 728 356 741 357 738 357 740 357 739 356 799 436 798 435 800 436 800 435 875 357 876 355 874 357 872 354 775 357 693 357 695 356 693 356 891 357 892 357 891 357 895 354 771 357 693 357 694 357 674 357 900 357 900 355 900 355 898 356 716 357 715 356 712 357 725 356 780 357 778 356 777 357 821 357 660 356 659 355 660 357 657 357 744 355 743 356 744 357 745 356 877 436 877 434 879 436 876 434 570 356 572 357 571 357 571 357 817 354 820 357 819 355 818 357 740 357 739 356 738 357 738 355 909 356 908 357 987 355 986 357 712 356 711 356 714 356 712 356 863 355 863 356 865 356 864 357 808 356 805 357 803 357 807 357 826 356 804 357 804 357 806 356 508 357 509 357 508 356 510 355 644 357 644 356 645 356 645 357 951 356 963 356 961 356 962 357 810 356 812 357 814 356 812 357 892 356 891 355 893 354 894 355 720 357 721 357 719 357 721 357 644 355 646 355 647 355 642 354 955 356 953 356 952 355 957 356 667 355 666 355 664 355 668 353 643 357 640 357 645 357 642 356 667 355 667 355 666 357 665 355 663 356 665 356 663 356 664 355 742 357 743 357 744 356 745 357 663 355 664 356 664 357 664 356 893 355 894 355 894 356 895 356 879 433 879 435 876 436 793 435 870 353 866 353 866 354 875 351 722 354 721 356 723 354 724 354 892 437 891 437 814 433 817 437 716 353 717 354 716 355 715 355 933 355 935 356 937 355 935 356 640 354 639 354 636 354 641 356 568 356 565 356 568 357 569 357 589 356 589 356 591 355 591 356 582 356 581 356 585 356 585 354 586 355 585 356 585 356 587 356 735 438 734 437 734 438 736 438 888 355 886 356 894 355 890 356 488 356 489 356 486 356 488 355 507 355 509 356 511 356 512 356 723 355 723 356 723 356 724 356 587 355 589 355 589 354 589 352 661 356 660 355 660 355 661 355 714 355 713 357 710 357 710 357 662 355 663 355 661 355 665 356 563 356 565 356 512 354 512 354 700 438 697 437 695 435 694 438 579 356 579 356 578 355 577 357 583 356 584 355 582 356 583 356 657 355 662 356 660 356 661 355 652 357 651 355 652 356 584 357 736 353 734 355 735 354 733 354 566 356 565 356 565 356 565 354 649 356 646 356 649 356 649 357 583 355 587 356 584 356 585 356 704 357 708 356 708 356 705 356 656 355 656 355 657 355 655 353 721 356 722 355 720 355 720 356 566 434 565 434 565 435 586 435 433 356 432 356 433 355 432 356 504 356 507 356 509 355 507 353 510 355 512 356 510 356 512 355 643 356 642 356 640 355 640 356 506 353 507 356 506 355 504 354 510 354 511 354 512 355 510 355 586 356 588 356 586 354 587 356 351 356 352 356 353 356 353 356 665 355 659 355 664 356 662 356 592 356 589 356 592 356 591 356 510 355 509 356 431 355 429 356 506 355 507 355 507 355 505 355 560 356 562 357 562 357 562 357 510 356 509 356 509 354 509 356 500 356 498 355 502 355 500 355 576 355 577 355 580 355 579 354 405 357 404 356 404 355 404 357 501 355 507 353 505 355 506 355 581 355 581 356 582 354 581 356 431 355 430 355 433 355 432 355 585 356 587 356 585 355 587 356 565 357 565 357 566 357 566 356 505 355 508 356 507 355 509 356 587 355 587 355 585 354 587 334 586 355 587 355 586 356 582 356 648 356 646 356 646 356 647 356 491 354 489 355 490 354 491 356 506 354 505 355 504 355 505 355 651 354 665 354 663 355 664 354 583 352 586 356 583 356 585 356 509 355 510 356 505 356 508 356 583 356 586 356 584 355 586 355 425 355 424 356 425 355 426 356 588 357 588 357 589 357 586 357 489 357 489 356 488 356 584 356 510 357 509 356 512 357 509 357 504 355 504 357 504 357 513 357 354 357 353 356 353 357 354 357 509 357 510 357 512 357 511 355 509 357 509 356 509 357 508 357 430 355 429 356 429 356 428 335 506 354 507 356 509 356 508 357 511 356 509 356 509 356 510 357 509 358 512 357 511 358 513 358 585 356 584 356 584 356 586 355 508 358 507 359 507 359 510 359 510 357 509 356 512 357 510 356 588 356 585 356 587 357 589 357 510 356 509 356 510 357 510 358 582 359 584 359 582 358 586 359 583 356 582 356 584 356 582 356 510 356 510 357 509 355 509 353 506 357 507 356 506 357 506 357 431 359 431 358 431 358 431 358 507 359 506 359 505 359 504 358 512 357 509 357 511 356 511 355 566 355 566 355 565 356 565 357 580 357 580 356 579 357 582 357 585 357 585 358 585 357 585 357 638 357 634 355 636 356 636 357 577 356 578 356 576 356 572 356 513 357 511 357 513 354 510 356 435 356 435 356 433 354 434 354 582 356 582 357 582 356 581 357 656 359 661 359 660 357 662 359 503 356 502 356 504 357 504 357 510 356 510 356 510 357 509 354 511 356 509 353 510 354 511 356 586 355 585 356 586 356 587 357 505 359 505 359 506 359 507 359 507 359 508 358 509 359 504 357 509 357 510 355 505 357 507 357 509 358 506 359 509 359 509 359 509 355 509 355 509 356 510 357 427 357 428 354 427 356 427 355 512 357 509 357 509 357 513 356 509 355 510 357 509 356 507 356 433 356 433 357 434 356 434 357 512 357 510 356 513 356 513 357 502 357 502 355 502 357 504 357 349 357 350 356 350 357 349 357 507 357 509 357 507 356 508 355 584 354 586 356 509 352 588 355 510 357 513 357 510 357 512 356 429 357 430 357 430 357 429 357 483 357 482 355 483 357 483 357 429 355 430 356 428 355 429 355 559 354 560 355 558 356 560 355 507 359 507 359 508 356 507 358 507 357 507 356 506 357 506 357 507 355 508 357 509 356 509 356 567 359 566 359 565 357 565 359 505 359 504 359 503 359 507 359 565 357 566 357 567 357 566 355 502 356 503 356 501 335 501 336 510 356 512 357 511 356 510 357 432 359 432 358 433 358 433 358 405 357 406 358 405 359 405 358 409 358 407 359 410 358 411 359 505 336 510 336 505 336 509 336 430 359 430 359 430 359 430 358 509 359 511 358 509 359 509 358 493 358 492 358 492 358 494 358 434 337 436 338 436 338 435 338 484 358 484 358 484 358 485 357 425 357 427 356 427 357 426 357 496 359 493 359 497 354 496 356 433 358 433 358 433 359 434 359 502 358 499 359 501 359 502 359 574 358 579 359 578 358 578 359 510 357 507 359 507 359 510 357 429 358 428 357 427 358 425 357 427 357 425 358 427 358 427 358 498 358 501 358 497 358 502 358 499 359 501 359 502 359 502 358 510 358 512 359 509 357 510 359 509 338 511 338 510 338 511 337 435 359 434 359 435 359 434 359 497 357 496 358 495 358 497 358 568 357 571 359 590 359 583 359 508 337 508 337 508 336 510 337 587 359 508 359 508 359 507 359 409 357 413 359 412 358 412 358 481 276 482 275 483 276 483 276 427 358 428 358 428 357 426 358 427 358 429 359 429 359 428 359 566 359 564 359 566 358 565 358 510 357 508 358 510 358 508 357 463 359 460 359 463 359 462 359 585 276 584 274 586 277 585 277 434 332 432 334 434 334 434 335 429 358 429 357 428 357 427 357 581 360 559 359 582 360 560 358 510 335 509 335 507 334 507 335 486 359 487 356 486 360 486 360 501 359 502 358 502 357 501 359 501 359 501 359 501 358 502 356 502 357 426 359 496 359 427 357 502 359 501 359 501 359 482 357 486 357 484 359 485 358 486 359 425 358 425 359 426 358 425 359 425 337 425 338 424 338 425 338 406 359 404 359 404 359 406 358 592 359 593 359 589 357 593 359 506 361 505 360 504 361 507 361 584 276 585 277 509 277 508 277 481 353 481 353 482 353 482 363 511 358 511 358 512 359 511 359 560 358 560 359 560 359 563 356 491 357 492 358 492 359 493 358 512 358 512 359 513 359 515 358 432 277 435 276 435 277 434 276 492 356 491 357 491 356 492 355 559 360 557 360 558 360 558 358 427 358 426 357 427 357 426 359 421 356 423 357 421 356 422 356 431 357 430 358 431 358 431 359 500 358 499 359 500 358 501 359 487 359 487 358 488 359 488 354 485 335 483 337 484 337 484 338 421 340 422 340 420 339 421 340 504 359 504 359 504 358 502 359 585 358 582 360 584 360 583 360 505 361 502 359 502 359 504 358 483 359 481 358 484 360 482 360 501 339 503 339 502 338 501 338 431 339 433 341 434 341 431 340 509 359 508 360 510 360 506 359 559 358 561 359 561 358 559 359 502 358 503 360 505 360 506 360 488 359 487 359 488 358 488 359 501 361 502 359 500 358 498 359 425 356 428 357 428 358 428 358 505 359 507 360 507 359 504 360 502 360 503 360 504 359 504 360 514 339 513 340 514 340 504 338 506 360 430 360 431 359 508 358 488 360 486 361 487 361 487 360 507 339 507 340 509 340 509 340 407 359 408 359 408 359 408 359 485 357 487 359 488 357 487 359 419 358 420 359 419 359 421 360 504 360 504 359 503 360 503 357 428 358 427 359 428 361 428 361 500 359 498 359 499 357 499 359 503 337 504 336 504 336 503 337 506 362 507 362 507 362 505 361 424 360 424 360 424 360 424 360 503 362 500 362 502 361 501 360 505 360 509 361 508 359 508 361 422 339 422 336 422 339 421 338 494 340 495 341 496 341 495 341 516 360 515 359 515 359 514 359 432 359 433 360 435 360 435 359 429 360 431 360 431 360 432 360 421 361 420 361 422 358 421 361 410 360 410 360 408 357 409 360 430 362 429 363 431 363 429 363 510 360 511 361 509 362 510 361 434 354 515 354 434 354 513 353 434 360 431 361 431 361 433 359 510 351 508 351 509 352 506 352 505 360 504 360 507 361 504 361 512 361 510 362 510 362 513 362 501 360 502 359 502 360 501 359 418 360 419 361 418 361 418 361 432 358 433 360 432 359 431 359 557 360 559 360 557 360 556 359 484 277 485 277 485 278 485 276 501 359 502 360 501 360 502 358 588 358 587 359 590 358 589 359 515 342 517 342 514 342 516 342

Tree=0
num_leaves=8
num_cat=0
split_feature=2 3 3 2 2 2 2
split_gain=0.438633 0.352601 0.342805 0.129437 0.141295 0.0815731 0.00370647
threshold=15.500000000000002 3.5000000000000004 2.5000000000000004 13.500000000000002 10.500000000000002 2.5000000000000004 1.5000000000000002
decision_type=6 6 4 6 6 6 6
left_child=1 2 3 4 5 6 -1
right_child=-2 -3 -4 -5 -6 -7 -8
leaf_value=-0.37585211284877051 -0.37443999473496375 -0.37444821714878779 -0.37673376826344956 -0.3747135637099841 -0.37644708660023701 -0.37518162497541019 -0.37577589143869006
leaf_count=1703 53 41 102 24 85 47 299
internal_value=0 0.00367951 0.000819987 0.00521071 0.0036146 0.00645001 0.00459816
internal_count=2354 2301 2260 2158 2134 2049 2002
shrinkage=1


Tree=1
num_leaves=3
num_cat=0
split_feature=1 0
split_gain=1014.42 12.5052
threshold=1.0000000180025095e-35 1.0000000180025095e-35
decision_type=2 2
left_child=1 -1
right_child=-2 -3
leaf_value=-1.1677823735178026 -1.145792392262428 -1.1629169848241687
leaf_count=1478 737 139
internal_value=0 -0.683056
internal_count=2354 1617
shrinkage=1


Tree=2
num_leaves=8
num_cat=0
split_feature=2 3 3 2 2 2 2
split_gain=0.430168 0.355415 0.339635 0.130204 0.135014 0.0805646 0.00426742
threshold=15.500000000000002 3.5000000000000004 2.5000000000000004 13.500000000000002 10.500000000000002 2.5000000000000004 1.5000000000000002
decision_type=6 6 4 6 6 6 6
left_child=1 2 3 4 5 6 -1
right_child=-2 -3 -4 -5 -6 -7 -8
leaf_value=2.9629524592539554e-05 0.0014301585273328898 0.0014399882926833698 -0.00084682340804381057 0.0011721126290281066 -0.00055044751496029871 0.00069654259833242514 0.00010877980183687493
leaf_count=1703 53 41 102 24 85 47 299
internal_value=0 0.00365443 0.000784218 0.00515687 0.00355701 0.00633681 0.00449465
internal_count=2354 2301 2260 2158 2134 2049 2002
shrinkage=0.01


Tree=3
num_leaves=3
num_cat=0
split_feature=1 0
split_gain=1001.41 12.4637
threshold=1.0000000180025095e-35 1.0000000180025095e-35
decision_type=2 2
left_child=1 -1
right_child=-2 -3
leaf_value=-0.0072274348960379934 0.014592627768534596 -0.0023671630255334211
leaf_count=1478 737 139
internal_value=0 -0.681372
internal_count=2354 1617
shrinkage=0.01


Tree=4
num_leaves=8
num_cat=0
split_feature=2 3 3 2 2 2 2
split_gain=0.42185 0.358209 0.336505 0.130962 0.12894 0.0795715 0.0048413
threshold=15.500000000000002 3.5000000000000004 2.5000000000000004 13.500000000000002 10.500000000000002 2.5000000000000004 1.5000000000000002
decision_type=6 6 4 6 6 6 6
left_child=1 2 3 4 5 6 -1
right_child=-2 -3 -4 -5 -6 -7 -8
leaf_value=2.8168686893119636e-05 0.0014171902606119246 0.0014449573019647347 -0.00084314084162741471 0.0011745496399788921 -0.00053718980114293854 0.00069154845803385786 0.00011022041048298442
leaf_count=1703 53 41 102 24 85 47 299
internal_value=0 0.00362965 0.000748798 0.00510364 0.00350003 0.0062248 0.0043922
internal_count=2354 2301 2260 2158 2134 2049 2002
shrinkage=0.01


Tree=5
num_leaves=3
num_cat=0
split_feature=1 0
split_gain=988.68 12.423
threshold=1.0000000180025095e-35 1.0000000180025095e-35
decision_type=2 2
left_child=1 -1
right_child=-2 -3
leaf_value=-0.0072109465402889032 0.014443101456675224 -0.0023556842552276834
leaf_count=1478 737 139
internal_value=0 -0.679702
internal_count=2354 1617
shrinkage=0.01


Tree=6
num_leaves=8
num_cat=0
split_feature=2 3 3 2 2 2 2
split_gain=0.413676 0.360984 0.333414 0.131713 0.123066 0.0785942 0.00542775
threshold=15.500000000000002 3.5000000000000004 2.5000000000000004 13.500000000000002 10.500000000000002 2.5000000000000004 1.5000000000000002
decision_type=6 6 4 6 6 6 6
left_child=1 2 3 4 5 6 -1
right_child=-2 -3 -4 -5 -6 -7 -8
leaf_value=2.6721080647191596e-05 0.0014043166290202125 0.0014499083539596463 -0.0008395015022381367 0.0011769662859895608 -0.00052409269744365847 0.00068661060556907279 0.00011164769532064921
leaf_count=1703 53 41 102 24 85 47 299
internal_value=0 0.00360509 0.000713656 0.00505094 0.00344358 0.00611389 0.00429069
internal_count=2354 2301 2260 2158 2134 2049 2002
shrinkage=0.01


Tree=7
num_leaves=3
num_cat=0
split_feature=1 0
split_gain=976.229 12.3828
threshold=1.0000000180025095e-35 1.0000000180025095e-35
decision_type=2 2
left_child=1 -1
right_child=-2 -3
leaf_value=-0.0071946141118541772 0.014297186630874134 -0.0023442567850425603
leaf_count=1478 737 139
internal_value=0 -0.678047
internal_count=2354 1617
shrinkage=0.01


Tree=8
num_leaves=12
num_cat=0
split_feature=3 2 2 3 3 2 2 2 2 2 2
split_gain=0.887333 0.341843 0.710237 0.315791 0.219915 0.247459 0.925254 0.182958 0.0525109 0.0923289 0.00604013
threshold=1.5000000000000002 14.500000000000002 12.500000000000002 3.5000000000000004 2.5000000000000004 3.5000000000000004 12.500000000000002 1.5000000000000002 1.5000000000000002 7.0000000000000009 11.500000000000002
decision_type=4 6 6 6 6 6 6 6 6 6 6
left_child=1 2 8 4 5 7 -7 -2 -1 -10 -11
right_child=3 -3 -4 -5 -6 6 -8 -9 9 10 -12
leaf_value=-3.9888487563746131e-06 0.0012591764938237346 0.0014395320843825217 -0.0018763394185974649 0.0019204398141860653 -0.00026881549369247069 0.0040120153090718218 0.00029508374459501522 0.00029038302356059717 0.0010415755292848359 0.00016078516860973665 -0.00015992274751534894
leaf_count=1634 63 37 47 49 54 24 58 303 31 27 27
internal_value=0 -0.000136564 -0.00357256 0.0693789 0.0559321 0.0675282 0.147657 0.0476693 0.00110762 0.038104 0
internal_count=2354 1803 1766 551 502 448 82 366 1719 85 54
shrinkage=0.01


Tree=9
num_leaves=3
num_cat=0
split_feature=1 0
split_gain=953.276 9.11848
threshold=1.0000000180025095e-35 1.0000000180025095e-35
decision_type=2 2
left_child=1 -1
right_child=-2 -3
leaf_value=-0.0071941167907493145 0.013972065830500624 -0.0031313147153015832
leaf_count=1467 738 149
internal_value=0 -0.682207
internal_count=2354 1616
shrinkage=0.01


Tree=10
num_leaves=12
num_cat=0
split_feature=3 2 2 3 3 2 2 2 2 2 2
split_gain=0.885447 0.341831 0.690087 0.316597 0.213541 0.237144 0.918141 0.17856 0.0532177 0.0904667 0.00581709
threshold=1.5000000000000002 14.500000000000002 12.500000000000002 3.5000000000000004 2.5000000000000004 3.5000000000000004 12.500000000000002 1.5000000000000002 1.5000000000000002 11.500000000000002 3.5000000000000004
decision_type=4 6 6 6 6 6 6 6 6 6 4
left_child=1 2 8 4 5 7 -7 -2 -1 10 -10
right_child=3 -3 -4 -5 -6 6 -8 -9 9 -11 -12
leaf_value=-6.0800149235983706e-06 0.0012509512034815538 0.001438251648041019 -0.0018497122828811255 0.0019199554678301215 -0.00025621343902312583 0.0039874563961748155 0.0002814815067788733 0.00029197286475808446 0.001147270056550769 -0.00015234817789818646 0.00026314150084742391
leaf_count=1634 63 37 47 49 54 24 58 303 24 27 34
internal_value=0 -0.000262258 -0.00369849 0.0691932 0.0557319 0.0671629 0.145855 0.0476488 0.000914056 0.0382021 0.0751045
internal_count=2354 1803 1766 551 502 448 82 366 1719 85 58
shrinkage=0.01


Tree=11
num_leaves=3
num_cat=0
split_feature=1 0
split_gain=941.599 9.0958
threshold=1.0000000180025095e-35 1.0000000180025095e-35
decision_type=2 2
left_child=1 -1
right_child=-2 -3
leaf_value=-0.0071779040749951253 0.013836250944636476 -0.0031170259454075563
leaf_count=1467 738 149
internal_value=0 -0.680557
internal_count=2354 1616
shrinkage=0.01


Tree=12
num_leaves=12
num_cat=0
split_feature=3 2 2 3 3 2 2 2 2 2 2
split_gain=0.883583 0.341815 0.670441 0.317395 0.207338 0.227098 0.911102 0.174248 0.0539255 0.0891874 0.00477887
threshold=1.5000000000000002 14.500000000000002 12.500000000000002 3.5000000000000004 2.5000000000000004 3.5000000000000004 12.500000000000002 1.5000000000000002 1.5000000000000002 11.500000000000002 7.0000000000000009
decision_type=4 6 6 6 6 6 6 6 6 6 4
left_child=1 2 8 4 5 7 -7 -2 -1 10 -10
right_child=3 -3 -4 -5 -6 6 -8 -9 9 -11 -12
leaf_value=-8.1514454396837214e-06 0.0012428200673984572 0.0014369920926538299 -0.0018234566181207731 0.0019195235575432698 -0.00024375795919950982 0.0039630998524179195 0.00026799280924995854 0.00029355415563224322 0.0010294448464093873 -0.00014485231829920094 0.00016717160098560159
leaf_count=1634 63 37 47 49 54 24 58 303 31 27 27
internal_value=0 -0.000386637 -0.00382319 0.0690109 0.055535 0.0668024 0.144067 0.0476296 0.000722382 0.0383005 0.0749187
internal_count=2354 1803 1766 551 502 448 82 366 1719 85 58
shrinkage=0.01


Tree=13
num_leaves=3
num_cat=0
split_feature=1 0
split_gain=930.162 9.07344
threshold=1.0000000180025095e-35 1.0000000180025095e-35
decision_type=2 2
left_child=1 -1
right_child=-2 -3
leaf_value=-0.0071618462016712937 0.013703550998938645 -0.0031028376392859859
leaf_count=1467 738 149
internal_value=0 -0.678921
internal_count=2354 1616
shrinkage=0.01


Tree=14
num_leaves=12
num_cat=0
split_feature=3 2 2 3 3 2 2 2 2 2 2
split_gain=0.881739 0.341794 0.651289 0.318184 0.201301 0.217318 0.904135 0.170019 0.0546322 0.0879344 0.00385153
threshold=1.5000000000000002 14.500000000000002 12.500000000000002 3.5000000000000004 2.5000000000000004 3.5000000000000004 12.500000000000002 1.5000000000000002 1.5000000000000002 11.500000000000002 7.0000000000000009
decision_type=4 6 6 6 6 6 6 6 6 6 6
left_child=1 2 8 4 5 7 -7 -2 -1 10 -10
right_child=3 -3 -4 -5 -6 6 -8 -9 9 -11 -12
leaf_value=-1.0202103459684459e-05 0.0012347819682814506 0.001435753777729147 -0.0017975649070858981 0.0019191431541085364 -0.00023144744011553697 0.0039389410265780597 0.00025461712720962766 0.00029512777840307649 0.0010232872774259486 -0.00013743361455813375 0.00017056703359718614
leaf_count=1634 63 37 47 49 54 24 58 303 31 27 27
internal_value=0 -0.000509632 -0.00394659 0.068832 0.0553412 0.0664468 0.142291 0.0476119 0.000532663 0.0383986 0.0747358
internal_count=2354 1803 1766 551 502 448 82 366 1719 85 58
shrinkage=0.01


Tree=15
num_leaves=3
num_cat=0
split_feature=1 0
split_gain=918.957 9.05161
threshold=1.0000000180025095e-35 1.0000000180025095e-35
decision_type=2 2
left_child=1 -1
right_child=-2 -3
leaf_value=-0.0071459447793442554 0.013573856748739691 -0.003088692429928418
leaf_count=1467 738 149
internal_value=0 -0.677299
internal_count=2354 1616
shrinkage=0.01


Tree=16
num_leaves=10
num_cat=0
split_feature=2 3 2 3 2 2 3 2 2
split_gain=0.961106 0.164574 0.140443 0.0631875 0.196899 0.126049 0.0251734 0.0143659 0.0132297
threshold=9.5000000000000018 1.0000000180025095e-35 16.500000000000004 1.5000000000000002 3.5000000000000004 2.5000000000000004 2.5000000000000004 1.5000000000000002 2.5000000000000004
decision_type=6 6 6 6 6 6 4 6 6
left_child=1 -1 6 8 5 7 -2 -5 -3
right_child=2 3 -4 4 -6 -7 -8 -9 -10
leaf_value=0.0012164391353212606 -0.001142588705340496 -8.2802025784184369e-05 -0.00027491271420815701 -2.4243460664703704e-05 -0.0009118810806660059 0.0010500516939426438 -0.0022582492831784455 0.00016715310998749219 0.00020737552808994586
leaf_count=25 124 1662 55 46 36 42 24 316 24
internal_value=0 -0.00116264 -0.11111 -0.00292626 0.0127473 0.0237442 -0.137063 0.0123509 -0.0074495
internal_count=2354 2151 203 2126 440 404 148 362 1686
shrinkage=0.01


Tree=17
num_leaves=3
num_cat=0
split_feature=1 0
split_gain=920.884 11.9963
threshold=1.0000000180025095e-35 1.0000000180025095e-35
decision_type=2 2
left_child=1 -1
right_child=-2 -3
leaf_value=-0.0071135029933764461 0.013517147953135404 -0.0024785758197777173
leaf_count=1444 760 150
internal_value=0 -0.667723
internal_count=2354 1594
shrinkage=0.01


Tree=18
num_leaves=10
num_cat=0
split_feature=2 3 2 3 2 2 3 2 2
split_gain=0.940562 0.157181 0.133813 0.0679493 0.194908 0.123288 0.0314292 0.0139822 0.013506
threshold=9.5000000000000018 1.0000000180025095e-35 16.500000000000004 1.5000000000000002 3.5000000000000004 2.5000000000000004 2.5000000000000004 1.5000000000000002 2.5000000000000004
decision_type=6 6 6 6 6 6 4 6 6
left_child=1 -1 6 8 5 7 -2 -5 -3
right_child=2 3 -4 4 -6 -7 -8 -9 -10
leaf_value=0.0011899816910956452 -0.0011208585301834481 -8.3945280249261945e-05 -0.00027686971410264871 -6.4961436902909002e-06 -0.0008981898786109329 0.0010492070119576462 -0.0022628719889033681 0.00017250878936613957 0.00020977161329130235
leaf_count=25 124 1662 55 46 36 42 24 316 24
internal_value=0 -0.00114255 -0.109883 -0.00287233 0.013413 0.0243517 -0.135283 0.0130442 -0.00755843
internal_count=2354 2151 203 2126 440 404 148 362 1686
shrinkage=0.01


Tree=19
num_leaves=3
num_cat=0
split_feature=1 0
split_gain=909.793 11.9435
threshold=1.0000000180025095e-35 1.0000000180025095e-35
decision_type=2 2
left_child=1 -1
right_child=-2 -3
leaf_value=-0.0070982465596972086 0.01339029645982252 -0.0024712949854576805
leaf_count=1444 760 150
internal_value=0 -0.66619
internal_count=2354 1594
shrinkage=0.01


Tree=20
num_leaves=10
num_cat=0
split_feature=2 3 2 3 2 2 3 2 2
split_gain=0.920448 0.150011 0.127393 0.0728406 0.192954 0.120575 0.0377144 0.0137823 0.0136311
threshold=9.5000000000000018 1.0000000180025095e-35 16.500000000000004 1.5000000000000002 3.5000000000000004 2.5000000000000004 2.5000000000000004 2.5000000000000004 1.5000000000000002
decision_type=6 6 6 6 6 6 4 6 6
left_child=1 -1 6 7 5 8 -2 -3 -5
right_child=2 3 -4 4 -6 -7 -8 -9 -10
leaf_value=0.0011636619236557223 -0.0010994188739322178 -8.5083501161396154e-05 -0.00027881796091895064 -0 -0.0008846710845315357 0.0010483876909562499 -0.0022674181577346411 0.00021213973984524973 0.00017781110348077383
leaf_count=25 124 1662 55 46 36 42 24 24 316
internal_value=0 -0.00112304 -0.108672 -0.00281933 0.0140718 0.0249532 -0.133526 -0.00766688 0.0137304
internal_count=2354 2151 203 2126 440 404 148 1686 362
shrinkage=0.01


Tree=21
num_leaves=3
num_cat=0
split_feature=1 0
split_gain=898.925 11.8915
threshold=1.0000000180025095e-35 1.0000000180025095e-35
decision_type=2 2
left_child=1 -1
right_child=-2 -3
leaf_value=-0.0070831276979573523 0.013266285747408679 -0.0024640280483425453
leaf_count=1444 760 150
internal_value=0 -0.664669
internal_count=2354 1594
shrinkage=0.01


Tree=22
num_leaves=9
num_cat=0
split_feature=2 2 3 2 2 3 2 3
split_gain=0.900759 0.144236 0.191614 0.121174 0.0446351 0.205708 0.127683 0.0440258
threshold=9.5000000000000018 1.5000000000000002 4.5000000000000009 16.500000000000004 3.5000000000000004 1.5000000000000002 2.5000000000000004 2.5000000000000004
decision_type=6 6 4 6 6 6 6 4
left_child=1 -1 4 7 5 -3 -7 -2
right_child=3 2 -4 -5 -6 6 -8 -9
leaf_value=-7.881967346600431e-05 -0.0010782635228058785 -0.00095892810736860419 0.0015262839601842201 -0.00028075729442897938 -0.00027691317003213773 0.00018306172153053894 0.001168657303784856 -0.002271888512724841
leaf_count=1698 124 30 26 55 42 316 39 24
internal_value=0 -0.00110395 0.0226551 -0.107475 0.0131291 0.0193952 0.0311458 -0.131793
internal_count=2354 2151 453 203 427 385 355 148
shrinkage=0.01


Tree=23
num_leaves=3
num_cat=0
split_feature=1 0
split_gain=888.274 11.8403
threshold=1.0000000180025095e-35 1.0000000180025095e-35
decision_type=2 2
left_child=1 -1
right_child=-2 -3
leaf_value=-0.0070681448343830134 0.013145017307633167 -0.0024567751815792794
leaf_count=1444 760 150
internal_value=0 -0.66316
internal_count=2354 1594
shrinkage=0.01


Tree=24
num_leaves=9
num_cat=0
split_feature=2 2 2 3 2 2 3 3
split_gain=0.682788 0.741472 0.545596 0.414433 0.136709 0.0689829 0.150238 0.00654263
threshold=15.500000000000002 10.500000000000002 13.500000000000002 2.5000000000000004 1.5000000000000002 2.5000000000000004 1.5000000000000002 1.5000000000000002
decision_type=6 6 6 6 6 6 4 6
left_child=1 3 -3 4 7 -6 -7 -1
right_child=-2 2 -4 -5 5 6 -8 -9
leaf_value=8.9247793118462176e-05 0.001787542995225372 -0.0015750365640198165 0.00058890217267476639 0.0011717061059507974 0.00052219733906502558 0.00075341301728347227 -0.00084623158086309267 0.00033208344476678411
leaf_count=1643 62 94 32 102 317 26 28 50
internal_value=0 0.0146292 -0.0973918 0.0215672 0.0164436 0.0435655 -0 0.01007
internal_count=2354 2292 126 2166 2064 371 54 1693
shrinkage=0.01


Tree=25
num_leaves=3
num_cat=0
split_feature=1 0
split_gain=861.284 8.42125
threshold=1.0000000180025095e-35 1.0000000180025095e-35
decision_type=2 2
left_child=1 -1
right_child=-2 -3
leaf_value=-0.0070703060210355242 0.012897190314568365 -0.003092283877606147
leaf_count=1472 737 145
internal_value=0 -0.671172
internal_count=2354 1617
shrinkage=0.01


Tree=26
num_leaves=9
num_cat=0
split_feature=2 2 2 3 2 2 3 3
split_gain=0.667771 0.721303 0.535437 0.421271 0.138304 0.0687303 0.14928 0.00844886
threshold=15.500000000000002 10.500000000000002 13.500000000000002 2.5000000000000004 1.5000000000000002 2.5000000000000004 1.5000000000000002 1.5000000000000002
decision_type=6 6 6 6 6 6 4 6
left_child=1 3 -3 4 7 -6 -7 -1
right_child=-2 2 -4 -5 5 6 -8 -9
leaf_value=8.5970971417081898e-05 0.001769726594109114 -0.0015545860210714696 0.00058855767999074283 0.00117724138964534 0.00052106126543006396 0.00075084532318869714 -0.00084393537208538396 0.00034514434570883068
leaf_count=1643 62 94 32 102 317 26 28 50
internal_value=0 0.0145101 -0.0959226 0.0213627 0.0161986 0.0434635 -0 0.00979255
internal_count=2354 2292 126 2166 2064 371 54 1693
shrinkage=0.01


Tree=27
num_leaves=3
num_cat=0
split_feature=1 0
split_gain=851.44 8.40179
threshold=1.0000000180025095e-35 1.0000000180025095e-35
decision_type=2 2
left_child=1 -1
right_child=-2 -3
leaf_value=-0.0070551601205579764 0.012784934396202452 -0.0030787047283250993
leaf_count=1472 737 145
internal_value=0 -0.669621
internal_count=2354 1617
shrinkage=0.01


Tree=28
num_leaves=9
num_cat=0
split_feature=2 2 2 3 2 2 3 2
split_gain=0.653025 0.701605 0.525484 0.428095 0.139891 0.0684804 0.0104482 3.44242e-07
threshold=15.500000000000002 10.500000000000002 13.500000000000002 2.5000000000000004 1.5000000000000002 2.5000000000000004 1.5000000000000002 5.5000000000000009
decision_type=6 6 6 6 6 6 6 4
left_child=1 3 -3 4 6 -6 -1 -7
right_child=-2 2 -4 -5 5 7 -8 -9
leaf_value=8.2725744454545689e-05 0.0017520288635999534 -0.0015343950647103335 0.00058822256457961462 0.001182753096010752 0.00051994897451935064 -1.6902903360700183e-06 0.00035807849607972397 0
leaf_count=1643 62 94 32 102 317 28 50 26
internal_value=0 0.0143926 -0.0944701 0.0211607 0.0159562 0.0433635 0.00951789 -0
internal_count=2354 2292 126 2166 2064 371 1693 54
shrinkage=0.01


Tree=29
num_leaves=3
num_cat=0
split_feature=1 0
split_gain=841.779 8.38272
threshold=1.0000000180025095e-35 1.0000000180025095e-35
decision_type=2 2
left_child=1 -1
right_child=-2 -3
leaf_value=-0.0070401579987952115 0.012675009514302017 -0.0030651902806679778
leaf_count=1472 737 145
internal_value=0 -0.668083
internal_count=2354 1617
shrinkage=0.01


Tree=30
num_leaves=9
num_cat=0
split_feature=2 2 2 3 2 2 3 2
split_gain=0.638555 0.682355 0.51573 0.434913 0.141426 0.0683049 0.0125376 1.16597e-06
threshold=15.500000000000002 10.500000000000002 13.500000000000002 2.5000000000000004 1.5000000000000002 2.5000000000000004 1.5000000000000002 5.5000000000000009
decision_type=6 6 6 6 6 6 6 4
left_child=1 3 -3 4 6 -6 -1 -7
right_child=-2 2 -4 -5 5 7 -8 -9
leaf_value=7.9511332332859059e-05 0.0017344486411907431 -0.0015144589857063199 0.00058789634457360204 0.0011882419874752314 0.00051885924961775885 -3.1117610121131475e-06 0.00037088750273390288 0
leaf_count=1643 62 94 32 102 317 28 50 26
internal_value=0 0.0142758 -0.0930341 0.0209601 0.0157154 0.0432603 0.00924594 -0
internal_count=2354 2292 126 2166 2064 371 1693 54
shrinkage=0.01


Tree=31
num_leaves=3
num_cat=0
split_feature=1 0
split_gain=832.295 8.36408
threshold=1.0000000180025095e-35 1.0000000180025095e-35
decision_type=2 2
left_child=1 -1
right_child=-2 -3
leaf_value=-0.0070252947573020445 0.012567351699975096 -0.0030517169512573918
leaf_count=1472 737 145
internal_value=0 -0.666557
internal_count=2354 1617
shrinkage=0.01


Tree=32
num_leaves=10
num_cat=0
split_feature=3 3 3 2 2 2 3 2 2
split_gain=1.04905 0.281376 0.228079 0.0586088 0.161515 0.161329 0.0665676 0.387042 0.00117647
threshold=3.5000000000000004 1.5000000000000002 2.5000000000000004 4.5000000000000009 1.5000000000000002 10.500000000000002 1.0000000180025095e-35 13.500000000000002 1.5000000000000002
decision_type=6 6 6 6 6 6 6 6 6
left_child=1 3 8 4 -1 -5 -7 -8 -3
right_child=-2 2 -4 5 -6 6 7 -9 -10
leaf_value=-0.00020017572276759813 0.0022779920398343302 5.5702222885488267e-05 -0.00063752567201842681 0.0011189302852475695 -0.0012195668633219266 -0.00061830478506543721 -0.00051002614304418382 0.001238522462186423 0.00042237793097527824
leaf_count=1657 43 48 53 28 40 48 89 43 305
internal_value=0 -0.0118255 0.0238181 -0.0198376 -0.0228609 0.00133579 -0.0119266 0.000517831 0.0391887
internal_count=2354 2311 406 1905 1697 208 180 132 353
shrinkage=0.01


Tree=33
num_leaves=3
num_cat=0
split_feature=1 0
split_gain=843.483 10.8944
threshold=1.0000000180025095e-35 1.0000000180025095e-35
decision_type=2 2
left_child=1 -1
right_child=-2 -3
leaf_value=-0.0070104840622911913 0.012614220419774145 -0.0024546830917147469
leaf_count=1454 758 142
internal_value=0 -0.659986
internal_count=2354 1596
shrinkage=0.01


Tree=34
num_leaves=9
num_cat=0
split_feature=3 3 3 2 2 2 3 2
split_gain=1.04552 0.287131 0.22113 0.0592271 0.158571 0.157851 0.0701745 0.383678
threshold=3.5000000000000004 1.5000000000000002 2.5000000000000004 4.5000000000000009 10.500000000000002 1.5000000000000002 1.0000000180025095e-35 13.500000000000002
decision_type=6 6 6 6 6 6 6 6
left_child=1 3 -3 5 -5 -1 -6 -8
right_child=-2 2 -4 4 6 -7 7 -9
leaf_value=-0.00020059578306669485 0.0022760429632140635 0.00039435344318067023 -0.0006172130623247604 0.0011113861561891938 -0.0006303258738821273 -0.0012092601332014308 -0.00049894581676900734 0.0012409033791910961
leaf_count=1657 43 353 53 28 48 40 89 43
internal_value=0 -0.0117403 0.0242876 -0.0198371 0.00148127 -0.0228794 -0.0116272 0.00133015
internal_count=2354 2311 406 1905 208 1697 180 132
shrinkage=0.01


Tree=35
num_leaves=3
num_cat=0
split_feature=1 0
split_gain=833.945 10.8634
threshold=1.0000000180025095e-35 1.0000000180025095e-35
decision_type=2 2
left_child=1 -1
right_child=-2 -3
leaf_value=-0.0069964131350039194 0.01250724405793412 -0.002444377173406201
leaf_count=1454 758 142
internal_value=0 -0.658543
internal_count=2354 1596
shrinkage=0.01


Tree=36
num_leaves=9
num_cat=0
split_feature=3 3 3 2 2 2 3 2
split_gain=1.04204 0.292782 0.214337 0.0598438 0.155862 0.15426 0.0738604 0.380363
threshold=3.5000000000000004 1.5000000000000002 2.5000000000000004 4.5000000000000009 10.500000000000002 1.5000000000000002 1.0000000180025095e-35 13.500000000000002
decision_type=6 6 6 6 6 6 6 6
left_child=1 3 -3 5 -5 -1 -6 -8
right_child=-2 2 -4 4 6 -7 7 -9
leaf_value=-0.00020101831210283624 0.0022741611838815292 0.00039670806388762768 -0.0005971470032769137 0.0011039046776532 -0.00064223683756713622 -0.0011990824279713684 -0.00048799146427510546 0.0012432599803693797
leaf_count=1657 43 353 53 28 48 40 89 43
internal_value=0 -0.0116579 0.0247445 -0.0198371 0.00162507 -0.0228985 -0.011331 0.00213381
internal_count=2354 2311 406 1905 208 1697 180 132
shrinkage=0.01


Tree=37
num_leaves=3
num_cat=0
split_feature=1 0
split_gain=824.584 10.8327
threshold=1.0000000180025095e-35 1.0000000180025095e-35
decision_type=2 2
left_child=1 -1
right_child=-2 -3
leaf_value=-0.0069824620177090721 0.012402506676703316 -0.0024341229634735821
leaf_count=1454 758 142
internal_value=0 -0.657109
internal_count=2354 1596
shrinkage=0.01


Tree=38
num_leaves=9
num_cat=0
split_feature=3 3 3 2 2 2 3 2
split_gain=1.03861 0.298436 0.20774 0.0604597 0.153201 0.15074 0.077622 0.377095
threshold=3.5000000000000004 1.5000000000000002 2.5000000000000004 4.5000000000000009 10.500000000000002 1.5000000000000002 1.0000000180025095e-35 13.500000000000002
decision_type=6 6 6 6 6 6 6 6
left_child=1 3 -3 5 -5 -1 -6 -8
right_child=-2 2 -4 4 6 -7 7 -9
leaf_value=-0.00020144468745477182 0.0022723463007758328 0.00039904852771564396 -0.00057732188984128637 0.0010964856886366327 -0.00065403827414263244 -0.0011890311599868004 -0.00047716064022034356 0.0012455926751131089
leaf_count=1657 43 353 53 28 48 40 89 43
internal_value=0 -0.0115767 0.0251977 -0.0198379 0.00176723 -0.0229183 -0.0110379 0.00292897
internal_count=2354 2311 406 1905 208 1697 180 132
shrinkage=0.01


Tree=39
num_leaves=3
num_cat=0
split_feature=1 0
split_gain=815.393 10.8025
threshold=1.0000000180025095e-35 1.0000000180025095e-35
decision_type=2 2
left_child=1 -1
right_child=-2 -3
leaf_value=-0.0069686326831966891 0.012299896685723111 -0.0024239125027718349
leaf_count=1454 758 142
internal_value=0 -0.655687
internal_count=2354 1596
shrinkage=0.01


Tree=40
num_leaves=11
num_cat=0
split_feature=3 2 2 2 2 3 3 2 2 3
split_gain=0.441693 0.316153 0.440117 0.270356 0.227696 0.222865 0.147809 0.0550763 0.147892 0.00685111
threshold=2.5000000000000004 16.500000000000004 3.5000000000000004 9.5000000000000018 1.5000000000000002 3.5000000000000004 1.5000000000000002 12.500000000000002 13.500000000000002 1.5000000000000002
decision_type=6 6 6 6 6 6 6 6 6 4
left_child=1 2 4 -4 9 -2 -6 -5 -9 -1
right_child=5 -3 3 7 6 -7 -8 8 -10 -11
leaf_value=-4.3428639513744435e-05 0.0016625501663066619 0.0011410098717168984 -0.0019708969132748375 -0 0.001364002880178081 5.2429693981752797e-05 0.00025795238980966365 -0.0012749552635389367 0 8.8490504437611109e-05
leaf_count=1628 57 56 37 56 37 45 291 41 41 65
internal_value=0 0 -0.00272304 -0.0759788 0.00337249 0.10238 0.0404221 -0.0387138 -0.0637065 -0.00341573
internal_count=2354 2252 2196 175 2021 102 328 138 82 1693
shrinkage=0.01


Tree=41
num_leaves=3
num_cat=0
split_feature=1 0
split_gain=802.291 6.83986
threshold=1.0000000180025095e-35 1.0000000180025095e-35
decision_type=2 2
left_child=1 -1
right_child=-2 -3
leaf_value=-0.006921317454444435 0.012158252674027859 -0.0032738603536477842
leaf_count=1462 749 143
internal_value=0 -0.659096
internal_count=2354 1605
shrinkage=0.01


Tree=42
num_leaves=11
num_cat=0
split_feature=3 2 2 2 2 3 3 2 2 3
split_gain=0.448921 0.308198 0.430334 0.269052 0.229262 0.218904 0.144288 0.0541569 0.145105 0.00734948
threshold=2.5000000000000004 16.500000000000004 3.5000000000000004 9.5000000000000018 1.5000000000000002 3.5000000000000004 1.5000000000000002 12.500000000000002 13.500000000000002 1.5000000000000002
decision_type=6 6 6 6 6 6 6 6 6 4
left_child=1 2 4 -4 9 -2 -6 -5 -9 -1
right_child=5 -3 3 7 6 -7 -8 8 -10 -11
leaf_value=-4.4989789003798269e-05 0.0016662952202231556 0.0011266836626790966 -0.001959327801921791 -0 0.0013551480241626424 6.5906548606854134e-05 0.00025964031143794211 -0.0012596107625255923 0 9.2740476206280162e-05
leaf_count=1628 57 56 37 56 37 45 291 41 41 65
internal_value=0 0 -0.00276006 -0.075195 0.00326828 0.103157 0.0404652 -0.0380185 -0.062791 -0.00354876
internal_count=2354 2252 2196 175 2021 102 328 138 82 1693
shrinkage=0.01


Tree=43
num_leaves=3
num_cat=0
split_feature=1 0
split_gain=793.539 6.82464
threshold=1.0000000180025095e-35 1.0000000180025095e-35
decision_type=2 2
left_child=1 -1
right_child=-2 -3
leaf_value=-0.0069074401369991203 0.012060885610049013 -0.003261305088246136
leaf_count=1462 749 143
internal_value=0 -0.657671
internal_count=2354 1605
shrinkage=0.01


Tree=44
num_leaves=11
num_cat=0
split_feature=3 2 2 2 2 3 3 2 2 3
split_gain=0.45613 0.300414 0.420741 0.267768 0.230821 0.215002 0.140831 0.0532494 0.142375 0.00786123
threshold=2.5000000000000004 16.500000000000004 3.5000000000000004 9.5000000000000018 1.5000000000000002 3.5000000000000004 1.5000000000000002 12.500000000000002 13.500000000000002 1.5000000000000002
decision_type=6 6 6 6 6 6 6 6 6 4
left_child=1 2 4 -4 9 -2 -6 -5 -9 -1
right_child=5 -3 3 7 6 -7 -8 8 -10 -11
leaf_value=-4.6539752864253046e-05 0.0016700434060165129 0.0011124565480458541 -0.0019478929412100764 -0 0.0013463793582977827 7.9253890686290695e-05 0.0002613202215266971 -0.0012444521073025989 0 9.6955891532297771e-05
leaf_count=1628 57 56 37 56 37 45 291 41 41 65
internal_value=0 0 -0.00279677 -0.0744186 0.00316495 0.103928 0.0405089 -0.037329 -0.0618845 -0.00368081
internal_count=2354 2252 2196 175 2021 102 328 138 82 1693
shrinkage=0.01


Tree=45
num_leaves=3
num_cat=0
split_feature=1 0
split_gain=784.94 6.80971
threshold=1.0000000180025095e-35 1.0000000180025095e-35
decision_type=2 2
left_child=1 -1
right_child=-2 -3
leaf_value=-0.0068936861937099027 0.011965411207376745 -0.0032488075563856917
leaf_count=1462 749 143
internal_value=0 -0.656258
internal_count=2354 1605
shrinkage=0.01


Tree=46
num_leaves=11
num_cat=0
split_feature=3 2 2 2 2 3 3 2 2 3
split_gain=0.463319 0.292797 0.411333 0.266504 0.232374 0.211158 0.137438 0.0523536 0.139701 0.0083858
threshold=2.5000000000000004 16.500000000000004 3.5000000000000004 9.5000000000000018 1.5000000000000002 3.5000000000000004 1.5000000000000002 12.500000000000002 13.500000000000002 1.5000000000000002
decision_type=6 6 6 6 6 6 6 6 6 4
left_child=1 2 4 -4 9 -2 -6 -5 -9 -1
right_child=5 -3 3 7 6 -7 -8 8 -10 -11
leaf_value=-4.8078306516144419e-05 0.0016737950743050565 0.0010983268368161337 -0.0019365906755562281 -0 0.001337696270756785 9.2474451847106534e-05 0.00026299189271434344 -0.001229474499898947 0 0.00010113629327128604
leaf_count=1628 57 56 37 56 37 45 291 41 41 65
internal_value=0 -0 -0.00283313 -0.0736497 0.00306253 0.104696 0.0405532 -0.0366454 -0.0609867 -0.00381188
internal_count=2354 2252 2196 175 2021 102 328 138 82 1693
shrinkage=0.01


Tree=47
num_leaves=3
num_cat=0
split_feature=1 0
split_gain=776.488 6.79506
threshold=1.0000000180025095e-35 1.0000000180025095e-35
decision_type=2 2
left_child=1 -1
right_child=-2 -3
leaf_value=-0.0068800528265161396 0.011871772424327003 -0.0032363668371211082
leaf_count=1462 749 143
internal_value=0 -0.654855
internal_count=2354 1605
shrinkage=0.01


Tree=48
num_leaves=10
num_cat=0
split_feature=3 2 2 2 2 2 2 2 2
split_gain=1.28859 0.71958 0.544093 0.52661 0.238235 0.193734 0.139995 0.440913 0.0699809
threshold=1.5000000000000002 1.5000000000000002 16.500000000000004 14.500000000000002 2.5000000000000004 3.5000000000000004 12.500000000000002 5.5000000000000009 1.5000000000000002
decision_type=6 6 6 6 6 6 6 6 6
left_child=2 -2 3 6 -3 -6 7 8 -1
right_child=1 4 -4 -5 5 -7 -8 -9 -10
leaf_value=-0.00019672890503838594 0.0024080972871826332 0.00067420239598400919 0.0013039877349500999 -0.0023368316144671206 -0.00082128658061110559 0.00050441409123895477 0.00058351846227844956 -0.0014099660045309812 0.0004045654075181334
leaf_count=1653 53 312 54 28 52 45 45 72 40
internal_value=0 0.0702397 -0.019866 -0.024631 0.0462943 -0.0138076 -0.0209351 -0.0234008 -0.0178554
internal_count=2354 462 1892 1838 409 97 1810 1765 1693
shrinkage=0.01


Tree=49
num_leaves=3
num_cat=0
split_feature=1 0
split_gain=766.455 11.0866
threshold=1.0000000180025095e-35 1.0000000180025095e-35
decision_type=2 2
left_child=1 -1
right_child=-2 -3
leaf_value=-0.0068834370555491417 0.011835918153976761 -0.0023244888657186877
leaf_count=1459 749 146
internal_value=0 -0.645774
internal_count=2354 1605
shrinkage=0.01


Tree=50
num_leaves=10
num_cat=0
split_feature=3 2 2 2 2 2 2 2 2
split_gain=1.29328 0.713317 0.536032 0.517693 0.233119 0.189826 0.140368 0.429154 0.0675701
threshold=1.5000000000000002 1.5000000000000002 16.500000000000004 14.500000000000002 2.5000000000000004 3.5000000000000004 12.500000000000002 5.5000000000000009 1.5000000000000002
decision_type=6 6 6 6 6 6 6 6 6
left_child=2 -2 3 6 -3 -6 7 8 -1
right_child=1 4 -4 -5 5 -7 -8 -9 -10
leaf_value=-0.00019711793416149085 0.0024044230474642913 0.00067471549892476098 0.0012932767911047014 -0.0023184405731709115 -0.0008050458667920857 0.00050891859252061354 0.00058488057931099769 -0.0013944839155482286 0.0003920710931253795
leaf_count=1653 53 312 54 28 52 45 45 72 40
internal_value=0 0.0704331 -0.0198769 -0.0246101 0.0465749 -0.0127443 -0.0209371 -0.0234075 -0.017923
internal_count=2354 462 1892 1838 409 97 1810 1765 1693
shrinkage=0.01


Tree=51
num_leaves=3
num_cat=0
split_feature=1 0
split_gain=758.243 11.0542
threshold=1.0000000180025095e-35 1.0000000180025095e-35
decision_type=2 2
left_child=1 -1
right_child=-2 -3
leaf_value=-0.0068701651949114552 0.011744696201128488 -0.0023152834822669065
leaf_count=1459 749 146
internal_value=0 -0.644403
internal_count=2354 1605
shrinkage=0.01


Tree=52
num_leaves=10
num_cat=0
split_feature=3 2 2 2 2 2 2 2 2
split_gain=1.29795 0.707135 0.528091 0.508927 0.22812 0.185988 0.140737 0.41766 0.0652312
threshold=1.5000000000000002 1.5000000000000002 16.500000000000004 14.500000000000002 2.5000000000000004 3.5000000000000004 12.500000000000002 5.5000000000000009 1.5000000000000002
decision_type=6 6 6 6 6 6 6 6 6
left_child=2 -2 3 6 -3 -6 7 8 -1
right_child=1 4 -4 -5 5 -7 -8 -9 -10
leaf_value=-0.00019751034019917775 0.0024008291006008234 0.00067523806311192865 0.0012826346114056741 -0.0023002522430114769 -0.00078898951475696267 0.00051339127701683176 0.00058622927613558072 -0.0013791851326738769 0.00037966395489776386
leaf_count=1653 53 312 54 28 52 45 45 72 40
internal_value=0 0.0706265 -0.0198883 -0.0245901 0.0468542 -0.0116913 -0.0209397 -0.0234148 -0.0179908
internal_count=2354 462 1892 1838 409 97 1810 1765 1693
shrinkage=0.01


Tree=53
num_leaves=3
num_cat=0
split_feature=1 0
split_gain=750.171 11.0222
threshold=1.0000000180025095e-35 1.0000000180025095e-35
decision_type=2 2
left_child=1 -1
right_child=-2 -3
leaf_value=-0.0068570080494612263 0.011655199548494252 -0.0023061078314028818
leaf_count=1459 749 146
internal_value=0 -0.643042
internal_count=2354 1605
shrinkage=0.01


Tree=54
num_leaves=10
num_cat=0
split_feature=3 2 2 2 2 2 2 2 2
split_gain=1.30259 0.701034 0.520271 0.500309 0.223235 0.182218 0.141101 0.406426 0.0629627
threshold=1.5000000000000002 1.5000000000000002 16.500000000000004 14.500000000000002 2.5000000000000004 3.5000000000000004 12.500000000000002 5.5000000000000009 1.5000000000000002
decision_type=6 6 6 6 6 6 6 6 6
left_child=2 -2 3 6 -3 -6 7 8 -1
right_child=1 4 -4 -5 5 -7 -8 -9 -10
leaf_value=-0.00019790561597932927 0.002397314653073363 0.00067577147764612006 0.0012720617453805658 -0.0022822636239253516 -0.00077311275517841964 0.00051783303298942867 0.00058756507574277248 -0.0013640662947412739 0.00036734325112398062
leaf_count=1653 53 312 54 28 52 45 45 72 40
internal_value=0 0.0708199 -0.0199002 -0.0245709 0.0471322 -0.0106481 -0.0209429 -0.0234227 -0.0180585
internal_count=2354 462 1892 1838 409 97 1810 1765 1693
shrinkage=0.01


Tree=55
num_leaves=3
num_cat=0
split_feature=1 0
split_gain=742.234 10.9907
threshold=1.0000000180025095e-35 1.0000000180025095e-35
decision_type=2 2
left_child=1 -1
right_child=-2 -3
leaf_value=-0.0068439646004451685 0.011567378388178234 -0.0022969621665835912
leaf_count=1459 749 146
internal_value=0 -0.641692
internal_count=2354 1605
shrinkage=0.01


Tree=56
num_leaves=13
num_cat=0
split_feature=2 2 3 2 2 2 2 3 3 2 2 2
split_gain=0.219787 0.374283 0.241054 0.297233 0.209252 0.16244 0.140536 0.280868 0.167501 0.0612082 0.0275495 0.00886214
threshold=13.500000000000002 15.500000000000002 1.5000000000000002 1.5000000000000002 2.5000000000000004 10.500000000000002 2.5000000000000004 3.5000000000000004 2.5000000000000004 1.5000000000000002 12.500000000000002 3.5000000000000004
decision_type=6 6 4 6 6 6 6 6 4 6 6 6
left_child=2 -2 4 -4 9 -6 8 11 -5 -1 -7 -8
right_child=1 -3 3 6 5 10 7 -9 -10 -11 -12 -13
leaf_value=-0.00015694684228113144 -0.0021897256488987399 -0 0.001217183150064085 0.00010007609820182064 0.0015748762787045623 -1.2867919227510789e-05 -0.0012036776135613951 0.00071463358960237419 0.0011922548553837634 -0.0009478534672819768 0.00043928444240350388 -0.00034186253401445691
leaf_count=1627 30 62 67 275 26 54 41 33 40 27 37 35
internal_value=0 -0.0811219 -0.00399192 0.0255441 -0.012635 0.0479243 0.0088306 -0.0356535 0.026599 -0.0174412 0.00954839 -0.0902865
internal_count=2354 92 2262 491 1771 117 424 109 315 1654 91 76
shrinkage=0.01


Tree=57
num_leaves=4
num_cat=0
split_feature=1 0 0
split_gain=742.426 35.4528 7.86674
threshold=1.0000000180025095e-35 1.0000000180025095e-35 1.0000000180025095e-35
decision_type=2 2 2
left_child=2 -2 -1
right_child=1 -3 -4
leaf_value=-0.0068134393787150646 -0.0068467213297909481 0.012001422814954477 -0.0029237056317066887
leaf_count=1449 21 739 145
internal_value=0 1.14726 -0.644797
internal_count=2354 760 1594
shrinkage=0.01


Tree=58
num_leaves=13
num_cat=0
split_feature=2 2 3 2 2 2 2 3 3 2 2 2
split_gain=0.218985 0.363292 0.240406 0.286186 0.210118 0.158552 0.137959 0.274612 0.163079 0.0593952 0.0274562 0.0073049
threshold=13.500000000000002 15.500000000000002 1.5000000000000002 1.5000000000000002 2.5000000000000004 10.500000000000002 2.5000000000000004 3.5000000000000004 2.5000000000000004 1.5000000000000002 12.500000000000002 3.5000000000000004
decision_type=6 6 4 6 6 6 6 6 4 6 6 6
left_child=2 -2 4 -4 9 -6 8 11 -5 -1 -7 -8
right_child=1 -3 3 6 5 10 7 -9 -10 -11 -12 -13
leaf_value=-0.00015643822104619752 -0.0021673433509220674 -4.3437561658722584e-06 0.0012013241576375442 0.00010338677373579401 0.0015667814527176144 -5.2313045167697192e-06 -0.001182243838402202 0.00071063404280091638 0.0011832197191339326 -0.00093716661250044036 0.00044206317061891112 -0.00033744501379535762
leaf_count=1627 30 62 67 275 26 54 41 33 40 27 37 35
internal_value=0 -0.0809149 -0.00391813 0.0255941 -0.0125553 0.0481634 0.00915262 -0.0348604 0.0267662 -0.0173748 0.0101092 -0.0889333
internal_count=2354 92 2262 491 1771 117 424 109 315 1654 91 76
shrinkage=0.01


Tree=59
num_leaves=3
num_cat=0
split_feature=1 0
split_gain=734.654 7.84696
threshold=1.0000000180025095e-35 1.0000000180025095e-35
decision_type=2 2
left_child=1 -1
right_child=-2 -3
leaf_value=-0.0068006690943008697 0.011387732228034693 -0.0029132716081159966
leaf_count=1449 760 145
internal_value=0 -0.643478
internal_count=2354 1594
shrinkage=0.01


Tree=60
num_leaves=13
num_cat=0
split_feature=2 2 3 2 2 2 2 3 3 2 2 2
split_gain=0.218474 0.352751 0.24518 0.280178 0.211087 0.154853 0.13575 0.269944 0.166568 0.0575916 0.027322 0.006301
threshold=13.500000000000002 15.500000000000002 1.5000000000000002 1.5000000000000002 2.5000000000000004 10.500000000000002 2.5000000000000004 3.5000000000000004 2.5000000000000004 1.5000000000000002 12.500000000000002 3.5000000000000004
decision_type=6 6 4 6 6 6 6 6 4 6 6 6
left_child=2 -2 4 -4 9 -6 8 11 -5 -1 -7 -8
right_child=1 -3 3 6 5 10 7 -9 -10 -11 -12 -13
leaf_value=-0.00015689570160597432 -0.0021461656945461782 -1.1580764009648938e-05 0.0011966706759946899 0.00010562129832589036 0.0015581180791789807 -0 -0.0011624611975629947 0.00071178649316578084 0.0011968142496533104 -0.00092772254655163627 0.0004439663956794855 -0.00033099065826726462
leaf_count=1627 30 62 67 275 26 54 41 33 40 27 37 35
internal_value=0 -0.0807604 -0.00384538 0.025979 -0.012572 0.0483146 0.00967981 -0.0338995 0.0271508 -0.0174054 0.010572 -0.087573
internal_count=2354 92 2262 491 1771 117 424 109 315 1654 91 76
shrinkage=0.01


Tree=61
num_leaves=4
num_cat=0
split_feature=1 0 0
split_gain=727.011 34.8537 7.82753
threshold=1.0000000180025095e-35 1.0000000180025095e-35 1.0000000180025095e-35
decision_type=2 2 2
left_child=2 -2 -1
right_child=1 -3 -4
leaf_value=-0.006788005321160865 -0.0068550376962428885 0.011826453849399539 -0.0029028665464096528
leaf_count=1449 21 739 145
internal_value=0 1.13044 -0.642168
internal_count=2354 760 1594
shrinkage=0.01


Tree=62
num_leaves=13
num_cat=0
split_feature=2 2 3 2 2 2 2 3 3 2 2 2
split_gain=0.217681 0.342256 0.244498 0.26957 0.211938 0.151103 0.133275 0.263913 0.162157 0.0558596 0.0272211 0.00485755
threshold=13.500000000000002 15.500000000000002 1.5000000000000002 1.5000000000000002 2.5000000000000004 10.500000000000002 2.5000000000000004 3.5000000000000004 2.5000000000000004 1.5000000000000002 12.500000000000002 3.5000000000000004
decision_type=6 6 4 6 6 6 6 6 4 6 6 6
left_child=2 -2 4 -4 9 -6 8 11 -5 -1 -7 -8
right_child=1 -3 3 6 5 10 7 -9 -10 -11 -12 -13
leaf_value=-0.00015639964442806001 -0.0021243148875152193 -1.8472485940928374e-05 0.0011809592767940242 0.00010888996441484477 0.0015501709624154089 -0 -0.001141523021588785 0.00070783351745595064 0.0011877570251357856 -0.00091726654111224228 0.00044670069620970644 -0.00032668335726927019
leaf_count=1627 30 62 67 275 26 54 41 33 40 27 37 35
internal_value=0 -0.0805577 -0.00377338 0.0260264 -0.0124939 0.0485508 0.00999495 -0.0331236 0.0273144 -0.0173406 0.0111226 -0.0862505
internal_count=2354 92 2262 491 1771 117 424 109 315 1654 91 76
shrinkage=0.01


Tree=63
num_leaves=3
num_cat=0
split_feature=1 0
split_gain=719.493 7.80843
threshold=1.0000000180025095e-35 1.0000000180025095e-35
decision_type=2 2
left_child=1 -1
right_child=-2 -3
leaf_value=-0.0067754471511209044 0.011222640865974128 -0.0028924931247679242
leaf_count=1449 760 145
internal_value=0 -0.640868
internal_count=2354 1594
shrinkage=0.01


Tree=64
num_leaves=11
num_cat=0
split_feature=3 3 2 2 2 2 2 2 2 2
split_gain=0.921135 0.187261 0.154891 0.459326 0.202385 0.144956 0.083493 0.0772373 0.0203153 0.00620739
threshold=1.5000000000000002 2.5000000000000004 15.500000000000002 12.500000000000002 4.5000000000000009 2.5000000000000004 3.5000000000000004 3.5000000000000004 1.5000000000000002 11.500000000000002
decision_type=6 6 6 6 6 6 6 6 6 6
left_child=2 6 3 4 -1 -3 8 -7 -2 -6
right_child=1 5 -4 -5 9 7 -8 -9 -10 -11
leaf_value=-0.00025715047911975878 -0 0.0019490320456099944 0.00047561950620335299 -0.0015195488060012702 9.8100467611417807e-05 0 0.001265822699955837 0.0011421812497003632 0.0002853047021461296 0.00073373618490748496
leaf_count=1692 49 38 62 66 39 37 24 27 280 40
internal_value=0 0.0522371 -0.0243442 -0.027137 -0.0218482 0.112629 0.0324964 0.0518368 0.0233728 0.0508604
internal_count=2354 455 1899 1837 1771 102 353 64 329 79
shrinkage=0.01


Tree=65
num_leaves=3
num_cat=0
split_feature=1 0
split_gain=706.847 8.83909
threshold=1.0000000180025095e-35 1.0000000180025095e-35
decision_type=2 2
left_child=1 -1
right_child=-2 -3
leaf_value=-0.0067801926855623959 0.011066671275300666 -0.0027325392016014239
leaf_count=1438 765 151
internal_value=0 -0.637962
internal_count=2354 1589
shrinkage=0.01


Tree=66
num_leaves=11
num_cat=0
split_feature=3 3 2 2 2 2 2 2 2 2
split_gain=0.930029 0.188911 0.150935 0.444327 0.201532 0.144402 0.0820581 0.0760109 0.0195221 0.00537794
threshold=1.5000000000000002 2.5000000000000004 15.500000000000002 12.500000000000002 4.5000000000000009 2.5000000000000004 3.5000000000000004 3.5000000000000004 1.5000000000000002 11.500000000000002
decision_type=6 6 6 6 6 6 6 6 6 6
left_child=2 6 3 4 -1 -3 8 -7 -2 -6
right_child=1 5 -4 -5 9 7 -8 -9 -10 -11
leaf_value=-0.00025731726386540545 -0 0.0019562990603960119 0.00046592638162513739 -0.0014987910369604299 0.00010077805783000629 0 0.0012639200790542618 0.0011455874848835439 0.00028779866250592384 0.00072806917671200432
leaf_count=1692 49 38 62 66 39 37 24 27 280 40
internal_value=0 0.0526649 -0.0243276 -0.0270878 -0.0218701 0.113349 0.0328327 0.0525426 0.0237467 0.0507065
internal_count=2354 455 1899 1837 1771 102 353 64 329 79
shrinkage=0.01


Tree=67
num_leaves=3
num_cat=0
split_feature=1 0
split_gain=699.622 8.81951
threshold=1.0000000180025095e-35 1.0000000180025095e-35
decision_type=2 2
left_child=1 -1
right_child=-2 -3
leaf_value=-0.0067679751285421013 0.010988210283303497 -0.002722161922598095
leaf_count=1438 765 151
internal_value=0 -0.636686
internal_count=2354 1589
shrinkage=0.01


Tree=68
num_leaves=11
num_cat=0
split_feature=3 3 2 2 2 2 2 2 2 2
split_gain=0.938915 0.190557 0.14707 0.429715 0.200688 0.143842 0.0806389 0.0747644 0.0187071 0.00456786
threshold=1.5000000000000002 2.5000000000000004 15.500000000000002 12.500000000000002 4.5000000000000009 2.5000000000000004 3.5000000000000004 3.5000000000000004 1.5000000000000002 11.500000000000002
decision_type=6 6 6 6 6 6 6 6 6 6
left_child=2 6 3 4 -1 -3 8 -7 -2 -6
right_child=1 5 -4 -5 9 7 -8 -9 -10 -11
leaf_value=-0.00025749056335641922 -0 0.0019635461249328848 0.00045630401986540662 -0.0014782773555313219 0.00010342937589054066 0 0.0012620423280180185 0.0011489906053092002 0.00029027819159644811 0.00072244497419933973
leaf_count=1692 49 38 62 66 39 37 24 27 280 40
internal_value=0 0.0530913 -0.0243118 -0.0270397 -0.0218925 0.114067 0.0331678 0.0532463 0.0241189 0.0505539
internal_count=2354 455 1899 1837 1771 102 353 64 329 79
shrinkage=0.01


Tree=69
num_leaves=3
num_cat=0
split_feature=1 0
split_gain=692.51 8.80026
threshold=1.0000000180025095e-35 1.0000000180025095e-35
decision_type=2 2
left_child=1 -1
right_child=-2 -3
leaf_value=-0.006755859205964194 0.010911120047893635 -0.0027118186329499095
leaf_count=1438 765 151
internal_value=0 -0.63542
internal_count=2354 1589
shrinkage=0.01


Tree=70
num_leaves=11
num_cat=0
split_feature=3 3 2 2 2 2 2 2 2 2
split_gain=0.947794 0.192202 0.143294 0.41548 0.199855 0.143276 0.0792354 0.0734978 0.0178705 0.00377666
threshold=1.5000000000000002 2.5000000000000004 15.500000000000002 12.500000000000002 4.5000000000000009 2.5000000000000004 3.5000000000000004 3.5000000000000004 1.5000000000000002 11.500000000000002
decision_type=6 6 6 6 6 6 6 6 6 6
left_child=2 6 3 4 -1 -3 8 -7 -2 -6
right_child=1 5 -4 -5 9 7 -8 -9 -10 -11
leaf_value=-0.00025767120697024379 -0 0.0019707735843442035 0.00044675211265896291 -0.0014580032623702078 0.00010605585267365591 0 0.0012601894336870742 0.0011523910626866929 0.00029274248203596108 0.00071686343846813039
leaf_count=1692 49 38 62 66 39 37 24 27 280 40
internal_value=0 0.0535163 -0.0242969 -0.0269929 -0.0219155 0.114784 0.0335015 0.053948 0.0244894 0.0504028
internal_count=2354 455 1899 1837 1771 102 353 64 329 79
shrinkage=0.01


Tree=71
num_leaves=3
num_cat=0
split_feature=1 0
split_gain=685.509 8.78134
threshold=1.0000000180025095e-35 1.0000000180025095e-35
decision_type=2 2
left_child=1 -1
right_child=-2 -3
leaf_value=-0.0067438436938167725 0.010835365346185842 -0.0027015090968693367
leaf_count=1438 765 151
internal_value=0 -0.634163
internal_count=2354 1589
shrinkage=0.01


Tree=72
num_leaves=11
num_cat=0
split_feature=3 3 2 3 2 2 2 2 2 2
split_gain=1.1018 0.534849 0.366814 0.267667 1.04347 0.209409 0.0322594 0.00454834 0.161685 0.0203052
threshold=3.5000000000000004 1.5000000000000002 3.5000000000000004 1.0000000180025095e-35 15.500000000000002 5.5000000000000009 2.5000000000000004 4.5000000000000009 1.5000000000000002 12.500000000000002
decision_type=6 6 6 6 4 6 6 6 6 6
left_child=1 3 6 5 7 -1 -3 8 -5 -9
right_child=-2 2 -4 4 -6 -7 -8 9 -10 -11
leaf_value=0 0.0022929140865006838 0.00059650034607318012 -0.0012902822201996439 -0.0002087687948782624 0.0030055953244146004 -0.0017674972987540638 0 -0.00058868162057338117 0.00077828595093715691 -7.1351441513015525e-06
leaf_count=26 47 349 24 1655 24 46 34 58 38 53
internal_value=0 -0.00807543 0.0419204 -0.0192531 -0.0152212 -0.114737 0.0551102 -0.0198696 -0.0182568 -0.037281
internal_count=2354 2307 407 1900 1828 72 383 1804 1693 111
shrinkage=0.01


Tree=73
num_leaves=3
num_cat=0
split_feature=1 0
split_gain=684.096 9.19818
threshold=1.0000000180025095e-35 1.0000000180025095e-35
decision_type=2 2
left_child=1 -1
right_child=-2 -3
leaf_value=-0.0067328225506159897 0.010854333612718035 -0.0022795083036902517
leaf_count=1471 755 128
internal_value=0 -0.635892
internal_count=2354 1599
shrinkage=0.01


Tree=74
num_leaves=11
num_cat=0
split_feature=3 3 2 3 2 2 2 2 2 2
split_gain=1.09939 0.54005 0.357668 0.274864 1.03578 0.203862 0.0309645 0.00560798 0.156229 0.0205582
threshold=3.5000000000000004 1.5000000000000002 3.5000000000000004 1.0000000180025095e-35 15.500000000000002 5.5000000000000009 2.5000000000000004 1.5000000000000002 4.5000000000000009 12.500000000000002
decision_type=6 6 6 6 4 6 6 6 6 6
left_child=1 3 6 5 7 -1 -3 -5 -9 -10
right_child=-2 2 -4 4 -6 -7 -8 8 9 -11
leaf_value=-0 0.0022925813572756025 0.00059756857276716262 -0.0012628253544060563 -0.00020889214730016696 0.0029965529105526285 -0.0017720152508666944 0 0.0007706277357852787 -0.00057643615209639098 -0
leaf_count=26 47 349 24 1655 24 46 34 38 58 53
internal_value=0 -0.00803767 0.0422339 -0.0192763 -0.0151945 -0.116043 0.0552843 -0.0198295 -0.00364885 -0.0361919
internal_count=2354 2307 407 1900 1828 72 383 1804 149 111
shrinkage=0.01


Tree=75
num_leaves=3
num_cat=0
split_feature=1 0
split_gain=677.289 9.17248
threshold=1.0000000180025095e-35 1.0000000180025095e-35
decision_type=2 2
left_child=1 -1
right_child=-2 -3
leaf_value=-0.006720846722631746 0.010781003470897579 -0.0022713754888740783
leaf_count=1471 755 128
internal_value=0 -0.634646
internal_count=2354 1599
shrinkage=0.01


Tree=76
num_leaves=11
num_cat=0
split_feature=3 3 2 3 2 2 2 2 2 2
split_gain=1.09701 0.545247 0.34875 0.282103 1.02816 0.198236 0.0296693 0.0068762 0.150738 0.0207827
threshold=3.5000000000000004 1.5000000000000002 3.5000000000000004 1.0000000180025095e-35 15.500000000000002 5.5000000000000009 2.5000000000000004 1.5000000000000002 4.5000000000000009 12.500000000000002
decision_type=6 6 6 6 4 6 6 6 6 6
left_child=1 3 6 5 7 -1 -3 -5 -9 -10
right_child=-2 2 -4 4 -6 -7 -8 8 9 -11
leaf_value=-0 0.002292301451211481 0.00059864308324268753 -0.0012356938673671848 -0.00020902043806250427 0.0029875677693921117 -0.0017764592512302163 0 0.00076303152616764608 -0.00056431757228845452 -0
leaf_count=26 47 349 24 1655 24 46 34 38 58 53
internal_value=0 -0.00800053 0.0425465 -0.0193 -0.0151684 -0.117343 0.0554587 -0.0197902 -0.00304986 -0.0351135
internal_count=2354 2307 407 1900 1828 72 383 1804 149 111
shrinkage=0.01


Tree=77
num_leaves=3
num_cat=0
split_feature=1 0
split_gain=670.586 9.14711
threshold=1.0000000180025095e-35 1.0000000180025095e-35
decision_type=2 2
left_child=1 -1
right_child=-2 -3
leaf_value=-0.0067089708500015881 0.010708913363266881 -0.002263272248699788
leaf_count=1471 755 128
internal_value=0 -0.63341
internal_count=2354 1599
shrinkage=0.01


Tree=78
num_leaves=11
num_cat=0
split_feature=3 3 2 3 2 2 2 2 2 2
split_gain=1.09466 0.550438 0.340054 0.289383 1.02061 0.192533 0.0283739 0.00817844 0.14538 0.0209737
threshold=3.5000000000000004 1.5000000000000002 3.5000000000000004 1.0000000180025095e-35 15.500000000000002 5.5000000000000009 2.5000000000000004 1.5000000000000002 4.5000000000000009 12.500000000000002
decision_type=6 6 6 6 6 6 6 6 6 6
left_child=1 3 6 5 7 -1 -3 -5 -9 -10
right_child=-2 2 -4 4 -6 -7 -8 8 9 -11
leaf_value=-0 0.0022920738621944855 0.00059972370925215021 -0.0012088808131898126 -0.0002091541071848706 0.0029786388817092382 -0.001780829737651075 0 0.000755495944537562 -0.0005523234230476624 -0
leaf_count=26 47 349 24 1655 24 46 34 38 58 53
internal_value=0 -0.00796396 0.0428581 -0.0193241 -0.0151429 -0.118636 0.0556336 -0.0197517 -0.00245461 -0.0340438
internal_count=2354 2307 407 1900 1828 72 383 1804 149 111
shrinkage=0.01


Tree=79
num_leaves=3
num_cat=0
split_feature=1 0
split_gain=663.983 9.12207
threshold=1.0000000180025095e-35 1.0000000180025095e-35
decision_type=2 2
left_child=1 -1
right_child=-2 -3
leaf_value=-0.0066971926095587987 0.010638031483904334 -0.002255203761021147
leaf_count=1471 755 128
internal_value=0 -0.632183
internal_count=2354 1599
shrinkage=0.01


Tree=80
num_leaves=10
num_cat=0
split_feature=3 2 2 2 3 2 2 2 2
split_gain=1.25529 0.55929 0.511314 0.366461 0.60577 0.384455 0.340581 0.0467806 0.0221095
threshold=1.5000000000000002 2.5000000000000004 3.5000000000000004 7.0000000000000009 1.0000000180025095e-35 12.500000000000002 13.500000000000002 1.5000000000000002 16.500000000000004
decision_type=6 6 6 6 6 6 6 6 6
left_child=3 -2 -3 4 -1 -5 -7 -6 -8
right_child=1 2 -4 5 7 6 8 -9 -10
leaf_value=-0.0023080042669741461 0.0011427385137758068 -0.0015294191022730509 0.00078507269277412848 0.0015257625216920148 -7.9153756844725285e-05 -0.0011163816156881372 0.0001000411882798756 -0.00062734628188301246 0.00085001804055669528
leaf_count=32 343 38 49 65 1654 38 42 42 51
internal_value=0 0.0855074 -0.0162713 -0.00647708 -0.0140838 0.0555983 0.00225063 -0.00973224 0.058229
internal_count=2354 430 87 1924 1728 196 131 1696 93
shrinkage=0.01


Tree=81
num_leaves=4
num_cat=0
split_feature=1 0 0
split_gain=645.757 29.8795 7.42047
threshold=1.0000000180025095e-35 1.0000000180025095e-35 1.0000000180025095e-35
decision_type=2 2 2
left_child=2 -2 -1
right_child=1 -3 -4
leaf_value=-0.0066680503655888249 -0.0061706940085802364 0.010982871108171973 -0.0028959153935843094
leaf_count=1465 21 720 148
internal_value=0 1.04922 -0.630242
internal_count=2354 741 1613
shrinkage=0.01


Tree=82
num_leaves=10
num_cat=0
split_feature=3 2 2 2 3 2 2 2 2
split_gain=1.25006 0.546053 0.50309 0.364374 0.612682 0.380558 0.332445 0.0452494 0.0205851
threshold=1.5000000000000002 2.5000000000000004 3.5000000000000004 7.0000000000000009 1.0000000180025095e-35 12.500000000000002 13.500000000000002 1.5000000000000002 16.500000000000004
decision_type=6 6 6 6 6 6 6 6 6
left_child=3 -2 -3 4 -1 -5 -7 -6 -8
right_child=1 2 -4 5 7 6 8 -9 -10
leaf_value=-0.0023218399113962614 0.0011378086213977329 -0.0015080394366666495 0.00078948437018763577 0.0015197398717497104 -7.9503636874759501e-05 -0.0011016642772101947 0.00010131516128305537 -0.00061991778455208117 0.0008388394971275252
leaf_count=32 343 38 49 65 1654 38 42 42 51
internal_value=0 0.0853287 -0.0151214 -0.00653446 -0.0141268 0.0553898 0.00227353 -0.00974896 0.0576793
internal_count=2354 430 87 1924 1728 196 131 1696 93
shrinkage=0.01


Tree=83
num_leaves=4
num_cat=0
split_feature=1 0 0
split_gain=639.505 29.5087 7.40929
threshold=1.0000000180025095e-35 1.0000000180025095e-35 1.0000000180025095e-35
decision_type=2 2 2
left_child=2 -2 -1
right_child=1 -3 -4
leaf_value=-0.0066562297007063068 -0.006143844382501356 0.0109117053538208 -0.0028841779084424718
leaf_count=1465 21 720 148
internal_value=0 1.04251 -0.628996
internal_count=2354 741 1613
shrinkage=0.01


Tree=84
num_leaves=10
num_cat=0
split_feature=3 2 2 2 3 2 2 2 2
split_gain=1.24491 0.533102 0.495012 0.362312 0.619551 0.376708 0.324484 0.0437535 0.0191038
threshold=1.5000000000000002 2.5000000000000004 3.5000000000000004 7.0000000000000009 1.0000000180025095e-35 12.500000000000002 13.500000000000002 1.5000000000000002 16.500000000000004
decision_type=6 6 6 6 6 6 6 6 6
left_child=3 -2 -3 4 -1 -5 -7 -6 -8
right_child=1 2 -4 5 7 6 8 -9 -10
leaf_value=-0.0023355339198622466 0.0011329382681687908 -0.0014869071009696799 0.00079387884311866335 0.0015137741633571438 -7.9852362325781202e-05 -0.0010871055978522207 0.00010258099305206974 -0.00061256074312143239 0.00082774182480861843
leaf_count=32 343 38 49 65 1654 38 42 42 51
internal_value=0 0.0851534 -0.0139812 -0.00659152 -0.0141697 0.0551834 0.00229651 -0.00976573 0.0571342
internal_count=2354 430 87 1924 1728 196 131 1696 93
shrinkage=0.01


Tree=85
num_leaves=4
num_cat=0
split_feature=1 0 0
split_gain=633.346 29.145 7.3983
threshold=1.0000000180025095e-35 1.0000000180025095e-35 1.0000000180025095e-35
decision_type=2 2 2
left_child=2 -2 -1
right_child=1 -3 -4
leaf_value=-0.0066445085678104986 -0.0061172149432657807 0.010841739408611139 -0.0028724993222141622
leaf_count=1465 21 720 148
internal_value=0 1.03591 -0.627759
internal_count=2354 741 1613
shrinkage=0.01


Tree=86
num_leaves=10
num_cat=0
split_feature=3 2 2 2 3 2 2 2 2
split_gain=1.23983 0.520433 0.487076 0.360275 0.626374 0.372905 0.316693 0.0422924 0.0176648
threshold=1.5000000000000002 2.5000000000000004 3.5000000000000004 7.0000000000000009 1.0000000180025095e-35 12.500000000000002 13.500000000000002 1.5000000000000002 16.500000000000004
decision_type=6 6 6 6 6 6 6 6 6
left_child=3 -2 -3 4 -1 -5 -7 -6 -8
right_child=1 2 -4 5 7 6 8 -9 -10
leaf_value=-0.0023490860072677665 0.0011281272001759481 -0.0014660179703223745 0.00079825668776860022 0.0015078654099973672 -8.0200446528463779e-05 -0.0010727021039612318 0.00010383772775362661 -0.00060527450007806841 0.00081672401709147993
leaf_count=32 343 38 49 65 1654 38 42 42 51
internal_value=0 0.0849817 -0.0128506 -0.0066483 -0.0142127 0.0549793 0.00231952 -0.00978259 0.0565937
internal_count=2354 430 87 1924 1728 196 131 1696 93
shrinkage=0.01


Tree=87
num_leaves=4
num_cat=0
split_feature=1 0 0
split_gain=627.277 28.788 7.38749
threshold=1.0000000180025095e-35 1.0000000180025095e-35 1.0000000180025095e-35
decision_type=2 2 2
left_child=2 -2 -1
right_child=1 -3 -4
leaf_value=-0.0066328849012386908 -0.0060908021280564077 0.0107729425105322 -0.0028608793233091852
leaf_count=1465 21 720 148
internal_value=0 1.02942 -0.62653
internal_count=2354 741 1613
shrinkage=0.01


Tree=88
num_leaves=9
num_cat=0
split_feature=3 2 3 2 2 2 2 2
split_gain=1.48871 1.47659 0.305656 0.0749012 0.456286 0.0357331 0.130953 0.00553742
threshold=1.0000000180025095e-35 1.5000000000000002 1.5000000000000002 11.500000000000002 9.5000000000000018 2.5000000000000004 3.5000000000000004 12.500000000000002
decision_type=6 6 6 6 6 6 6 6
left_child=7 2 -2 4 5 -3 -7 -1
right_child=1 3 -4 -5 -6 6 -8 -9
leaf_value=-0.0025057806609384914 -1.0749949231266408e-05 0.0010287121127652628 0.0012960333071472877 0.001349395829862633 -0.0010658036985562403 -0 0.0010662505578237333 -0.0012117437581378645
leaf_count=40 1651 332 44 126 25 51 50 35
internal_value=0 0.025703 0.00191013 0.0926256 0.0790815 0.092051 0.0499063 -0.199586
internal_count=2354 2279 1695 584 458 433 101 75
shrinkage=0.01


Tree=89
num_leaves=3
num_cat=0
split_feature=1 0
split_gain=612.983 10.726
threshold=1.0000000180025095e-35 1.0000000180025095e-35
decision_type=2 2
left_child=1 -1
right_child=-2 -3
leaf_value=-0.0066220938742273319 0.010279880745234149 -0.0020606016811864527
leaf_count=1488 722 144
internal_value=0 -0.619249
internal_count=2354 1632
shrinkage=0.01


Tree=90
num_leaves=9
num_cat=0
split_feature=3 2 3 2 2 2 2 2
split_gain=1.49796 1.48074 0.305367 0.0740743 0.448694 0.033707 0.128238 0.00607415
threshold=1.0000000180025095e-35 1.5000000000000002 1.5000000000000002 11.500000000000002 9.5000000000000018 2.5000000000000004 3.5000000000000004 12.500000000000002
decision_type=6 6 6 6 6 6 6 6
left_child=7 2 -2 4 5 -3 -7 -1
right_child=1 3 -4 -5 -6 6 -8 -9
leaf_value=-0.0025180168240867074 -1.2519600896670296e-05 0.0010269355749150048 0.0012949843981174723 0.0013483999887524808 -0.0010478848286469779 -0 0.001064374620476759 -0.0012177552834346339
leaf_count=40 1651 332 44 126 25 51 50 35
internal_value=0 0.0255798 0.00173402 0.0926413 0.0791224 0.0920046 0.0502934 -0.200508
internal_count=2354 2279 1695 584 458 433 101 75
shrinkage=0.01


Tree=91
num_leaves=3
num_cat=0
split_feature=1 0
split_gain=607.198 10.7008
threshold=1.0000000180025095e-35 1.0000000180025095e-35
decision_type=2 2
left_child=1 -1
right_child=-2 -3
leaf_value=-0.0066105323517737661 0.010217305334711262 -0.0020518054322603797
leaf_count=1488 722 144
internal_value=0 -0.618023
internal_count=2354 1632
shrinkage=0.01


Tree=92
num_leaves=9
num_cat=0
split_feature=3 2 3 2 2 2 2 2
split_gain=1.50712 1.48488 0.305085 0.0732424 0.441252 0.0317126 0.125528 0.00661268
threshold=1.0000000180025095e-35 1.5000000000000002 1.5000000000000002 11.500000000000002 9.5000000000000018 2.5000000000000004 3.5000000000000004 12.500000000000002
decision_type=6 6 6 6 6 6 6 6
left_child=7 2 -2 4 5 -3 -7 -1
right_child=1 3 -4 -5 -6 6 -8 -9
leaf_value=-0.0025301201724894366 -1.4275732233439628e-05 0.0010251972788941402 0.0012939780819776195 0.0013474179662335221 -0.0010301507026344095 -0 0.0010625317050481393 -0.0012236852764382325
leaf_count=40 1651 332 44 126 25 51 50 35
internal_value=0 0.0254584 0.00155932 0.0926593 0.0791657 0.0919615 0.0506813 -0.201419
internal_count=2354 2279 1695 584 458 433 101 75
shrinkage=0.01


Tree=93
num_leaves=3
num_cat=0
split_feature=1 0
split_gain=601.494 10.6758
threshold=1.0000000180025095e-35 1.0000000180025095e-35
decision_type=2 2
left_child=1 -1
right_child=-2 -3
leaf_value=-0.006599068673526263 0.01015568846215102 -0.002043057050316318
leaf_count=1488 722 144
internal_value=0 -0.616807
internal_count=2354 1632
shrinkage=0.01


Tree=94
num_leaves=9
num_cat=0
split_feature=3 2 3 2 2 2 2 2
split_gain=1.5162 1.489 0.30481 0.0724058 0.433955 0.0297494 0.122822 0.00715258
threshold=1.0000000180025095e-35 1.5000000000000002 1.5000000000000002 11.500000000000002 9.5000000000000018 2.5000000000000004 3.5000000000000004 12.500000000000002
decision_type=6 6 6 6 6 6 6 6
left_child=7 2 -2 4 5 -3 -7 -1
right_child=1 3 -4 -5 -6 6 -8 -9
leaf_value=-0.0025420908544492664 -1.6017432519562947e-05 0.0010234969850617169 0.0012930140238566696 0.0013464496078685031 -0.0010125981726564121 -0 0.0010607212094355374 -0.0012295352523311986
leaf_count=40 1651 332 44 126 25 51 50 35
internal_value=0 0.0253386 0.00138614 0.0926796 0.0792114 0.0919216 0.0510702 -0.202319
internal_count=2354 2279 1695 584 458 433 101 75
shrinkage=0.01


Tree=95
num_leaves=3
num_cat=0
split_feature=1 0
split_gain=595.868 10.6511
threshold=1.0000000180025095e-35 1.0000000180025095e-35
decision_type=2 2
left_child=1 -1
right_child=-2 -3
leaf_value=-0.0065877030034092463 0.01009500652804121 -0.0020343559369183574
leaf_count=1488 722 144
internal_value=0 -0.615598
internal_count=2354 1632
shrinkage=0.01


Tree=96
num_leaves=10
num_cat=0
split_feature=3 3 2 2 2 2 2 2 2
split_gain=0.553164 0.334106 0.64091 0.49318 0.38001 0.331408 0.154468 0.131933 0.0542402
threshold=1.5000000000000002 1.0000000180025095e-35 16.500000000000004 11.500000000000002 4.5000000000000009 3.5000000000000004 2.5000000000000004 1.5000000000000002 1.5000000000000002
decision_type=6 6 6 6 6 6 6 6 6
left_child=1 2 -1 4 8 6 7 -2 -3
right_child=5 3 -4 -5 -6 -7 -8 -9 -10
leaf_value=-0.002439996741837082 -0.0002031066382712626 -0.00016032307138486542 0.00025433632353805813 0.00083323943745661243 -0.001828526052738417 0.0018272078425536538 -0.000464213119520457 0.00055181872942990941 0.00045588613524630631
leaf_count=45 51 1656 34 118 32 41 46 301 30
internal_value=0 -0.0157884 -0.117259 -0.011137 -0.0182944 0.0451681 0.0294036 0.0417897 -0.0145207
internal_count=2354 1915 79 1836 1718 439 398 352 1686
shrinkage=0.01


Tree=97
num_leaves=3
num_cat=0
split_feature=1 0
split_gain=614.1 10.0445
threshold=1.0000000180025095e-35 1.0000000180025095e-35
decision_type=2 2
left_child=1 -1
right_child=-2 -3
leaf_value=-0.006612080163302868 0.010183737678709981 -0.0021655908776022628
leaf_count=1463 748 143
internal_value=0 -0.618574
internal_count=2354 1606
shrinkage=0.01


Tree=98
num_leaves=10
num_cat=0
split_feature=3 3 2 2 2 2 2 2 2
split_gain=0.559032 0.340726 0.639954 0.495264 0.368987 0.325289 0.150862 0.127613 0.0530458
threshold=1.5000000000000002 1.0000000180025095e-35 16.500000000000004 11.500000000000002 4.5000000000000009 3.5000000000000004 2.5000000000000004 1.5000000000000002 1.5000000000000002
decision_type=6 6 6 6 6 6 6 6 6
left_child=1 2 -1 4 8 6 7 -2 -3
right_child=5 3 -4 -5 -6 -7 -8 -9 -10
leaf_value=-0.0024492892327485642 -0.00018635085912610013 -0.00016064465459604093 0.00024258194480140897 0.00083590177967602741 -0.0018051451006641981 0.0018205811166282803 -0.00044881561054698485 0.00055269361414654247 0.000447825554427648
leaf_count=45 51 1656 34 118 32 41 46 301 30
internal_value=0 -0.0158161 -0.118309 -0.0111183 -0.0182982 0.0455111 0.0298555 0.0421034 -0.0145662
internal_count=2354 1915 79 1836 1718 439 398 352 1686
shrinkage=0.01


Tree=99
num_leaves=3
num_cat=0
split_feature=1 0
split_gain=608.307 10.0233
threshold=1.0000000180025095e-35 1.0000000180025095e-35
decision_type=2 2
left_child=1 -1
right_child=-2 -3
leaf_value=-0.0066013148223892102 0.010122199145037241 -0.0021569631394703324
leaf_count=1463 748 143
internal_value=0 -0.617425
internal_count=2354 1606
shrinkage=0.01


Tree=100
num_leaves=10
num_cat=0
split_feature=3 3 2 2 2 2 2 2 2
split_gain=0.564894 0.347334 0.638988 0.497329 0.358228 0.319266 0.147348 0.123429 0.0518782
threshold=1.5000000000000002 1.0000000180025095e-35 16.500000000000004 11.500000000000002 4.5000000000000009 3.5000000000000004 2.5000000000000004 1.5000000000000002 1.5000000000000002
decision_type=6 6 6 6 6 6 6 6 6
left_child=1 2 -1 4 8 6 7 -2 -3
right_child=5 3 -4 -5 -6 -7 -8 -9 -10
leaf_value=-0.0024584662863960283 -0.00016973693106566104 -0.00016097000533410501 0.0002309147378694483 0.00083854405693864617 -0.0017820337560425386 0.0018140221936472601 -0.00043355944491211835 0.00055357689115789266 0.00043982078009713462
leaf_count=45 51 1656 34 118 32 41 46 301 30
internal_value=0 -0.0158441 -0.119349 -0.0111002 -0.0183027 0.045853 0.0303051 0.0424162 -0.0146119
internal_count=2354 1915 79 1836 1718 439 398 352 1686
shrinkage=0.01


Tree=101
num_leaves=3
num_cat=0
split_feature=1 0
split_gain=602.595 10.0024
threshold=1.0000000180025095e-35 1.0000000180025095e-35
decision_type=2 2
left_child=1 -1
right_child=-2 -3
leaf_value=-0.0065906369319416449 0.010061619611567936 -0.0021483806863619834
leaf_count=1463 748 143
internal_value=0 -0.616284
internal_count=2354 1606
shrinkage=0.01


Tree=102
num_leaves=10
num_cat=0
split_feature=3 3 2 2 2 2 2 2 2
split_gain=0.57075 0.353928 0.638011 0.499373 0.347727 0.313339 0.143925 0.11938 0.0507371
threshold=1.5000000000000002 1.0000000180025095e-35 16.500000000000004 11.500000000000002 4.5000000000000009 3.5000000000000004 2.5000000000000004 1.5000000000000002 1.5000000000000002
decision_type=6 6 6 6 6 6 6 6 6
left_child=1 2 -1 4 8 6 7 -2 -3
right_child=5 3 -4 -5 -6 -7 -8 -9 -10
leaf_value=-0.0024675288196465352 -0.00015326271699058917 -0.00016129864948933624 0.00021933505158238574 0.00084116679429616483 -0.0017591871607478427 0.0018075304207969837 -0.0004184423466273426 0.00055446904412207365 0.00043187116140054523
leaf_count=45 51 1656 34 118 32 41 46 301 30
internal_value=0 -0.0158725 -0.12038 -0.0110826 -0.0183077 0.0461939 0.0307525 0.0427282 -0.0146577
internal_count=2354 1915 79 1836 1718 439 398 352 1686
shrinkage=0.01


Tree=103
num_leaves=3
num_cat=0
split_feature=1 0
split_gain=596.963 9.98165
threshold=1.0000000180025095e-35 1.0000000180025095e-35
decision_type=2 2
left_child=1 -1
right_child=-2 -3
leaf_value=-0.006580044596415602 0.010001975132282011 -0.0021398433277937034
leaf_count=1463 748 143
internal_value=0 -0.615151
internal_count=2354 1606
shrinkage=0.01


Tree=104
num_leaves=7
num_cat=0
split_feature=3 3 2 2 2 2
split_gain=0.459515 0.35894 0.190782 0.0490131 0.0661077 0.0483149
threshold=2.5000000000000004 1.0000000180025095e-35 13.500000000000002 12.500000000000002 3.5000000000000004 11.500000000000002
decision_type=6 6 6 6 6 6
left_child=1 -1 3 4 -3 -6
right_child=-2 2 -4 -5 5 -7
leaf_value=-0.0011341568098047006 0.00095170647386253794 -8.0168711877070389e-05 0.0009454059469788602 -0.00062198973858547542 0.00064411504716678492 -0
leaf_count=80 105 1999 43 39 52 36
internal_value=0 -0.00893661 -0.0048444 -0.00729441 -0.00584411 0.0338903
internal_count=2354 2249 2169 2126 2087 88
shrinkage=0.01


Tree=105
num_leaves=3
num_cat=0
split_feature=1 0
split_gain=587.644 8.66936
threshold=1.0000000180025095e-35 1.0000000180025095e-35
decision_type=2 2
left_child=1 -1
right_child=-2 -3
leaf_value=-0.0065512724387551393 0.0098505928355114552 -0.0023450003765146019
leaf_count=1461 754 139
internal_value=0 -0.615471
internal_count=2354 1600
shrinkage=0.01


Tree=106
num_leaves=7
num_cat=0
split_feature=3 3 2 2 2 2
split_gain=0.464437 0.367268 0.191735 0.0462716 0.0668352 0.0477375
threshold=2.5000000000000004 1.0000000180025095e-35 13.500000000000002 12.500000000000002 3.5000000000000004 11.500000000000002
decision_type=6 6 6 6 6 6
left_child=1 -1 3 4 -3 -6
right_child=-2 2 -4 -5 5 -7
leaf_value=-0.0011465133282764764 0.00095814519878260971 -8.008935309711925e-05 0.00094895824172249734 -0.00060708337696050254 0.00064481944334300655 -0
leaf_count=80 105 1999 43 39 52 36
internal_value=0 -0.00892694 -0.00478726 -0.00724605 -0.00582281 0.0341707
internal_count=2354 2249 2169 2126 2087 88
shrinkage=0.01


Tree=107
num_leaves=3
num_cat=0
split_feature=1 0
split_gain=582.219 8.65079
threshold=1.0000000180025095e-35 1.0000000180025095e-35
decision_type=2 2
left_child=1 -1
right_child=-2 -3
leaf_value=-0.0065407915562456067 0.0097934133731049922 -0.0023366041846874688
leaf_count=1461 754 139
internal_value=0 -0.614356
internal_count=2354 1600
shrinkage=0.01


Tree=108
num_leaves=7
num_cat=0
split_feature=3 3 2 2 2 2
split_gain=0.469349 0.375604 0.192678 0.0436293 0.0675633 0.0471567
threshold=2.5000000000000004 1.0000000180025095e-35 13.500000000000002 12.500000000000002 3.5000000000000004 11.500000000000002
decision_type=6 6 6 6 6 6
left_child=1 -1 3 4 -3 -6
right_child=-2 2 -4 -5 5 -7
leaf_value=-0.001158759947176921 0.00096456156559988687 -8.0013451463587361e-05 0.00095247836273292745 -0.00059232298773668752 0.00064552155432203025 -0
leaf_count=80 105 1999 43 39 52 36
internal_value=0 -0.00891762 -0.00473069 -0.00719825 -0.00580185 0.0344502
internal_count=2354 2249 2169 2126 2087 88
shrinkage=0.01


Tree=109
num_leaves=3
num_cat=0
split_feature=1 0
split_gain=576.867 8.63243
threshold=1.0000000180025095e-35 1.0000000180025095e-35
decision_type=2 2
left_child=1 -1
right_child=-2 -3
leaf_value=-0.0065303927318142484 0.0097370838565936386 -0.0023282516933518624
leaf_count=1461 754 139
internal_value=0 -0.613247
internal_count=2354 1600
shrinkage=0.01


Tree=110
num_leaves=7
num_cat=0
split_feature=3 3 2 2 2 2
split_gain=0.474251 0.383946 0.193609 0.0410839 0.0682918 0.0465726
threshold=2.5000000000000004 1.0000000180025095e-35 13.500000000000002 12.500000000000002 3.5000000000000004 11.500000000000002
decision_type=6 6 6 6 6 6
left_child=1 -1 3 4 -3 -6
right_child=-2 2 -4 -5 5 -7
leaf_value=-0.0011708969003630749 0.00097095647728613274 -7.9940458749558683e-05 0.00095596645171177176 -0.00057770593352522313 0.00064622084256264159 -0
leaf_count=80 105 1999 43 39 52 36
internal_value=0 -0.00890859 -0.00467464 -0.00715096 -0.00578118 0.0347288
internal_count=2354 2249 2169 2126 2087 88
shrinkage=0.01


Tree=111
num_leaves=3
num_cat=0
split_feature=1 0
split_gain=571.587 8.61427
threshold=1.0000000180025095e-35 1.0000000180025095e-35
decision_type=2 2
left_child=1 -1
right_child=-2 -3
leaf_value=-0.0065200753897065276 0.0096815832658054494 -0.0023199427042739002
leaf_count=1461 754 139
internal_value=0 -0.612146
internal_count=2354 1600
shrinkage=0.01


Tree=112
num_leaves=11
num_cat=0
split_feature=3 2 2 3 2 3 2 2 2 2
split_gain=1.82234 0.76752 0.560773 0.400093 0.0964654 0.421355 0.0399057 0.0324956 0.10258 0.00642347
threshold=1.0000000180025095e-35 14.500000000000002 12.500000000000002 1.5000000000000002 2.5000000000000004 2.5000000000000004 3.5000000000000004 11.500000000000002 5.5000000000000009 1.5000000000000002
decision_type=6 6 6 6 6 6 6 6 6 6
left_child=2 3 -1 7 5 -5 -6 8 9 -2
right_child=1 -3 -4 4 6 -7 -8 -9 -10 -11
leaf_value=-0.00066079834006665548 -0.0001781226842216281 0.0024102524868919516 -0.0036119587536171602 0.00023917446798663538 -0.00042977598985789836 0.0019504195343838522 0.00017563488693074568 -0.00051768947355387515 0.00071825372970341322 0
leaf_count=37 1644 30 46 319 43 41 49 79 28 38
internal_value=0 -0.00294787 -0.242487 -0.00665105 0.0342137 0.0461422 -0.00350296 -0.0174885 -0.0153782 -0.0173387
internal_count=2354 2271 83 2241 452 360 92 1789 1710 1682
shrinkage=0.01


Tree=113
num_leaves=3
num_cat=0
split_feature=1 0
split_gain=562.009 13.3851
threshold=1.0000000180025095e-35 1.0000000180025095e-35
decision_type=2 2
left_child=1 -1
right_child=-2 -3
leaf_value=-0.0064907198806224906 0.0096971892314119956 -0.0013289497864252505
leaf_count=1462 751 141
internal_value=0 -0.59922
internal_count=2354 1603
shrinkage=0.01


Tree=114
num_leaves=11
num_cat=0
split_feature=3 2 2 3 2 3 2 2 2 2
split_gain=1.82722 0.764001 0.5457 0.405395 0.0944828 0.422909 0.0383267 0.0295364 0.103256 0.00660117
threshold=1.0000000180025095e-35 14.500000000000002 12.500000000000002 1.5000000000000002 2.5000000000000004 2.5000000000000004 3.5000000000000004 11.500000000000002 5.5000000000000009 1.5000000000000002
decision_type=6 6 6 6 6 6 6 6 6 6
left_child=2 3 -1 7 5 -5 -6 8 9 -2
right_child=1 -3 -4 4 6 -7 -8 -9 -10 -11
leaf_value=-0.00067835633622063572 -0.00017835117064852717 0.0024074028258405256 -0.00359912643121744 0.00024156026990020609 -0.00041549800906688617 0.0019574030807145561 0.00018185549585951277 -0.00050496812717645151 0.00072177678147152837 0
leaf_count=37 1644 30 46 319 43 41 49 79 28 38
internal_value=0 -0.0028191 -0.24271 -0.00651902 0.0346555 0.0464425 -0.00248904 -0.017438 -0.0153849 -0.0173536
internal_count=2354 2271 83 2241 452 360 92 1789 1710 1682
shrinkage=0.01


Tree=115
num_leaves=3
num_cat=0
split_feature=1 0
split_gain=556.885 13.3367
threshold=1.0000000180025095e-35 1.0000000180025095e-35
decision_type=2 2
left_child=1 -1
right_child=-2 -3
leaf_value=-0.0064806182528869532 0.009642682946684555 -0.0013266671252723408
leaf_count=1462 751 141
internal_value=0 -0.598145
internal_count=2354 1603
shrinkage=0.01


Tree=116
num_leaves=11
num_cat=0
split_feature=3 2 2 3 2 3 2 2 2 2
split_gain=1.83201 0.760494 0.530887 0.410697 0.0925546 0.424455 0.0367751 0.026712 0.103925 0.00677853
threshold=1.0000000180025095e-35 14.500000000000002 12.500000000000002 1.5000000000000002 2.5000000000000004 2.5000000000000004 3.5000000000000004 11.500000000000002 5.5000000000000009 1.5000000000000002
decision_type=6 6 6 6 6 6 6 6 6 6
left_child=2 3 -1 7 5 -5 -6 8 9 -2
right_child=1 -3 -4 4 6 -7 -8 -9 -10 -11
leaf_value=-0.0006958027439808971 -0.00017858455394158829 0.0024045520959600111 -0.0035863735998265746 0.0002439373830052697 -0.00040134543872024595 0.0019643807427542305 0.0001880303474903413 -0.00049237215819542327 0.0007252650776362542 0
leaf_count=37 1644 30 46 319 43 41 49 79 28 38
internal_value=0 -0.00269145 -0.242928 -0.00638816 0.0350952 0.0467421 -0.00148307 -0.0173885 -0.0153921 -0.017369
internal_count=2354 2271 83 2241 452 360 92 1789 1710 1682
shrinkage=0.01


Tree=117
num_leaves=3
num_cat=0
split_feature=1 0
split_gain=551.829 13.2888
threshold=1.0000000180025095e-35 1.0000000180025095e-35
decision_type=2 2
left_child=1 -1
right_child=-2 -3
leaf_value=-0.0064705934007352811 0.0095889744728732112 -0.0013243842033911341
leaf_count=1462 751 141
internal_value=0 -0.597078
internal_count=2354 1603
shrinkage=0.01


Tree=118
num_leaves=11
num_cat=0
split_feature=3 2 2 3 2 3 2 2 2 2
split_gain=1.83671 0.756998 0.516331 0.415999 0.0906798 0.425991 0.0352503 0.0240189 0.104589 0.0069556
threshold=1.0000000180025095e-35 14.500000000000002 12.500000000000002 1.5000000000000002 2.5000000000000004 2.5000000000000004 3.5000000000000004 11.500000000000002 5.5000000000000009 1.5000000000000002
decision_type=6 6 6 6 6 6 6 6 6 6
left_child=2 3 -1 7 5 -5 -6 8 9 -2
right_child=1 -3 -4 4 6 -7 -8 -9 -10 -11
leaf_value=-0.00071313816545058746 -0.00017882286369069132 0.0024017003260224062 -0.0035736998498383877 0.00024630640185212358 -0.00038731607394514164 0.0019713525447329189 0.00019416083771588388 -0.00047989926913937094 0.0007287191143029515 0
leaf_count=37 1644 30 46 319 43 41 49 79 28 38
internal_value=0 -0.00256489 -0.243141 -0.00625846 0.0355328 0.047041 -0.000484868 -0.0173399 -0.0153998 -0.0173849
internal_count=2354 2271 83 2241 452 360 92 1789 1710 1682
shrinkage=0.01


Tree=119
num_leaves=3
num_cat=0
split_feature=1 0
split_gain=546.84 13.2413
threshold=1.0000000180025095e-35 1.0000000180025095e-35
decision_type=2 2
left_child=1 -1
right_child=-2 -3
leaf_value=-0.0064606438672781341 0.0095360444997972978 -0.0013221007538768085
leaf_count=1462 751 141
internal_value=0 -0.596016
internal_count=2354 1603
shrinkage=0.01


Tree=120
num_leaves=13
num_cat=0
split_feature=2 3 2 2 3 2 2 2 3 3 2 2
split_gain=0.90019 1.06514 0.654563 0.458574 0.426882 0.393496 0.156364 0.141799 0.14463 0.0850015 0.0846124 0.0193826
threshold=3.5000000000000004 1.0000000180025095e-35 14.500000000000002 12.500000000000002 1.5000000000000002 16.500000000000004 1.5000000000000002 1.5000000000000002 2.5000000000000004 3.5000000000000004 2.5000000000000004 10.500000000000002
decision_type=6 6 6 6 6 6 6 6 6 6 6 6
left_child=4 5 3 11 6 -2 -1 -6 -9 10 -10 -3
right_child=1 2 -4 -5 7 -7 -8 8 9 -11 -12 -13
leaf_value=-0.00010612403275805076 0.00035664357043135284 0.0021143444425327576 0.0037416451333276402 -0 0.0012037439074959442 -0.0020236294964169317 -0.0011798175156904872 8.7425679042000564e-05 0.0019696883705243124 0 0.00024242085938084429 0.0010877520297103743
leaf_count=1650 28 55 30 55 55 32 36 281 26 27 24 55
internal_value=0 0.0959047 0.152004 0.107528 -0.00180566 -0.0804084 -0.0133629 0.0426886 0.0284891 0.0885753 0.127016 0.166396
internal_count=2354 255 195 165 2099 60 1686 413 358 77 50 110
shrinkage=0.01


Tree=121
num_leaves=3
num_cat=0
split_feature=1 0
split_gain=532.954 9.21068
threshold=1.0000000180025095e-35 1.0000000180025095e-35
decision_type=2 2
left_child=1 -1
right_child=-2 -3
leaf_value=-0.0064699872384311533 0.0093114864931391015 -0.0022472223110631866
leaf_count=1466 740 148
internal_value=0 -0.604132
internal_count=2354 1614
shrinkage=0.01


Tree=122
num_leaves=13
num_cat=0
split_feature=2 3 2 2 3 2 2 2 3 3 2 2
split_gain=0.892015 1.07125 0.646055 0.452347 0.43564 0.388838 0.154929 0.141352 0.146971 0.0828727 0.0819934 0.0184746
threshold=3.5000000000000004 1.0000000180025095e-35 14.500000000000002 12.500000000000002 1.5000000000000002 16.500000000000004 1.5000000000000002 1.5000000000000002 2.5000000000000004 3.5000000000000004 2.5000000000000004 10.500000000000002
decision_type=6 6 6 6 6 6 6 6 6 6 6 6
left_child=4 5 3 11 6 -2 -1 -6 -9 10 -10 -3
right_child=1 2 -4 -5 7 -7 -8 8 9 -11 -12 -13
leaf_value=-0.00010768077214316156 0.000338212447656911 0.0021095327295309048 0.0037294850589057321 -0 0.0012087016229459921 -0.0020249336034209807 -0.001177690604678561 9.0414702124478734e-05 0.0019717623287841689 0 0.00025505956936841328 0.0010866923173185629
leaf_count=1650 28 55 30 55 55 32 36 281 26 27 24 55
internal_value=0 0.0955106 0.151841 0.107574 -0.00182837 -0.0814235 -0.0135129 0.0431597 0.0289528 0.0895788 0.127739 0.166103
internal_count=2354 255 195 165 2099 60 1686 413 358 77 50 110
shrinkage=0.01


Tree=123
num_leaves=3
num_cat=0
split_feature=1 0
split_gain=528.207 9.20323
threshold=1.0000000180025095e-35 1.0000000180025095e-35
decision_type=2 2
left_child=1 -1
right_child=-2 -3
leaf_value=-0.0064600546576563216 0.0092616368843368973 -0.0022360113136742684
leaf_count=1466 740 148
internal_value=0 -0.60304
internal_count=2354 1614
shrinkage=0.01


Tree=124
num_leaves=13
num_cat=0
split_feature=2 3 2 2 3 2 2 2 3 3 2 2
split_gain=0.883957 1.0773 0.637638 0.446169 0.444435 0.384235 0.153508 0.140906 0.149324 0.0807038 0.0794116 0.0175784
threshold=3.5000000000000004 1.0000000180025095e-35 14.500000000000002 12.500000000000002 1.5000000000000002 16.500000000000004 1.5000000000000002 1.5000000000000002 2.5000000000000004 3.5000000000000004 2.5000000000000004 10.500000000000002
decision_type=6 6 6 6 6 6 6 6 6 6 6 6
left_child=4 5 3 11 6 -2 -1 -6 -9 10 -10 -3
right_child=1 2 -4 -5 7 -7 -8 8 9 -11 -12 -13
leaf_value=-0.00010923117983928607 0.00031990208852223154 0.0021047791964057937 0.0037174059237541123 -0 0.001213657258977065 -0.0020261657885161516 -0.0011755933024369359 9.3389659019708728e-05 0.0019738663247702145 0 0.00026760945796274122 0.001085651315544142
leaf_count=1650 28 55 30 55 55 32 36 281 26 27 24 55
internal_value=0 0.0951209 0.151683 0.107623 -0.00185082 -0.0824276 -0.0136624 0.0436297 0.0294152 0.0905807 0.128461 0.165813
internal_count=2354 255 195 165 2099 60 1686 413 358 77 50 110
shrinkage=0.01


Tree=125
num_leaves=3
num_cat=0
split_feature=1 0
split_gain=523.521 9.19584
threshold=1.0000000180025095e-35 1.0000000180025095e-35
decision_type=2 2
left_child=1 -1
right_child=-2 -3
leaf_value=-0.0064502003238182913 0.009212465880917408 -0.002224869764956788
leaf_count=1466 740 148
internal_value=0 -0.601955
internal_count=2354 1614
shrinkage=0.01


Tree=126
num_leaves=13
num_cat=0
split_feature=2 3 2 3 2 2 2 2 3 3 2 2
split_gain=0.876015 1.08332 0.62931 0.453264 0.440038 0.379686 0.152104 0.140462 0.15169 0.078495 0.0768661 0.0166939
threshold=3.5000000000000004 1.0000000180025095e-35 14.500000000000002 1.5000000000000002 12.500000000000002 16.500000000000004 1.5000000000000002 1.5000000000000002 2.5000000000000004 3.5000000000000004 2.5000000000000004 10.500000000000002
decision_type=6 6 6 6 6 6 6 6 6 6 6 6
left_child=3 5 4 6 11 -2 -1 -5 -9 10 -10 -3
right_child=1 2 -4 7 -6 -7 -8 8 9 -11 -12 -13
leaf_value=-0.00011077440802515633 0.00030171199371166273 0.0021000830638617535 0.003705406515711173 0.0012186106825065352 -0 -0.0020273251573900771 -0.0011735258612851451 9.635051866001401e-05 0.0019759998623869062 0 0.00028007301992929876 0.0010846293149555227
leaf_count=1650 28 55 30 55 55 32 36 281 26 27 24 55
internal_value=0 0.0947358 0.151528 -0.00187296 0.107674 -0.0834207 -0.0138112 0.0440986 0.0298762 0.0915809 0.129182 0.165528
internal_count=2354 255 195 2099 165 60 1686 413 358 77 50 110
shrinkage=0.01


Tree=127
num_leaves=3
num_cat=0
split_feature=1 0
split_gain=518.893 9.18851
threshold=1.0000000180025095e-35 1.0000000180025095e-35
decision_type=2 2
left_child=1 -1
right_child=-2 -3
leaf_value=-0.0064404245608158175 0.009163957201673718 -0.0022137973145880591
leaf_count=1466 740 148
internal_value=0 -0.600877
internal_count=2354 1614
shrinkage=0.01


Tree=128
num_leaves=10
num_cat=0
split_feature=3 2 3 3 2 3 2 2 2
split_gain=0.69291 0.475648 0.409888 0.0443194 0.0112845 0.0107416 0.0290234 0.0289623 0.0169899
threshold=3.5000000000000004 14.500000000000002 1.0000000180025095e-35 2.5000000000000004 16.500000000000004 1.5000000000000002 4.5000000000000009 3.5000000000000004 1.5000000000000002
decision_type=6 6 6 6 4 6 6 6 6
left_child=1 2 -1 5 -3 6 8 -7 -4
right_child=-2 4 3 -5 -6 7 -8 -9 -10
leaf_value=-0.0015589148824559124 0.0022324079484260014 0.0019675454588157231 8.9080392284537503e-05 0.00062469703402341604 0.00084994237578138584 0.00027508601803473041 0.00034772501514059864 -0.00010855571397696485 -0.00020224498238430858
leaf_count=37 41 29 1634 52 47 329 123 26 36
internal_value=0 0.0157544 0.0111521 0.0141743 0.137762 0.0126026 0.0101903 0.0225221 0.00781478
internal_count=2354 2313 2237 2200 76 2148 1793 355 1670
shrinkage=0.01


Tree=129
num_leaves=3
num_cat=0
split_feature=1 0
split_gain=517.805 6.1831
threshold=1.0000000180025095e-35 1.0000000180025095e-35
decision_type=2 2
left_child=1 -1
right_child=-2 -3
leaf_value=-0.0064119533647235862 0.0091731225670792348 -0.0029298215156463516
leaf_count=1478 726 150
internal_value=0 -0.605482
internal_count=2354 1628
shrinkage=0.01


Tree=130
num_leaves=10
num_cat=0
split_feature=3 2 3 3 3 2 2 2 2
split_gain=0.693466 0.467173 0.417563 0.0462014 0.0124176 0.0305547 0.0288965 0.0164276 0.0111664
threshold=3.5000000000000004 14.500000000000002 1.0000000180025095e-35 2.5000000000000004 1.5000000000000002 4.5000000000000009 3.5000000000000004 1.5000000000000002 16.500000000000004
decision_type=6 6 6 6 6 6 6 6 4
left_child=1 2 -1 4 5 7 -6 -4 -3
right_child=-2 8 3 -5 6 -7 -8 -9 -10
leaf_value=-0.001577533443191566 0.0022337513654234527 0.0019535962394311695 8.6475489279633452e-05 0.00063249027706679018 0.00027824317424202712 0.00035075666316811154 -0.00010218357748684297 -0.00020011846067475436 0.00084009233422522385
leaf_count=37 41 29 1634 52 329 123 26 36 47
internal_value=0 0.0155991 0.0110291 0.0140809 0.0124859 0.00998152 0.0228571 0.00756349 0.136618
internal_count=2354 2313 2237 2200 2148 1793 355 1670 76
shrinkage=0.01


Tree=131
num_leaves=3
num_cat=0
split_feature=1 0
split_gain=513.297 6.18336
threshold=1.0000000180025095e-35 1.0000000180025095e-35
decision_type=2 2
left_child=1 -1
right_child=-2 -3
leaf_value=-0.006402094858364289 0.0091262478951897492 -0.0029170955285810576
leaf_count=1478 726 150
internal_value=0 -0.604401
internal_count=2354 1628
shrinkage=0.01


Tree=132
num_leaves=10
num_cat=0
split_feature=3 2 3 3 2 3 2 2 2
split_gain=0.694026 0.458839 0.425239 0.048625 0.139212 0.0389197 0.0321014 0.0158764 0.0110502
threshold=3.5000000000000004 14.500000000000002 1.0000000180025095e-35 1.5000000000000002 4.5000000000000009 2.5000000000000004 4.5000000000000009 1.5000000000000002 16.500000000000004
decision_type=6 6 6 6 6 6 6 6 4
left_child=1 2 -1 6 5 -5 7 -4 -3
right_child=-2 8 3 4 -6 -7 -8 -9 -10
leaf_value=-0.0015960088987146733 0.0022351371095694047 0.0019397368126773291 8.3888435332417542e-05 0.00029258482270474686 -0.00073432384341177829 0.00087819481437780792 0.00035377323111522032 -0.00019800494828158658 0.00083031792240113704
leaf_count=37 41 29 1634 333 24 50 123 36 47
internal_value=0 0.0154452 0.0109073 0.0139885 0.0303928 0.0391097 0.00977428 0.0073139 0.135481
internal_count=2354 2313 2237 2200 407 383 1793 1670 76
shrinkage=0.01


Tree=133
num_leaves=3
num_cat=0
split_feature=1 0
split_gain=508.844 6.18367
threshold=1.0000000180025095e-35 1.0000000180025095e-35
decision_type=2 2
left_child=1 -1
right_child=-2 -3
leaf_value=-0.0063923152564364285 0.0090799887155252369 -0.0029044338968949985
leaf_count=1478 726 150
internal_value=0 -0.603327
internal_count=2354 1628
shrinkage=0.01


Tree=134
num_leaves=10
num_cat=0
split_feature=3 2 3 3 2 3 2 2 2
split_gain=0.694591 0.450644 0.432915 0.0519339 0.138274 0.0396268 0.033663 0.0153361 0.0109359
threshold=3.5000000000000004 14.500000000000002 1.0000000180025095e-35 1.5000000000000002 4.5000000000000009 2.5000000000000004 4.5000000000000009 1.5000000000000002 16.500000000000004
decision_type=6 6 6 6 6 6 6 6 4
left_child=1 2 -1 6 5 -5 7 -4 -3
right_child=-2 8 3 4 -6 -7 -8 -9 -10
leaf_value=-0.0016143417240670757 0.0022365658280236031 0.0019259662162999216 8.1318880692216985e-05 0.00029560737789482939 -0.00072564965404372313 0.00088611591226114925 0.00035677497747324831 -0.00019590507270995439 0.00082061860940140874
leaf_count=37 41 29 1634 333 24 50 123 36 47
internal_value=0 0.0152928 0.0107866 0.0138972 0.0307876 0.039483 0.00956857 0.007066 0.134354
internal_count=2354 2313 2237 2200 407 383 1793 1670 76
shrinkage=0.01


Tree=135
num_leaves=3
num_cat=0
split_feature=1 0
split_gain=504.447 6.18345
threshold=1.0000000180025095e-35 1.0000000180025095e-35
decision_type=2 2
left_child=1 -1
right_child=-2 -3
leaf_value=-0.0063826079629325863 0.00903434730495393 -0.0028920184286141746
leaf_count=1478 726 150
internal_value=0 -0.602261
internal_count=2354 1628
shrinkage=0.01


Tree=136
num_leaves=11
num_cat=0
split_feature=3 2 2 2 2 3 2 3 2 3
split_gain=2.46166 1.38463 0.265051 0.158083 0.127548 0.115967 0.0921654 0.080261 0.0174802 0.0344951
threshold=1.0000000180025095e-35 11.500000000000002 13.500000000000002 9.5000000000000018 1.5000000000000002 1.5000000000000002 3.5000000000000004 1.5000000000000002 2.5000000000000004 2.5000000000000004
decision_type=6 6 4 6 6 6 6 6 6 6
left_child=2 3 -1 4 7 -6 8 -2 9 -7
right_child=1 -3 -4 -5 5 6 -8 -9 -10 -11
leaf_value=-0.0038130949926330486 6.5434715719791238e-05 0.0019582764850173727 -0.0014716123275355822 -0.0009806077330311708 0.0011866290836756678 0.00013671285323311208 0.0011237932887908926 0.00071529943163132581 -0 0.00071444760158647931
leaf_count=36 1642 108 43 27 49 283 33 51 43 39
internal_value=0 0.0233633 -0.261263 0.014083 0.0159754 0.0401062 0.0287583 0.00902541 0.0189591 0.0233254
internal_count=2354 2275 79 2167 2140 447 398 1693 365 322
shrinkage=0.01


Tree=137
num_leaves=3
num_cat=0
split_feature=1 0
split_gain=492.963 12.2375
threshold=1.0000000180025095e-35 1.0000000180025095e-35
decision_type=2 2
left_child=1 -1
right_child=-2 -3
leaf_value=-0.0064120688067008623 0.0089899344618693099 -0.0015871239761498612
leaf_count=1478 725 151
internal_value=0 -0.590813
internal_count=2354 1629
shrinkage=0.01


Tree=138
num_leaves=11
num_cat=0
split_feature=3 2 2 2 2 3 2 3 2 3
split_gain=2.45963 1.37798 0.264377 0.153457 0.132356 0.111932 0.0918563 0.0825458 0.0172592 0.0358065
threshold=1.0000000180025095e-35 11.500000000000002 13.500000000000002 9.5000000000000018 1.5000000000000002 1.5000000000000002 3.5000000000000004 1.5000000000000002 2.5000000000000004 2.5000000000000004
decision_type=6 6 4 6 6 6 6 6 6 6
left_child=2 3 -1 4 7 -6 8 -2 9 -7
right_child=1 -3 -4 -5 5 6 -8 -9 -10 -11
leaf_value=-0.0038118927830823714 6.2958035824709494e-05 0.0019546525991519909 -0.0014722602703532419 -0.00096437737293765817 0.0011799252879776878 0.00013934732077641406 0.0011290065282343934 0.00072152098744971002 -0 0.00072676925364010745
leaf_count=36 1642 108 43 27 49 283 33 51 43 39
internal_value=0 0.0232778 -0.261248 0.014007 0.015879 0.040452 0.0292276 0.00880681 0.0194175 0.0237202
internal_count=2354 2275 79 2167 2140 447 398 1693 365 322
shrinkage=0.01


Tree=139
num_leaves=3
num_cat=0
split_feature=1 0
split_gain=488.725 12.2098
threshold=1.0000000180025095e-35 1.0000000180025095e-35
decision_type=2 2
left_child=1 -1
right_child=-2 -3
leaf_value=-0.0064026393872466661 0.0089453861101450836 -0.0015807225746405041
leaf_count=1478 725 151
internal_value=0 -0.589771
internal_count=2354 1629
shrinkage=0.01


Tree=140
num_leaves=11
num_cat=0
split_feature=3 2 2 2 2 3 2 3 3 2
split_gain=2.45754 1.37136 0.263702 0.148945 0.137215 0.107977 0.0915461 0.0848419 0.0180437 0.0261935
threshold=1.0000000180025095e-35 11.500000000000002 13.500000000000002 9.5000000000000018 1.5000000000000002 1.5000000000000002 3.5000000000000004 1.5000000000000002 2.5000000000000004 2.5000000000000004
decision_type=6 6 4 6 6 6 6 6 6 6
left_child=2 3 -1 4 7 -6 8 -2 -7 -10
right_child=1 -3 -4 -5 5 6 -8 -9 9 -11
leaf_value=-0.0038106359453435722 6.04970677698516e-05 0.0019510556064352455 -0.0014728687939509044 -0.00094829744359480354 0.001173275012762617 0.00010509736527555222 0.0011342070079090592 0.00072772590831105325 0.00073902864936761 0
leaf_count=36 1642 108 43 27 49 291 33 51 39 35
internal_value=0 0.0231935 -0.261228 0.013932 0.0157837 0.0407975 0.0296956 0.00858971 0.0198745 0.0452009
internal_count=2354 2275 79 2167 2140 447 398 1693 365 74
shrinkage=0.01


Tree=141
num_leaves=3
num_cat=0
split_feature=1 0
split_gain=484.539 12.1824
threshold=1.0000000180025095e-35 1.0000000180025095e-35
decision_type=2 2
left_child=1 -1
right_child=-2 -3
leaf_value=-0.006393286715487315 0.0089014071895284781 -0.0015743597922897878
leaf_count=1478 725 151
internal_value=0 -0.588735
internal_count=2354 1629
shrinkage=0.01


Tree=142
num_leaves=11
num_cat=0
split_feature=3 2 2 2 2 3 2 3 3 2
split_gain=2.45543 1.36476 0.263026 0.144549 0.14222 0.10406 0.0911979 0.0871491 0.019237 0.0258475
