tree
version=v2
num_class=2
num_tree_per_iteration=2
label_index=0
max_feature_idx=3071
objective=multiclass num_class:2
feature_names=Column_0 Column_1 Column_2 Column_3 Column_4 Column_5 Column_6 Column_7 Column_8 Column_9 Column_10 Column_11 Column_12 Column_13 Column_14 Column_15 Column_16 Column_17 Column_18 Column_19 Column_20 Column_21 Column_22 Column_23 Column_24 Column_25 Column_26 Column_27 Column_28 Column_29 Column_30 Column_31 Column_32 Column_33 Column_34 Column_35 Column_36 Column_37 Column_38 Column_39 Column_40 Column_41 Column_42 Column_43 Column_44 Column_45 Column_46 Column_47 Column_48 Column_49 Column_50 Column_51 Column_52 Column_53 Column_54 Column_55 Column_56 Column_57 Column_58 Column_59 Column_60 Column_61 Column_62 Column_63 Column_64 Column_65 Column_66 Column_67 Column_68 Column_69 Column_70 Column_71 Column_72 Column_73 Column_74 Column_75 Column_76 Column_77 Column_78 Column_79 Column_80 Column_81 Column_82 Column_83 Column_84 Column_85 Column_86 Column_87 Column_88 Column_89 Column_90 Column_91 Column_92 Column_93 Column_94 Column_95 Column_96 Column_97 Column_98 Column_99 Column_100 Column_101 Column_102 Column_103 Column_104 Column_105 Column_106 Column_107 Column_108 Column_109 Column_110 Column_111 Column_112 Column_113 Column_114 Column_115 Column_116 Column_117 Column_118 Column_119 Column_120 Column_121 Column_122 Column_123 Column_124 Column_125 Column_126 Column_127 Column_128 Column_129 Column_130 Column_131 Column_132 Column_133 Column_134 Column_135 Column_136 Column_137 Column_138 Column_139 Column_140 Column_141 Column_142 Column_143 Column_144 Column_145 Column_146 Column_147 Column_148 Column_149 Column_150 Column_151 Column_152 Column_153 Column_154 Column_155 Column_156 Column_157 Column_158 Column_159 Column_160 Column_161 Column_162 Column_163 Column_164 Column_165 Column_166 Column_167 Column_168 Column_169 Column_170 Column_171 Column_172 Column_173 Column_174 Column_175 Column_176 Column_177 Column_178 Column_179 Column_180 Column_181 Column_182 Column_183 Column_184 Column_185 Column_186 Column_187 Column_188 Column_189 Column_190 Column_191 Column_192 Column_193 Column_194 Column_195 Column_196 Column_197 Column_198 Column_199 Column_200 Column_201 Column_202 Column_203 Column_204 Column_205 Column_206 Column_207 Column_208 Column_209 Column_210 Column_211 Column_212 Column_213 Column_214 Column_215 Column_216 Column_217 Column_218 Column_219 Column_220 Column_221 Column_222 Column_223 Column_224 Column_225 Column_226 Column_227 Column_228 Column_229 Column_230 Column_231 Column_232 Column_233 Column_234 Column_235 Column_236 Column_237 Column_238 Column_239 Column_240 Column_241 Column_242 Column_243 Column_244 Column_245 Column_246 Column_247 Column_248 Column_249 Column_250 Column_251 Column_252 Column_253 Column_254 Column_255 Column_256 Column_257 Column_258 Column_259 Column_260 Column_261 Column_262 Column_263 Column_264 Column_265 Column_266 Column_267 Column_268 Column_269 Column_270 Column_271 Column_272 Column_273 Column_274 Column_275 Column_276 Column_277 Column_278 Column_279 Column_280 Column_281 Column_282 Column_283 Column_284 Column_285 Column_286 Column_287 Column_288 Column_289 Column_290 Column_291 Column_292 Column_293 Column_294 Column_295 Column_296 Column_297 Column_298 Column_299 Column_300 Column_301 Column_302 Column_303 Column_304 Column_305 Column_306 Column_307 Column_308 Column_309 Column_310 Column_311 Column_312 Column_313 Column_314 Column_315 Column_316 Column_317 Column_318 Column_319 Column_320 Column_321 Column_322 Column_323 Column_324 Column_325 Column_326 Column_327 Column_328 Column_329 Column_330 Column_331 Column_332 Column_333 Column_334 Column_335 Column_336 Column_337 Column_338 Column_339 Column_340 Column_341 Column_342 Column_343 Column_344 Column_345 Column_346 Column_347 Column_348 Column_349 Column_350 Column_351 Column_352 Column_353 Column_354 Column_355 Column_356 Column_357 Column_358 Column_359 Column_360 Column_361 Column_362 Column_363 Column_364 Column_365 Column_366 Column_367 Column_368 Column_369 Column_370 Column_371 Column_372 Column_373 Column_374 Column_375 Column_376 Column_377 Column_378 Column_379 Column_380 Column_381 Column_382 Column_383 Column_384 Column_385 Column_386 Column_387 Column_388 Column_389 Column_390 Column_391 Column_392 Column_393 Column_394 Column_395 Column_396 Column_397 Column_398 Column_399 Column_400 Column_401 Column_402 Column_403 Column_404 Column_405 Column_406 Column_407 Column_408 Column_409 Column_410 Column_411 Column_412 Column_413 Column_414 Column_415 Column_416 Column_417 Column_418 Column_419 Column_420 Column_421 Column_422 Column_423 Column_424 Column_425 Column_426 Column_427 Column_428 Column_429 Column_430 Column_431 Column_432 Column_433 Column_434 Column_435 Column_436 Column_437 Column_438 Column_439 Column_440 Column_441 Column_442 Column_443 Column_444 Column_445 Column_446 Column_447 Column_448 Column_449 Column_450 Column_451 Column_452 Column_453 Column_454 Column_455 Column_456 Column_457 Column_458 Column_459 Column_460 Column_461 Column_462 Column_463 Column_464 Column_465 Column_466 Column_467 Column_468 Column_469 Column_470 Column_471 Column_472 Column_473 Column_474 Column_475 Column_476 Column_477 Column_478 Column_479 Column_480 Column_481 Column_482 Column_483 Column_484 Column_485 Column_486 Column_487 Column_488 Column_489 Column_490 Column_491 Column_492 Column_493 Column_494 Column_495 Column_496 Column_497 Column_498 Column_499 Column_500 Column_501 Column_502 Column_503 Column_504 Column_505 Column_506 Column_507 Column_508 Column_509 Column_510 Column_511 Column_512 Column_513 Column_514 Column_515 Column_516 Column_517 Column_518 Column_519 Column_520 Column_521 Column_522 Column_523 Column_524 Column_525 Column_526 Column_527 Column_528 Column_529 Column_530 Column_531 Column_532 Column_533 Column_534 Column_535 Column_536 Column_537 Column_538 Column_539 Column_540 Column_541 Column_542 Column_543 Column_544 Column_545 Column_546 Column_547 Column_548 Column_549 Column_550 Column_551 Column_552 Column_553 Column_554 Column_555 Column_556 Column_557 Column_558 Column_559 Column_560 Column_561 Column_562 Column_563 Column_564 Column_565 Column_566 Column_567 Column_568 Column_569 Column_570 Column_571 Column_572 Column_573 Column_574 Column_575 Column_576 Column_577 Column_578 Column_579 Column_580 Column_581 Column_582 Column_583 Column_584 Column_585 Column_586 Column_587 Column_588 Column_589 Column_590 Column_591 Column_592 Column_593 Column_594 Column_595 Column_596 Column_597 Column_598 Column_599 Column_600 Column_601 Column_602 Column_603 Column_604 Column_605 Column_606 Column_607 Column_608 Column_609 Column_610 Column_611 Column_612 Column_613 Column_614 Column_615 Column_616 Column_617 Column_618 Column_619 Column_620 Column_621 Column_622 Column_623 Column_624 Column_625 Column_626 Column_627 Column_628 Column_629 Column_630 Column_631 Column_632 Column_633 Column_634 Column_635 Column_636 Column_637 Column_638 Column_639 Column_640 Column_641 Column_642 Column_643 Column_644 Column_645 Column_646 Column_647 Column_648 Column_649 Column_650 Column_651 Column_652 Column_653 Column_654 Column_655 Column_656 Column_657 Column_658 Column_659 Column_660 Column_661 Column_662 Column_663 Column_664 Column_665 Column_666 Column_667 Column_668 Column_669 Column_670 Column_671 Column_672 Column_673 Column_674 Column_675 Column_676 Column_677 Column_678 Column_679 Column_680 Column_681 Column_682 Column_683 Column_684 Column_685 Column_686 Column_687 Column_688 Column_689 Column_690 Column_691 Column_692 Column_693 Column_694 Column_695 Column_696 Column_697 Column_698 Column_699 Column_700 Column_701 Column_702 Column_703 Column_704 Column_705 Column_706 Column_707 Column_708 Column_709 Column_710 Column_711 Column_712 Column_713 Column_714 Column_715 Column_716 Column_717 Column_718 Column_719 Column_720 Column_721 Column_722 Column_723 Column_724 Column_725 Column_726 Column_727 Column_728 Column_729 Column_730 Column_731 Column_732 Column_733 Column_734 Column_735 Column_736 Column_737 Column_738 Column_739 Column_740 Column_741 Column_742 Column_743 Column_744 Column_745 Column_746 Column_747 Column_748 Column_749 Column_750 Column_751 Column_752 Column_753 Column_754 Column_755 Column_756 Column_757 Column_758 Column_759 Column_760 Column_761 Column_762 Column_763 Column_764 Column_765 Column_766 Column_767 Column_768 Column_769 Column_770 Column_771 Column_772 Column_773 Column_774 Column_775 Column_776 Column_777 Column_778 Column_779 Column_780 Column_781 Column_782 Column_783 Column_784 Column_785 Column_786 Column_787 Column_788 Column_789 Column_790 Column_791 Column_792 Column_793 Column_794 Column_795 Column_796 Column_797 Column_798 Column_799 Column_800 Column_801 Column_802 Column_803 Column_804 Column_805 Column_806 Column_807 Column_808 Column_809 Column_810 Column_811 Column_812 Column_813 Column_814 Column_815 Column_816 Column_817 Column_818 Column_819 Column_820 Column_821 Column_822 Column_823 Column_824 Column_825 Column_826 Column_827 Column_828 Column_829 Column_830 Column_831 Column_832 Column_833 Column_834 Column_835 Column_836 Column_837 Column_838 Column_839 Column_840 Column_841 Column_842 Column_843 Column_844 Column_845 Column_846 Column_847 Column_848 Column_849 Column_850 Column_851 Column_852 Column_853 Column_854 Column_855 Column_856 Column_857 Column_858 Column_859 Column_860 Column_861 Column_862 Column_863 Column_864 Column_865 Column_866 Column_867 Column_868 Column_869 Column_870 Column_871 Column_872 Column_873 Column_874 Column_875 Column_876 Column_877 Column_878 Column_879 Column_880 Column_881 Column_882 Column_883 Column_884 Column_885 Column_886 Column_887 Column_888 Column_889 Column_890 Column_891 Column_892 Column_893 Column_894 Column_895 Column_896 Column_897 Column_898 Column_899 Column_900 Column_901 Column_902 Column_903 Column_904 Column_905 Column_906 Column_907 Column_908 Column_909 Column_910 Column_911 Column_912 Column_913 Column_914 Column_915 Column_916 Column_917 Column_918 Column_919 Column_920 Column_921 Column_922 Column_923 Column_924 Column_925 Column_926 Column_927 Column_928 Column_929 Column_930 Column_931 Column_932 Column_933 Column_934 Column_935 Column_936 Column_937 Column_938 Column_939 Column_940 Column_941 Column_942 Column_943 Column_944 Column_945 Column_946 Column_947 Column_948 Column_949 Column_950 Column_951 Column_952 Column_953 Column_954 Column_955 Column_956 Column_957 Column_958 Column_959 Column_960 Column_961 Column_962 Column_963 Column_964 Column_965 Column_966 Column_967 Column_968 Column_969 Column_970 Column_971 Column_972 Column_973 Column_974 Column_975 Column_976 Column_977 Column_978 Column_979 Column_980 Column_981 Column_982 Column_983 Column_984 Column_985 Column_986 Column_987 Column_988 Column_989 Column_990 Column_991 Column_992 Column_993 Column_994 Column_995 Column_996 Column_997 Column_998 Column_999 Column_1000 Column_1001 Column_1002 Column_1003 Column_1004 Column_1005 Column_1006 Column_1007 Column_1008 Column_1009 Column_1010 Column_1011 Column_1012 Column_1013 Column_1014 Column_1015 Column_1016 Column_1017 Column_1018 Column_1019 Column_1020 Column_1021 Column_1022 Column_1023 Column_1024 Column_1025 Column_1026 Column_1027 Column_1028 Column_1029 Column_1030 Column_1031 Column_1032 Column_1033 Column_1034 Column_1035 Column_1036 Column_1037 Column_1038 Column_1039 Column_1040 Column_1041 Column_1042 Column_1043 Column_1044 Column_1045 Column_1046 Column_1047 Column_1048 Column_1049 Column_1050 Column_1051 Column_1052 Column_1053 Column_1054 Column_1055 Column_1056 Column_1057 Column_1058 Column_1059 Column_1060 Column_1061 Column_1062 Column_1063 Column_1064 Column_1065 Column_1066 Column_1067 Column_1068 Column_1069 Column_1070 Column_1071 Column_1072 Column_1073 Column_1074 Column_1075 Column_1076 Column_1077 Column_1078 Column_1079 Column_1080 Column_1081 Column_1082 Column_1083 Column_1084 Column_1085 Column_1086 Column_1087 Column_1088 Column_1089 Column_1090 Column_1091 Column_1092 Column_1093 Column_1094 Column_1095 Column_1096 Column_1097 Column_1098 Column_1099 Column_1100 Column_1101 Column_1102 Column_1103 Column_1104 Column_1105 Column_1106 Column_1107 Column_1108 Column_1109 Column_1110 Column_1111 Column_1112 Column_1113 Column_1114 Column_1115 Column_1116 Column_1117 Column_1118 Column_1119 Column_1120 Column_1121 Column_1122 Column_1123 Column_1124 Column_1125 Column_1126 Column_1127 Column_1128 Column_1129 Column_1130 Column_1131 Column_1132 Column_1133 Column_1134 Column_1135 Column_1136 Column_1137 Column_1138 Column_1139 Column_1140 Column_1141 Column_1142 Column_1143 Column_1144 Column_1145 Column_1146 Column_1147 Column_1148 Column_1149 Column_1150 Column_1151 Column_1152 Column_1153 Column_1154 Column_1155 Column_1156 Column_1157 Column_1158 Column_1159 Column_1160 Column_1161 Column_1162 Column_1163 Column_1164 Column_1165 Column_1166 Column_1167 Column_1168 Column_1169 Column_1170 Column_1171 Column_1172 Column_1173 Column_1174 Column_1175 Column_1176 Column_1177 Column_1178 Column_1179 Column_1180 Column_1181 Column_1182 Column_1183 Column_1184 Column_1185 Column_1186 Column_1187 Column_1188 Column_1189 Column_1190 Column_1191 Column_1192 Column_1193 Column_1194 Column_1195 Column_1196 Column_1197 Column_1198 Column_1199 Column_1200 Column_1201 Column_1202 Column_1203 Column_1204 Column_1205 Column_1206 Column_1207 Column_1208 Column_1209 Column_1210 Column_1211 Column_1212 Column_1213 Column_1214 Column_1215 Column_1216 Column_1217 Column_1218 Column_1219 Column_1220 Column_1221 Column_1222 Column_1223 Column_1224 Column_1225 Column_1226 Column_1227 Column_1228 Column_1229 Column_1230 Column_1231 Column_1232 Column_1233 Column_1234 Column_1235 Column_1236 Column_1237 Column_1238 Column_1239 Column_1240 Column_1241 Column_1242 Column_1243 Column_1244 Column_1245 Column_1246 Column_1247 Column_1248 Column_1249 Column_1250 Column_1251 Column_1252 Column_1253 Column_1254 Column_1255 Column_1256 Column_1257 Column_1258 Column_1259 Column_1260 Column_1261 Column_1262 Column_1263 Column_1264 Column_1265 Column_1266 Column_1267 Column_1268 Column_1269 Column_1270 Column_1271 Column_1272 Column_1273 Column_1274 Column_1275 Column_1276 Column_1277 Column_1278 Column_1279 Column_1280 Column_1281 Column_1282 Column_1283 Column_1284 Column_1285 Column_1286 Column_1287 Column_1288 Column_1289 Column_1290 Column_1291 Column_1292 Column_1293 Column_1294 Column_1295 Column_1296 Column_1297 Column_1298 Column_1299 Column_1300 Column_1301 Column_1302 Column_1303 Column_1304 Column_1305 Column_1306 Column_1307 Column_1308 Column_1309 Column_1310 Column_1311 Column_1312 Column_1313 Column_1314 Column_1315 Column_1316 Column_1317 Column_1318 Column_1319 Column_1320 Column_1321 Column_1322 Column_1323 Column_1324 Column_1325 Column_1326 Column_1327 Column_1328 Column_1329 Column_1330 Column_1331 Column_1332 Column_1333 Column_1334 Column_1335 Column_1336 Column_1337 Column_1338 Column_1339 Column_1340 Column_1341 Column_1342 Column_1343 Column_1344 Column_1345 Column_1346 Column_1347 Column_1348 Column_1349 Column_1350 Column_1351 Column_1352 Column_1353 Column_1354 Column_1355 Column_1356 Column_1357 Column_1358 Column_1359 Column_1360 Column_1361 Column_1362 Column_1363 Column_1364 Column_1365 Column_1366 Column_1367 Column_1368 Column_1369 Column_1370 Column_1371 Column_1372 Column_1373 Column_1374 Column_1375 Column_1376 Column_1377 Column_1378 Column_1379 Column_1380 Column_1381 Column_1382 Column_1383 Column_1384 Column_1385 Column_1386 Column_1387 Column_1388 Column_1389 Column_1390 Column_1391 Column_1392 Column_1393 Column_1394 Column_1395 Column_1396 Column_1397 Column_1398 Column_1399 Column_1400 Column_1401 Column_1402 Column_1403 Column_1404 Column_1405 Column_1406 Column_1407 Column_1408 Column_1409 Column_1410 Column_1411 Column_1412 Column_1413 Column_1414 Column_1415 Column_1416 Column_1417 Column_1418 Column_1419 Column_1420 Column_1421 Column_1422 Column_1423 Column_1424 Column_1425 Column_1426 Column_1427 Column_1428 Column_1429 Column_1430 Column_1431 Column_1432 Column_1433 Column_1434 Column_1435 Column_1436 Column_1437 Column_1438 Column_1439 Column_1440 Column_1441 Column_1442 Column_1443 Column_1444 Column_1445 Column_1446 Column_1447 Column_1448 Column_1449 Column_1450 Column_1451 Column_1452 Column_1453 Column_1454 Column_1455 Column_1456 Column_1457 Column_1458 Column_1459 Column_1460 Column_1461 Column_1462 Column_1463 Column_1464 Column_1465 Column_1466 Column_1467 Column_1468 Column_1469 Column_1470 Column_1471 Column_1472 Column_1473 Column_1474 Column_1475 Column_1476 Column_1477 Column_1478 Column_1479 Column_1480 Column_1481 Column_1482 Column_1483 Column_1484 Column_1485 Column_1486 Column_1487 Column_1488 Column_1489 Column_1490 Column_1491 Column_1492 Column_1493 Column_1494 Column_1495 Column_1496 Column_1497 Column_1498 Column_1499 Column_1500 Column_1501 Column_1502 Column_1503 Column_1504 Column_1505 Column_1506 Column_1507 Column_1508 Column_1509 Column_1510 Column_1511 Column_1512 Column_1513 Column_1514 Column_1515 Column_1516 Column_1517 Column_1518 Column_1519 Column_1520 Column_1521 Column_1522 Column_1523 Column_1524 Column_1525 Column_1526 Column_1527 Column_1528 Column_1529 Column_1530 Column_1531 Column_1532 Column_1533 Column_1534 Column_1535 Column_1536 Column_1537 Column_1538 Column_1539 Column_1540 Column_1541 Column_1542 Column_1543 Column_1544 Column_1545 Column_1546 Column_1547 Column_1548 Column_1549 Column_1550 Column_1551 Column_1552 Column_1553 Column_1554 Column_1555 Column_1556 Column_1557 Column_1558 Column_1559 Column_1560 Column_1561 Column_1562 Column_1563 Column_1564 Column_1565 Column_1566 Column_1567 Column_1568 Column_1569 Column_1570 Column_1571 Column_1572 Column_1573 Column_1574 Column_1575 Column_1576 Column_1577 Column_1578 Column_1579 Column_1580 Column_1581 Column_1582 Column_1583 Column_1584 Column_1585 Column_1586 Column_1587 Column_1588 Column_1589 Column_1590 Column_1591 Column_1592 Column_1593 Column_1594 Column_1595 Column_1596 Column_1597 Column_1598 Column_1599 Column_1600 Column_1601 Column_1602 Column_1603 Column_1604 Column_1605 Column_1606 Column_1607 Column_1608 Column_1609 Column_1610 Column_1611 Column_1612 Column_1613 Column_1614 Column_1615 Column_1616 Column_1617 Column_1618 Column_1619 Column_1620 Column_1621 Column_1622 Column_1623 Column_1624 Column_1625 Column_1626 Column_1627 Column_1628 Column_1629 Column_1630 Column_1631 Column_1632 Column_1633 Column_1634 Column_1635 Column_1636 Column_1637 Column_1638 Column_1639 Column_1640 Column_1641 Column_1642 Column_1643 Column_1644 Column_1645 Column_1646 Column_1647 Column_1648 Column_1649 Column_1650 Column_1651 Column_1652 Column_1653 Column_1654 Column_1655 Column_1656 Column_1657 Column_1658 Column_1659 Column_1660 Column_1661 Column_1662 Column_1663 Column_1664 Column_1665 Column_1666 Column_1667 Column_1668 Column_1669 Column_1670 Column_1671 Column_1672 Column_1673 Column_1674 Column_1675 Column_1676 Column_1677 Column_1678 Column_1679 Column_1680 Column_1681 Column_1682 Column_1683 Column_1684 Column_1685 Column_1686 Column_1687 Column_1688 Column_1689 Column_1690 Column_1691 Column_1692 Column_1693 Column_1694 Column_1695 Column_1696 Column_1697 Column_1698 Column_1699 Column_1700 Column_1701 Column_1702 Column_1703 Column_1704 Column_1705 Column_1706 Column_1707 Column_1708 Column_1709 Column_1710 Column_1711 Column_1712 Column_1713 Column_1714 Column_1715 Column_1716 Column_1717 Column_1718 Column_1719 Column_1720 Column_1721 Column_1722 Column_1723 Column_1724 Column_1725 Column_1726 Column_1727 Column_1728 Column_1729 Column_1730 Column_1731 Column_1732 Column_1733 Column_1734 Column_1735 Column_1736 Column_1737 Column_1738 Column_1739 Column_1740 Column_1741 Column_1742 Column_1743 Column_1744 Column_1745 Column_1746 Column_1747 Column_1748 Column_1749 Column_1750 Column_1751 Column_1752 Column_1753 Column_1754 Column_1755 Column_1756 Column_1757 Column_1758 Column_1759 Column_1760 Column_1761 Column_1762 Column_1763 Column_1764 Column_1765 Column_1766 Column_1767 Column_1768 Column_1769 Column_1770 Column_1771 Column_1772 Column_1773 Column_1774 Column_1775 Column_1776 Column_1777 Column_1778 Column_1779 Column_1780 Column_1781 Column_1782 Column_1783 Column_1784 Column_1785 Column_1786 Column_1787 Column_1788 Column_1789 Column_1790 Column_1791 Column_1792 Column_1793 Column_1794 Column_1795 Column_1796 Column_1797 Column_1798 Column_1799 Column_1800 Column_1801 Column_1802 Column_1803 Column_1804 Column_1805 Column_1806 Column_1807 Column_1808 Column_1809 Column_1810 Column_1811 Column_1812 Column_1813 Column_1814 Column_1815 Column_1816 Column_1817 Column_1818 Column_1819 Column_1820 Column_1821 Column_1822 Column_1823 Column_1824 Column_1825 Column_1826 Column_1827 Column_1828 Column_1829 Column_1830 Column_1831 Column_1832 Column_1833 Column_1834 Column_1835 Column_1836 Column_1837 Column_1838 Column_1839 Column_1840 Column_1841 Column_1842 Column_1843 Column_1844 Column_1845 Column_1846 Column_1847 Column_1848 Column_1849 Column_1850 Column_1851 Column_1852 Column_1853 Column_1854 Column_1855 Column_1856 Column_1857 Column_1858 Column_1859 Column_1860 Column_1861 Column_1862 Column_1863 Column_1864 Column_1865 Column_1866 Column_1867 Column_1868 Column_1869 Column_1870 Column_1871 Column_1872 Column_1873 Column_1874 Column_1875 Column_1876 Column_1877 Column_1878 Column_1879 Column_1880 Column_1881 Column_1882 Column_1883 Column_1884 Column_1885 Column_1886 Column_1887 Column_1888 Column_1889 Column_1890 Column_1891 Column_1892 Column_1893 Column_1894 Column_1895 Column_1896 Column_1897 Column_1898 Column_1899 Column_1900 Column_1901 Column_1902 Column_1903 Column_1904 Column_1905 Column_1906 Column_1907 Column_1908 Column_1909 Column_1910 Column_1911 Column_1912 Column_1913 Column_1914 Column_1915 Column_1916 Column_1917 Column_1918 Column_1919 Column_1920 Column_1921 Column_1922 Column_1923 Column_1924 Column_1925 Column_1926 Column_1927 Column_1928 Column_1929 Column_1930 Column_1931 Column_1932 Column_1933 Column_1934 Column_1935 Column_1936 Column_1937 Column_1938 Column_1939 Column_1940 Column_1941 Column_1942 Column_1943 Column_1944 Column_1945 Column_1946 Column_1947 Column_1948 Column_1949 Column_1950 Column_1951 Column_1952 Column_1953 Column_1954 Column_1955 Column_1956 Column_1957 Column_1958 Column_1959 Column_1960 Column_1961 Column_1962 Column_1963 Column_1964 Column_1965 Column_1966 Column_1967 Column_1968 Column_1969 Column_1970 Column_1971 Column_1972 Column_1973 Column_1974 Column_1975 Column_1976 Column_1977 Column_1978 Column_1979 Column_1980 Column_1981 Column_1982 Column_1983 Column_1984 Column_1985 Column_1986 Column_1987 Column_1988 Column_1989 Column_1990 Column_1991 Column_1992 Column_1993 Column_1994 Column_1995 Column_1996 Column_1997 Column_1998 Column_1999 Column_2000 Column_2001 Column_2002 Column_2003 Column_2004 Column_2005 Column_2006 Column_2007 Column_2008 Column_2009 Column_2010 Column_2011 Column_2012 Column_2013 Column_2014 Column_2015 Column_2016 Column_2017 Column_2018 Column_2019 Column_2020 Column_2021 Column_2022 Column_2023 Column_2024 Column_2025 Column_2026 Column_2027 Column_2028 Column_2029 Column_2030 Column_2031 Column_2032 Column_2033 Column_2034 Column_2035 Column_2036 Column_2037 Column_2038 Column_2039 Column_2040 Column_2041 Column_2042 Column_2043 Column_2044 Column_2045 Column_2046 Column_2047 Column_2048 Column_2049 Column_2050 Column_2051 Column_2052 Column_2053 Column_2054 Column_2055 Column_2056 Column_2057 Column_2058 Column_2059 Column_2060 Column_2061 Column_2062 Column_2063 Column_2064 Column_2065 Column_2066 Column_2067 Column_2068 Column_2069 Column_2070 Column_2071 Column_2072 Column_2073 Column_2074 Column_2075 Column_2076 Column_2077 Column_2078 Column_2079 Column_2080 Column_2081 Column_2082 Column_2083 Column_2084 Column_2085 Column_2086 Column_2087 Column_2088 Column_2089 Column_2090 Column_2091 Column_2092 Column_2093 Column_2094 Column_2095 Column_2096 Column_2097 Column_2098 Column_2099 Column_2100 Column_2101 Column_2102 Column_2103 Column_2104 Column_2105 Column_2106 Column_2107 Column_2108 Column_2109 Column_2110 Column_2111 Column_2112 Column_2113 Column_2114 Column_2115 Column_2116 Column_2117 Column_2118 Column_2119 Column_2120 Column_2121 Column_2122 Column_2123 Column_2124 Column_2125 Column_2126 Column_2127 Column_2128 Column_2129 Column_2130 Column_2131 Column_2132 Column_2133 Column_2134 Column_2135 Column_2136 Column_2137 Column_2138 Column_2139 Column_2140 Column_2141 Column_2142 Column_2143 Column_2144 Column_2145 Column_2146 Column_2147 Column_2148 Column_2149 Column_2150 Column_2151 Column_2152 Column_2153 Column_2154 Column_2155 Column_2156 Column_2157 Column_2158 Column_2159 Column_2160 Column_2161 Column_2162 Column_2163 Column_2164 Column_2165 Column_2166 Column_2167 Column_2168 Column_2169 Column_2170 Column_2171 Column_2172 Column_2173 Column_2174 Column_2175 Column_2176 Column_2177 Column_2178 Column_2179 Column_2180 Column_2181 Column_2182 Column_2183 Column_2184 Column_2185 Column_2186 Column_2187 Column_2188 Column_2189 Column_2190 Column_2191 Column_2192 Column_2193 Column_2194 Column_2195 Column_2196 Column_2197 Column_2198 Column_2199 Column_2200 Column_2201 Column_2202 Column_2203 Column_2204 Column_2205 Column_2206 Column_2207 Column_2208 Column_2209 Column_2210 Column_2211 Column_2212 Column_2213 Column_2214 Column_2215 Column_2216 Column_2217 Column_2218 Column_2219 Column_2220 Column_2221 Column_2222 Column_2223 Column_2224 Column_2225 Column_2226 Column_2227 Column_2228 Column_2229 Column_2230 Column_2231 Column_2232 Column_2233 Column_2234 Column_2235 Column_2236 Column_2237 Column_2238 Column_2239 Column_2240 Column_2241 Column_2242 Column_2243 Column_2244 Column_2245 Column_2246 Column_2247 Column_2248 Column_2249 Column_2250 Column_2251 Column_2252 Column_2253 Column_2254 Column_2255 Column_2256 Column_2257 Column_2258 Column_2259 Column_2260 Column_2261 Column_2262 Column_2263 Column_2264 Column_2265 Column_2266 Column_2267 Column_2268 Column_2269 Column_2270 Column_2271 Column_2272 Column_2273 Column_2274 Column_2275 Column_2276 Column_2277 Column_2278 Column_2279 Column_2280 Column_2281 Column_2282 Column_2283 Column_2284 Column_2285 Column_2286 Column_2287 Column_2288 Column_2289 Column_2290 Column_2291 Column_2292 Column_2293 Column_2294 Column_2295 Column_2296 Column_2297 Column_2298 Column_2299 Column_2300 Column_2301 Column_2302 Column_2303 Column_2304 Column_2305 Column_2306 Column_2307 Column_2308 Column_2309 Column_2310 Column_2311 Column_2312 Column_2313 Column_2314 Column_2315 Column_2316 Column_2317 Column_2318 Column_2319 Column_2320 Column_2321 Column_2322 Column_2323 Column_2324 Column_2325 Column_2326 Column_2327 Column_2328 Column_2329 Column_2330 Column_2331 Column_2332 Column_2333 Column_2334 Column_2335 Column_2336 Column_2337 Column_2338 Column_2339 Column_2340 Column_2341 Column_2342 Column_2343 Column_2344 Column_2345 Column_2346 Column_2347 Column_2348 Column_2349 Column_2350 Column_2351 Column_2352 Column_2353 Column_2354 Column_2355 Column_2356 Column_2357 Column_2358 Column_2359 Column_2360 Column_2361 Column_2362 Column_2363 Column_2364 Column_2365 Column_2366 Column_2367 Column_2368 Column_2369 Column_2370 Column_2371 Column_2372 Column_2373 Column_2374 Column_2375 Column_2376 Column_2377 Column_2378 Column_2379 Column_2380 Column_2381 Column_2382 Column_2383 Column_2384 Column_2385 Column_2386 Column_2387 Column_2388 Column_2389 Column_2390 Column_2391 Column_2392 Column_2393 Column_2394 Column_2395 Column_2396 Column_2397 Column_2398 Column_2399 Column_2400 Column_2401 Column_2402 Column_2403 Column_2404 Column_2405 Column_2406 Column_2407 Column_2408 Column_2409 Column_2410 Column_2411 Column_2412 Column_2413 Column_2414 Column_2415 Column_2416 Column_2417 Column_2418 Column_2419 Column_2420 Column_2421 Column_2422 Column_2423 Column_2424 Column_2425 Column_2426 Column_2427 Column_2428 Column_2429 Column_2430 Column_2431 Column_2432 Column_2433 Column_2434 Column_2435 Column_2436 Column_2437 Column_2438 Column_2439 Column_2440 Column_2441 Column_2442 Column_2443 Column_2444 Column_2445 Column_2446 Column_2447 Column_2448 Column_2449 Column_2450 Column_2451 Column_2452 Column_2453 Column_2454 Column_2455 Column_2456 Column_2457 Column_2458 Column_2459 Column_2460 Column_2461 Column_2462 Column_2463 Column_2464 Column_2465 Column_2466 Column_2467 Column_2468 Column_2469 Column_2470 Column_2471 Column_2472 Column_2473 Column_2474 Column_2475 Column_2476 Column_2477 Column_2478 Column_2479 Column_2480 Column_2481 Column_2482 Column_2483 Column_2484 Column_2485 Column_2486 Column_2487 Column_2488 Column_2489 Column_2490 Column_2491 Column_2492 Column_2493 Column_2494 Column_2495 Column_2496 Column_2497 Column_2498 Column_2499 Column_2500 Column_2501 Column_2502 Column_2503 Column_2504 Column_2505 Column_2506 Column_2507 Column_2508 Column_2509 Column_2510 Column_2511 Column_2512 Column_2513 Column_2514 Column_2515 Column_2516 Column_2517 Column_2518 Column_2519 Column_2520 Column_2521 Column_2522 Column_2523 Column_2524 Column_2525 Column_2526 Column_2527 Column_2528 Column_2529 Column_2530 Column_2531 Column_2532 Column_2533 Column_2534 Column_2535 Column_2536 Column_2537 Column_2538 Column_2539 Column_2540 Column_2541 Column_2542 Column_2543 Column_2544 Column_2545 Column_2546 Column_2547 Column_2548 Column_2549 Column_2550 Column_2551 Column_2552 Column_2553 Column_2554 Column_2555 Column_2556 Column_2557 Column_2558 Column_2559 Column_2560 Column_2561 Column_2562 Column_2563 Column_2564 Column_2565 Column_2566 Column_2567 Column_2568 Column_2569 Column_2570 Column_2571 Column_2572 Column_2573 Column_2574 Column_2575 Column_2576 Column_2577 Column_2578 Column_2579 Column_2580 Column_2581 Column_2582 Column_2583 Column_2584 Column_2585 Column_2586 Column_2587 Column_2588 Column_2589 Column_2590 Column_2591 Column_2592 Column_2593 Column_2594 Column_2595 Column_2596 Column_2597 Column_2598 Column_2599 Column_2600 Column_2601 Column_2602 Column_2603 Column_2604 Column_2605 Column_2606 Column_2607 Column_2608 Column_2609 Column_2610 Column_2611 Column_2612 Column_2613 Column_2614 Column_2615 Column_2616 Column_2617 Column_2618 Column_2619 Column_2620 Column_2621 Column_2622 Column_2623 Column_2624 Column_2625 Column_2626 Column_2627 Column_2628 Column_2629 Column_2630 Column_2631 Column_2632 Column_2633 Column_2634 Column_2635 Column_2636 Column_2637 Column_2638 Column_2639 Column_2640 Column_2641 Column_2642 Column_2643 Column_2644 Column_2645 Column_2646 Column_2647 Column_2648 Column_2649 Column_2650 Column_2651 Column_2652 Column_2653 Column_2654 Column_2655 Column_2656 Column_2657 Column_2658 Column_2659 Column_2660 Column_2661 Column_2662 Column_2663 Column_2664 Column_2665 Column_2666 Column_2667 Column_2668 Column_2669 Column_2670 Column_2671 Column_2672 Column_2673 Column_2674 Column_2675 Column_2676 Column_2677 Column_2678 Column_2679 Column_2680 Column_2681 Column_2682 Column_2683 Column_2684 Column_2685 Column_2686 Column_2687 Column_2688 Column_2689 Column_2690 Column_2691 Column_2692 Column_2693 Column_2694 Column_2695 Column_2696 Column_2697 Column_2698 Column_2699 Column_2700 Column_2701 Column_2702 Column_2703 Column_2704 Column_2705 Column_2706 Column_2707 Column_2708 Column_2709 Column_2710 Column_2711 Column_2712 Column_2713 Column_2714 Column_2715 Column_2716 Column_2717 Column_2718 Column_2719 Column_2720 Column_2721 Column_2722 Column_2723 Column_2724 Column_2725 Column_2726 Column_2727 Column_2728 Column_2729 Column_2730 Column_2731 Column_2732 Column_2733 Column_2734 Column_2735 Column_2736 Column_2737 Column_2738 Column_2739 Column_2740 Column_2741 Column_2742 Column_2743 Column_2744 Column_2745 Column_2746 Column_2747 Column_2748 Column_2749 Column_2750 Column_2751 Column_2752 Column_2753 Column_2754 Column_2755 Column_2756 Column_2757 Column_2758 Column_2759 Column_2760 Column_2761 Column_2762 Column_2763 Column_2764 Column_2765 Column_2766 Column_2767 Column_2768 Column_2769 Column_2770 Column_2771 Column_2772 Column_2773 Column_2774 Column_2775 Column_2776 Column_2777 Column_2778 Column_2779 Column_2780 Column_2781 Column_2782 Column_2783 Column_2784 Column_2785 Column_2786 Column_2787 Column_2788 Column_2789 Column_2790 Column_2791 Column_2792 Column_2793 Column_2794 Column_2795 Column_2796 Column_2797 Column_2798 Column_2799 Column_2800 Column_2801 Column_2802 Column_2803 Column_2804 Column_2805 Column_2806 Column_2807 Column_2808 Column_2809 Column_2810 Column_2811 Column_2812 Column_2813 Column_2814 Column_2815 Column_2816 Column_2817 Column_2818 Column_2819 Column_2820 Column_2821 Column_2822 Column_2823 Column_2824 Column_2825 Column_2826 Column_2827 Column_2828 Column_2829 Column_2830 Column_2831 Column_2832 Column_2833 Column_2834 Column_2835 Column_2836 Column_2837 Column_2838 Column_2839 Column_2840 Column_2841 Column_2842 Column_2843 Column_2844 Column_2845 Column_2846 Column_2847 Column_2848 Column_2849 Column_2850 Column_2851 Column_2852 Column_2853 Column_2854 Column_2855 Column_2856 Column_2857 Column_2858 Column_2859 Column_2860 Column_2861 Column_2862 Column_2863 Column_2864 Column_2865 Column_2866 Column_2867 Column_2868 Column_2869 Column_2870 Column_2871 Column_2872 Column_2873 Column_2874 Column_2875 Column_2876 Column_2877 Column_2878 Column_2879 Column_2880 Column_2881 Column_2882 Column_2883 Column_2884 Column_2885 Column_2886 Column_2887 Column_2888 Column_2889 Column_2890 Column_2891 Column_2892 Column_2893 Column_2894 Column_2895 Column_2896 Column_2897 Column_2898 Column_2899 Column_2900 Column_2901 Column_2902 Column_2903 Column_2904 Column_2905 Column_2906 Column_2907 Column_2908 Column_2909 Column_2910 Column_2911 Column_2912 Column_2913 Column_2914 Column_2915 Column_2916 Column_2917 Column_2918 Column_2919 Column_2920 Column_2921 Column_2922 Column_2923 Column_2924 Column_2925 Column_2926 Column_2927 Column_2928 Column_2929 Column_2930 Column_2931 Column_2932 Column_2933 Column_2934 Column_2935 Column_2936 Column_2937 Column_2938 Column_2939 Column_2940 Column_2941 Column_2942 Column_2943 Column_2944 Column_2945 Column_2946 Column_2947 Column_2948 Column_2949 Column_2950 Column_2951 Column_2952 Column_2953 Column_2954 Column_2955 Column_2956 Column_2957 Column_2958 Column_2959 Column_2960 Column_2961 Column_2962 Column_2963 Column_2964 Column_2965 Column_2966 Column_2967 Column_2968 Column_2969 Column_2970 Column_2971 Column_2972 Column_2973 Column_2974 Column_2975 Column_2976 Column_2977 Column_2978 Column_2979 Column_2980 Column_2981 Column_2982 Column_2983 Column_2984 Column_2985 Column_2986 Column_2987 Column_2988 Column_2989 Column_2990 Column_2991 Column_2992 Column_2993 Column_2994 Column_2995 Column_2996 Column_2997 Column_2998 Column_2999 Column_3000 Column_3001 Column_3002 Column_3003 Column_3004 Column_3005 Column_3006 Column_3007 Column_3008 Column_3009 Column_3010 Column_3011 Column_3012 Column_3013 Column_3014 Column_3015 Column_3016 Column_3017 Column_3018 Column_3019 Column_3020 Column_3021 Column_3022 Column_3023 Column_3024 Column_3025 Column_3026 Column_3027 Column_3028 Column_3029 Column_3030 Column_3031 Column_3032 Column_3033 Column_3034 Column_3035 Column_3036 Column_3037 Column_3038 Column_3039 Column_3040 Column_3041 Column_3042 Column_3043 Column_3044 Column_3045 Column_3046 Column_3047 Column_3048 Column_3049 Column_3050 Column_3051 Column_3052 Column_3053 Column_3054 Column_3055 Column_3056 Column_3057 Column_3058 Column_3059 Column_3060 Column_3061 Column_3062 Column_3063 Column_3064 Column_3065 Column_3066 Column_3067 Column_3068 Column_3069 Column_3070 Column_3071
feature_infos=[-1.1033957004547119:1.7283978462219238] [-1.5793966054916382:1.2932162284851074] [-2.1477220058441162:2.1295468807220459] [-1.5904805660247803:2.0387604236602783] [-2.0591199398040771:1.4366542100906372] [-1.7209933996200562:2.1406886577606201] [-1.4294039011001587:1.5338951349258423] [-1.4458713531494141:2.0323529243469238] [-1.9106696844100952:2.8447370529174805] [-2.5300931930541992:1.6352927684783936] [-2.2241220474243164:2.5945377349853516] [-2.1482090950012207:1.2191863059997559] [-2.0685489177703857:1.7520780563354492] [-1.7089670896530151:1.8194261789321899] [-1.6468744277954102:1.5384663343429565] [-1.6466059684753418:1.2703558206558228] [-1.9283579587936401:2.2322001457214355] [-1.9955974817276001:1.8830208778381348] [-1.4480904340744019:1.6184556484222412] [-2.1345517635345459:1.2882038354873657] [-1.8157289028167725:1.5381566286087036] [-0.85621047019958496:1.8140958547592163] [-2.1963953971862793:2.1881728172302246] [-1.9252157211303711:2.1547250747680664] [-2.2381243705749512:1.3139123916625977] [-2.1548988819122314:2.2672445774078369] [-1.7599133253097534:1.9763693809509277] [-2.3745186328887939:1.2918720245361328] [-1.5167964696884155:1.7359017133712769] [-1.3285243511199951:1.5579961538314819] [-1.2264930009841919:2.158522367477417] [-1.6849385499954224:1.558440089225769] [-2.4995276927947998:1.1092280149459839] [-1.6236991882324219:1.7214902639389038] [-1.2114211320877075:1.2178184986114502] [-1.9563612937927246:2.0652825832366943] [-2.5231602191925049:2.3165881633758545] [-1.7474186420440674:2.0002450942993164] [-1.8688610792160034:1.3837354183197021] [-1.8638279438018799:2.7080032825469971] [-2.576530933380127:1.5073933601379395] [-1.7924568653106689:2.0865237712860107] [-2.1123595237731934:1.9491944313049316] [-1.337944507598877:1.4113105535507202] [-1.7833778858184814:0.66856992244720459] [-1.517809271812439:2.2247915267944336] [-1.1830995082855225:1.5715101957321167] [-1.7209986448287964:2.6670689582824707] [-2.4546546936035156:1.8909866809844971] [-1.5470014810562134:2.3881115913391113] [-2.6514666080474854:2.2073237895965576] [-1.7126294374465942:1.1385293006896973] [-2.3946619033813477:1.2638920545578003] [-1.9192537069320679:1.6145902872085571] [-1.7926839590072632:1.9140353202819824] [-1.591643214225769:1.59844970703125] [-2.1086430549621582:1.9938977956771851] [-1.2353826761245728:2.1522619724273682] [-1.6739010810852051:2.0583155155181885] [-1.5354238748550415:1.6053588390350342] [-1.4561046361923218:1.7600197792053223] [-1.9290761947631836:2.3141300678253174] [-1.9335463047027588:1.1445529460906982] [-1.6987842321395874:2.1864125728607178] [-1.7793598175048828:1.2001872062683105] [-1.860542893409729:1.9790769815444946] [-1.5429683923721313:1.6471958160400391] [-2.2069177627563477:0.82391542196273804] [-2.2090425491333008:1.8155508041381836] [-1.9852439165115356:1.5753177404403687] [-3.3762705326080322:1.5517162084579468] [-1.0256795883178711:2.1231656074523926] [-1.9206762313842773:0.83134329319000244] [-2.3685133457183838:1.6807602643966675] [-1.5665149688720703:1.6715617179870605] [-1.2483162879943848:2.2495653629302979] [-1.5606244802474976:1.3083361387252808] [-1.7461894750595093:1.5130469799041748] [-1.5869094133377075:2.1812117099761963] [-1.7934327125549316:2.091930627822876] [-1.5930745601654053:1.691648006439209] [-1.3550312519073486:1.8843419551849365] [-1.3019357919692993:1.9851927757263184] [-1.6232603788375854:1.5518639087677002] [-1.6434673070907593:2.0788004398345947] [-1.3697922229766846:1.4387129545211792] [-1.7114288806915283:1.937099814414978] [-2.277207612991333:1.4187006950378418] [-2.2793252468109131:1.0805089473724365] [-3.59287428855896:1.5393193960189819] [-1.6995594501495361:3.079157829284668] [-1.6231111288070679:1.6687572002410889] [-1.2092427015304565:1.7092239856719971] [-1.3795815706253052:1.7491438388824463] [-1.6326217651367188:1.9634127616882324] [-1.0927519798278809:1.2030400037765503] [-1.6525769233703613:2.0821278095245361] [-1.3477689027786255:1.5769004821777344] [-1.5449371337890625:1.8386714458465576] [-1.8383204936981201:1.1671702861785889] [-1.082980751991272:1.5332405567169189] [-2.1251370906829834:2.0552737712860107] [-2.0987155437469482:1.7700849771499634] [-1.9840773344039917:1.213587760925293] [-2.5609498023986816:1.7202056646347046] [-1.9690879583358765:1.9729596376419067] [-2.6420450210571289:1.5179381370544434] [-2.3409969806671143:2.1276378631591797] [-2.3994622230529785:1.785016655921936] [-1.4304609298706055:2.0124471187591553] [-1.7704017162322998:1.9744036197662354] [-2.2375428676605225:1.1514108180999756] [-2.1221144199371338:1.3953185081481934] [-2.6479158401489258:1.2214373350143433] [-1.8565813302993774:2.2985594272613525] [-2.1887872219085693:2.3253438472747803] [-1.8707445859909058:1.0077030658721924] [-1.6448546648025513:1.8524212837219238] [-1.619564414024353:1.7649681568145752] [-1.3978132009506226:1.4711616039276123] [-2.959993839263916:2.6597917079925537] [-2.9568824768066406:1.4100733995437622] [-2.6073150634765625:1.878673791885376] [-2.0031144618988037:0.71209031343460083] [-1.7828786373138428:2.069415807723999] [-1.4342590570449829:1.8916866779327393] [-1.3419374227523804:1.7149101495742798] [-1.9096928834915161:1.344325065612793] [-1.5237830877304077:2.3634095191955566] [-1.9260703325271606:1.8034971952438354] [-1.3752117156982422:1.9870727062225342] [-2.0036911964416504:2.3602261543273926] [-1.4645264148712158:1.4772500991821289] [-1.5200554132461548:1.6867557764053345] [-1.6069382429122925:2.0266051292419434] [-2.3452813625335693:1.8445020914077759] [-2.53952956199646:1.5523900985717773] [-2.2662203311920166:1.5841828584671021] [-1.4907493591308594:2.2108244895935059] [-1.9052566289901733:1.2588180303573608] [-2.5532760620117188:2.120969295501709] [-1.9257946014404297:1.8918759822845459] [-1.6042629480361938:2.1010417938232422] [-1.8687711954116821:2.4566829204559326] [-1.9562464952468872:1.3098288774490356] [-1.6026909351348877:1.4234733581542969] [-2.1824312210083008:1.5826625823974609] [-2.5095729827880859:2.3103032112121582] [-1.4527162313461304:2.2429666519165039] [-2.0908942222595215:1.170302152633667] [-2.0547399520874023:2.1528348922729492] [-1.4344873428344727:1.7304221391677856] [-1.614422082901001:1.4669524431228638] [-2.408658504486084:1.2547104358673096] [-2.0799140930175781:2.091500997543335] [-1.9768640995025635:1.7612429857254028] [-1.6141104698181152:2.7579135894775391] [-1.2917121648788452:1.1028777360916138] [-1.8047767877578735:1.4474678039550781] [-2.3515529632568359:1.2440983057022095] [-2.0228331089019775:2.6280739307403564] [-1.4707435369491577:1.5509109497070312] [-0.96728593111038208:2.8658747673034668] [-2.5045878887176514:1.9402520656585693] [-1.3045856952667236:1.7288148403167725] [-2.3406469821929932:1.0366448163986206] [-1.1842712163925171:1.7532650232315063] [-1.9219791889190674:1.4677579402923584] [-1.1547927856445312:1.9468101263046265] [-1.8499139547348022:1.4480186700820923] [-1.8986458778381348:2.5610661506652832] [-1.5335574150085449:1.6209971904754639] [-1.6723333597183228:1.2225704193115234] [-2.3997578620910645:1.1880558729171753] [-1.1169130802154541:2.1662421226501465] [-1.2503577470779419:1.9511679410934448] [-1.1400221586227417:2.1468513011932373] [-2.5762290954589844:2.208122730255127] [-0.92162156105041504:1.7924014329910278] [-2.2528605461120605:2.0575597286224365] [-1.3157123327255249:2.050074577331543] [-1.3407561779022217:2.4101824760437012] [-1.3602914810180664:1.7253725528717041] [-1.8137229681015015:1.3044379949569702] [-1.4372259378433228:1.341977596282959] [-1.4419710636138916:2.0611193180084229] [-1.5707259178161621:1.7951350212097168] [-2.0008776187896729:1.1828217506408691] [-1.2110366821289062:1.3873544931411743] [-1.1405601501464844:2.5106565952301025] [-1.5556061267852783:2.3027863502502441] [-0.70553159713745117:2.5219881534576416] [-1.5464404821395874:1.7229417562484741] [-1.8830884695053101:2.4938549995422363] [-1.7567678689956665:1.5498849153518677] [-7.4208030700683594:-1.3539400100708008] [-1.8943024873733521:1.5808629989624023] [-2.5289938449859619:1.6208760738372803] [-2.0945706367492676:1.781710147857666] [-1.3532164096832275:2.2258155345916748] [-2.0023410320281982:1.4715930223464966] [-1.9898412227630615:1.3826013803482056] [-1.5936808586120605:1.9556995630264282] [-1.8836909532546997:1.8629884719848633] [-1.7696713209152222:1.5635780096054077] [-1.2638468742370605:1.9405620098114014] [-2.5234315395355225:1.6686282157897949] [-1.2434008121490479:1.2456433773040771] [-1.5012220144271851:1.41351318359375] [-2.1989345550537109:2.0533714294433594] [-1.1226176023483276:2.3005123138427734] [-1.8328160047531128:2.4242212772369385] [-0.96090185642242432:3.6143550872802734] [-1.6640903949737549:1.4651248455047607] [-2.2139489650726318:1.9294699430465698] [-1.1892433166503906:2.1942613124847412] [-1.8498822450637817:1.6492962837219238] [-1.963269829750061:1.4139101505279541] [-2.1655681133270264:1.5417444705963135] [-1.8227739334106445:1.7778099775314331] [-1.9026714563369751:1.3623075485229492] [-2.6534805297851562:1.9475783109664917] [-1.8722361326217651:1.6534796953201294] [-1.6897873878479004:1.7198158502578735] [-1.7675209045410156:1.7041242122650146] [-2.2733514308929443:1.7312440872192383] [-1.1997054815292358:1.5827583074569702] [-19.002676010131836:-6.5259037017822266] [-0.70926105976104736:2.5688810348510742] [-1.6415376663208008:2.2413115501403809] [-0.91750144958496094:2.3410894870758057] [-1.6429564952850342:1.6631678342819214] [-2.2510716915130615:1.1080598831176758] [-1.7613097429275513:0.90823495388031006] [-0.52553975582122803:0.26408761739730835] [-1.645071268081665:2.1269516944885254] [-1.7432982921600342:2.4189620018005371] [-1.8451039791107178:0.67991840839385986] [-2.0151429176330566:1.1987539529800415] [-1.1748294830322266:1.8209694623947144] [-1.544824481010437:2.0487375259399414] [-1.2816009521484375:1.6227931976318359] [-1.465309739112854:1.8783191442489624] [-1.8633289337158203:1.4878981113433838] [-1.8917031288146973:1.0974758863449097] [-2.1310098171234131:1.5802842378616333] [-1.62242591381073:1.4458584785461426] [-2.0740151405334473:1.6944212913513184] [-2.298213005065918:1.5845150947570801] [-2.6493353843688965:1.4638018608093262] [-2.6259722709655762:1.5340248346328735] [-1.431490421295166:1.4415664672851562] [-1.8290940523147583:2.1021544933319092] [-2.3059966564178467:2.2567980289459229] [-1.8297944068908691:1.3594043254852295] [-1.4479820728302002:1.8067612648010254] [-1.8423539400100708:2.2476089000701904] [-2.0326480865478516:1.4362739324569702] [-1.3039356470108032:1.7971605062484741] [-1.9103938341140747:1.4958245754241943] [-1.9828372001647949:1.2877322435379028] [-2.1243789196014404:1.4682275056838989] [-0.81125342845916748:2.3816390037536621] [-1.4557472467422485:2.0920038223266602] [-2.3484416007995605:1.5777051448822021] [-1.3166855573654175:2.1985671520233154] [-2.3941006660461426:1.4619948863983154] [-2.0811655521392822:1.6224628686904907] [-1.2244856357574463:1.8800076246261597] [-1.9463140964508057:1.7927312850952148] [-1.5843772888183594:1.6314947605133057] [-1.9312870502471924:2.1131002902984619] [-1.8202942609786987:1.1303739547729492] [-2.4527039527893066:1.2811479568481445] [-1.4150000810623169:2.0547490119934082] [-1.1699177026748657:2.0350239276885986] [-2.2759168148040771:1.0874695777893066] [-1.501035213470459:2.3514819145202637] [-1.6733417510986328:1.748502254486084] [-1.4248275756835938:2.2683022022247314] [-2.2002108097076416:1.9835517406463623] [-1.165864109992981:2.0855371952056885] [-1.198116660118103:1.4176011085510254] [-1.9501832723617554:1.3512572050094604] [-2.1216473579406738:1.8412172794342041] [-1.4320046901702881:2.2237551212310791] [-1.0938518047332764:1.9676895141601562] [-1.5929461717605591:2.275007963180542] [-1.9240808486938477:1.9161970615386963] [-1.6566587686538696:2.3598384857177734] [-1.752448558807373:2.3178634643554688] [-1.1172919273376465:2.4155662059783936] [-1.7287745475769043:2.0559597015380859] [-1.5151602029800415:1.3718241453170776] [-2.1702189445495605:2.0874221324920654] [-1.5787042379379272:1.9735316038131714] [-3.4038853645324707:1.3875815868377686] [-1.4237594604492188:1.8925213813781738] [-1.5090893507003784:1.7008626461029053] [-2.2477118968963623:1.1252316236495972] [-1.5717962980270386:1.5175344944000244] [-2.295116662979126:1.8488527536392212] [-1.6644018888473511:1.4512495994567871] [-1.4511754512786865:1.3879621028900146] [-2.7841560840606689:1.4257012605667114] [-1.8199508190155029:1.7013893127441406] [-1.1548575162887573:1.9251114130020142] [-2.3458750247955322:1.5191783905029297] [-2.313542366027832:1.7773137092590332] [-1.7680820226669312:1.5621166229248047] [-1.8600883483886719:1.2920488119125366] [-2.3655791282653809:1.7086400985717773] [-2.7503612041473389:1.4886212348937988] [-2.6578855514526367:2.2491264343261719] [-1.0577003955841064:1.6733783483505249] [-2.2450690269470215:2.5763068199157715] [-1.2348225116729736:1.4552630186080933] [-1.4612690210342407:2.0657854080200195] [-1.9147346019744873:1.9182566404342651] [-1.8225380182266235:1.8023103475570679] [-1.4936490058898926:1.2557152509689331] [-1.3201464414596558:1.7603291273117065] [-1.9813421964645386:1.2664024829864502] [-1.3497765064239502:1.7896468639373779] [-1.9971592426300049:1.8366955518722534] [-1.5270419120788574:1.4218854904174805] [-1.8030134439468384:1.7817950248718262] [-1.9389066696166992:1.2126603126525879] [-1.5149918794631958:2.2060103416442871] [-1.6411756277084351:1.5683465003967285] [-1.6051725149154663:2.1093730926513672] [-2.1666936874389648:1.6085548400878906] [-1.480897068977356:0.97926509380340576] [-1.7932711839675903:1.3070665597915649] [-2.9260344505310059:1.4658628702163696] [-1.4906096458435059:1.3082032203674316] [-1.9594547748565674:2.1114497184753418] [-1.4081805944442749:1.4159884452819824] [-2.6167006492614746:1.7867245674133301] [-1.7635354995727539:2.8966240882873535] [-1.6500250101089478:1.9529550075531006] [-1.6043102741241455:1.8559153079986572] [-1.8049532175064087:1.3463025093078613] [-1.2640839815139771:1.3871073722839355] [-1.4784380197525024:2.2165818214416504] [-1.8915046453475952:1.9768117666244507] [-1.540027379989624:1.5699564218521118] [-1.9875873327255249:1.8627429008483887] [-2.1296331882476807:1.3613793849945068] [-1.645944356918335:2.4510002136230469] [-1.0577644109725952:2.4856150150299072] [-1.9593651294708252:2.0483517646789551] [-2.1348624229431152:0.98871707916259766] [-1.8173178434371948:2.1107206344604492] [-1.8556324243545532:2.2668094635009766] [-2.3939871788024902:1.9951281547546387] [-2.0038716793060303:1.8195713758468628] [-1.5804786682128906:1.9306585788726807] [-1.8178913593292236:1.4496634006500244] [-1.5932096242904663:2.0399746894836426] [-1.5424840450286865:1.2148065567016602] [-2.1696591377258301:1.3103667497634888] [-1.8494045734405518:2.0768468379974365] [-1.9239789247512817:0.814322829246521] [-2.1649832725524902:1.5043588876724243] [-1.5473951101303101:1.607219934463501] [-1.7241015434265137:1.4988101720809937] [-1.4648956060409546:1.6181023120880127] [-2.3748033046722412:2.1342742443084717] [-1.5480523109436035:1.4466222524642944] [-1.9052242040634155:1.7151404619216919] [-1.7626955509185791:1.5848491191864014] [-2.1649971008300781:1.7750346660614014] [-1.7443015575408936:1.736690878868103] [-1.165217399597168:2.4805150032043457] [-1.1596328020095825:1.4953001737594604] [-2.1504900455474854:1.4257221221923828] [-2.5133655071258545:1.9570374488830566] [-1.9827982187271118:2.06382155418396] [-1.2739601135253906:1.4696283340454102] [-1.1580764055252075:2.9114899635314941] [-2.0022306442260742:2.0245590209960938] [-2.0526056289672852:2.9366486072540283] [-1.9008831977844238:1.7423642873764038] [-1.6423605680465698:1.3510844707489014] [-1.463740348815918:1.3182895183563232] [-1.4199873208999634:1.7162667512893677] [-2.2823071479797363:1.9993163347244263] [-1.8914352655410767:1.2824039459228516] [-1.531585693359375:1.775675892829895] [-1.3112835884094238:2.0954582691192627] [-1.8117904663085938:1.9403939247131348] [-2.0718865394592285:1.1811240911483765] [-2.541609525680542:1.6269656419754028] [-2.0341813564300537:1.6741305589675903] [-1.74921715259552:1.8302505016326904] [-1.7727868556976318:1.8013644218444824] [-1.6840791702270508:1.6618238687515259] [-3.5019724369049072:1.4085267782211304] [-1.0568269491195679:1.502747654914856] [-1.9736182689666748:1.1135207414627075] [-2.1090214252471924:1.6672420501708984] [-1.1532803773880005:1.1916439533233643] [-1.7802618741989136:1.7051191329956055] [-1.9012056589126587:1.4781641960144043] [-1.7203917503356934:1.5944254398345947] [-1.4294172525405884:2.4074149131774902] [-1.327256441116333:1.6796530485153198] [-1.3933519124984741:1.6778579950332642] [-1.8878341913223267:1.6720132827758789] [-1.4420198202133179:1.3459134101867676] [-1.9658116102218628:1.4488639831542969] [-2.4117348194122314:1.9952090978622437] [-1.6166538000106812:1.8526352643966675] [-1.3999547958374023:2.1086301803588867] [-1.782193660736084:1.8364745378494263] [-1.525583028793335:2.0543208122253418] [-1.5062718391418457:1.3864810466766357] [-1.8904151916503906:1.5231012105941772] [-2.8620913028717041:1.0405882596969604] [-2.0718953609466553:1.5557289123535156] [-2.1713895797729492:1.1961452960968018] [-1.8649793863296509:1.3330764770507812] [-5.9835495948791504:2.8267343044281006] [-1.8505083322525024:2.0833671092987061] [-2.2207596302032471:1.8380000591278076] [-1.757652759552002:1.1455570459365845] [-1.7018662691116333:2.7078499794006348] [-2.6884384155273438:1.0100207328796387] [-1.4342278242111206:1.2317944765090942] [-1.7299702167510986:1.3676124811172485] [-1.5367941856384277:1.5736714601516724] [-1.4793809652328491:3.1593427658081055] [-1.3856881856918335:1.7845592498779297] [-2.844768762588501:1.3991317749023438] [-1.2594189643859863:2.0067138671875] [-1.2463022470474243:1.1880638599395752] [-2.2397696971893311:1.434704065322876] [-2.1936945915222168:1.7154674530029297] [-0.9775691032409668:2.1659917831420898] [-0.9695357084274292:2.3213212490081787] [-1.5658674240112305:2.5153830051422119] [-1.9486392736434937:1.3427844047546387] [-2.1169009208679199:1.0851312875747681] [-1.1116335391998291:1.9795948266983032] [-1.3259075880050659:6.2221598625183105] [-0.85813093185424805:2.3519210815429688] [-1.8556094169616699:1.5000183582305908] [-1.2683134078979492:1.734461784362793] [-2.1426689624786377:1.2530372142791748] [-1.6182191371917725:2.0526528358459473] [-3.6242749691009521:1.5239896774291992] [-1.5614347457885742:1.4068328142166138] [-2.2425587177276611:2.2192051410675049] [-1.4262896776199341:2.879310131072998] [-1.6472381353378296:1.3645986318588257] [-1.6160328388214111:1.1724498271942139] [-2.2094662189483643:1.9374586343765259] [-1.6319398880004883:1.7554169893264771] [-1.8981564044952393:1.785029411315918] [-1.5105416774749756:2.049490213394165] [-1.5925285816192627:1.6826410293579102] [-2.4717416763305664:1.7908908128738403] [-1.417783260345459:1.5833632946014404] [-1.2631511688232422:1.7209905385971069] [-2.1170306205749512:2.1221451759338379] [-1.4419753551483154:1.5200870037078857] [-1.6560255289077759:1.3494405746459961] [-2.0444824695587158:1.8644441366195679] [-1.7621634006500244:1.9471396207809448] [-1.6292568445205688:1.2030434608459473] [-1.8720854520797729:1.5610842704772949] [-1.6580765247344971:1.6842050552368164] [-1.7122093439102173:1.9069046974182129] [-1.1380634307861328:1.456315279006958] [-1.8228917121887207:1.6613991260528564] [-2.397329568862915:2.3551173210144043] [-2.4014830589294434:1.414065957069397] [-1.3259549140930176:1.931147575378418] [-1.0327554941177368:1.9476624727249146] [-2.0157489776611328:2.7847199440002441] [-1.3860114812850952:1.570601224899292] [-1.878429651260376:1.9027568101882935] [-1.6452066898345947:1.8088113069534302] [-1.2147743701934814:1.5646753311157227] [-1.0535401105880737:1.6586165428161621] [-2.2529215812683105:1.787096381187439] [-1.290399432182312:1.6902599334716797] [-1.2496334314346313:2.3875842094421387] [-1.3530259132385254:2.3962514400482178] [-1.9543619155883789:2.2619726657867432] [-1.6721187829971313:1.8794177770614624] [-1.7289522886276245:1.9874730110168457] [-2.1071622371673584:1.844396710395813] [-1.9204100370407104:1.8063323497772217] [-1.5861543416976929:2.0148923397064209] [-2.9546771049499512:1.3418551683425903] [-1.7013086080551147:1.7065646648406982] [-2.6071469783782959:2.8929562568664551] [-1.9332902431488037:2.9697127342224121] [-2.1046652793884277:0.92212158441543579] [-1.8884334564208984:2.8514773845672607] [-2.3435237407684326:0.69845813512802124] [-2.7849745750427246:2.2573041915893555] [-1.8920979499816895:1.619459867477417] [-2.1901969909667969:1.7039848566055298] [-1.9395236968994141:1.9310270547866821] [-2.2901320457458496:1.8386505842208862] [-2.0729029178619385:1.2466177940368652] [-1.6080507040023804:1.7935454845428467] [-1.5863845348358154:1.1369503736495972] [-1.3897092342376709:2.0638856887817383] [-1.7840328216552734:1.3998745679855347] [-1.3304853439331055:1.467320442199707] [-1.0292145013809204:1.45951247215271] [-1.7204784154891968:1.2624391317367554] [-1.4502488374710083:1.7359869480133057] [-1.7162282466888428:2.2511334419250488] [-1.6350913047790527:1.6548655033111572] [-1.4825080633163452:1.221616268157959] [-2.6919772624969482:2.1210751533508301] [-1.847248911857605:1.0688832998275757] [-1.4707916975021362:2.0471451282501221] [-1.8648190498352051:1.39713454246521] [-2.7508161067962646:1.4346705675125122] [-1.5410283803939819:1.8936562538146973] [-1.6563104391098022:1.5627591609954834] [-1.8279982805252075:1.6609432697296143] [-1.8331321477890015:1.7650371789932251] [-1.6336239576339722:1.3574256896972656] [-1.5319844484329224:1.2527806758880615] [-1.5091984272003174:1.3839250802993774] [-1.5980523824691772:1.5286043882369995] [-2.766836404800415:1.689031720161438] [-2.227686882019043:1.6880909204483032] [-2.7061538696289062:1.9072933197021484] [-1.5011086463928223:1.9584290981292725] [-2.000739574432373:1.6012947559356689] [-1.8177335262298584:1.7131586074829102] [-1.0520484447479248:1.6098169088363647] [-2.2747013568878174:1.4870227575302124] [-1.6235756874084473:1.6196283102035522] [-2.1014168262481689:1.9207532405853271] [-1.7963271141052246:2.1783232688903809] [-1.5867904424667358:1.6622711420059204] [-1.2485349178314209:1.8506928682327271] [-1.9552673101425171:1.5629492998123169] [-1.6339449882507324:1.9143770933151245] [-1.6034446954727173:1.5989824533462524] [-1.7618831396102905:1.7150352001190186] [-1.9526458978652954:0.94912511110305786] [-1.4803048372268677:1.5425550937652588] [-1.7425990104675293:2.1152491569519043] [-1.8727918863296509:1.4034121036529541] [-1.7984380722045898:1.1459313631057739] [-1.6577461957931519:2.8800768852233887] [-1.3988510370254517:1.5351287126541138] [-2.0886304378509521:2.418001651763916] [-1.3254587650299072:1.3198270797729492] [-1.5502405166625977:1.9598016738891602] [-2.0066099166870117:1.6478779315948486] [-1.9501817226409912:1.8490626811981201] [-1.800385594367981:1.4206929206848145] [-3.1516191959381104:1.4346531629562378] [-1.2629008293151855:1.7811688184738159] [-2.2825720310211182:0.94942724704742432] [-1.9902925491333008:1.2154262065887451] [-1.660703182220459:2.6293959617614746] [-1.7150315046310425:1.6089328527450562] [-1.4626305103302002:2.0317273139953613] [-1.1830474138259888:2.7020890712738037] [-2.6277861595153809:2.1809029579162598] [-1.6866354942321777:2.2642452716827393] [-1.1717145442962646:1.6922807693481445] [-2.4429218769073486:1.4262304306030273] [-1.3117506504058838:0.9832720160484314] [-2.539966344833374:1.2052738666534424] [-2.1409709453582764:1.4026733636856079] [-1.3068501949310303:1.6835025548934937] [-2.8810021877288818:1.6988658905029297] [-1.3260918855667114:2.2207944393157959] [-1.4643940925598145:1.8915271759033203] [-1.4826141595840454:1.7289574146270752] [-1.7061926126480103:1.7404912710189819] [-1.7648228406906128:1.3026648759841919] [-1.4848008155822754:1.8199280500411987] [-1.8795722723007202:1.7694158554077148] [-2.4568994045257568:1.0969686508178711] [-2.2261595726013184:1.901936411857605] [-1.048380970954895:2.0940768718719482] [-2.1907773017883301:1.6535180807113647] [-2.3474929332733154:1.6044491529464722] [-1.5150430202484131:2.5001933574676514] [-1.5109908580780029:2.1238296031951904] [-2.0995414257049561:1.2650871276855469] [-1.1491923332214355:2.7802033424377441] [-1.6899793148040771:1.5919839143753052] [-1.5105597972869873:1.5031945705413818] [-1.9255653619766235:1.6833451986312866] [-1.742027759552002:3.5616288185119629] [-1.6277748346328735:1.4502314329147339] [-1.6692086458206177:1.5293434858322144] [-1.6195070743560791:1.7346609830856323] [-2.5766782760620117:1.5585075616836548] [-1.6255016326904297:1.7275645732879639] [-2.1503098011016846:1.5747483968734741] [-3.3199524879455566:1.8725301027297974] [-1.5155191421508789:2.215611457824707] [-2.2126209735870361:1.6948792934417725] [-1.5399664640426636:1.9819321632385254] [-1.5748107433319092:1.4694911241531372] [-3.0962827205657959:1.6168628931045532] [-1.842149019241333:2.2579667568206787] [-2.2838315963745117:1.49931800365448] [-1.7662589550018311:2.2610092163085938] [-1.9543768167495728:1.409543514251709] [-1.6058000326156616:1.4833364486694336] [-1.8687878847122192:1.6253430843353271] [-1.3593730926513672:1.7533162832260132] [-1.3999041318893433:2.347820520401001] [-2.1801667213439941:1.890172004699707] [-1.735198974609375:1.2610692977905273] [-1.0675506591796875:1.9836344718933105] [-1.7934533357620239:1.2802901268005371] [-1.2351654767990112:1.7500015497207642] [-1.4370132684707642:1.3170175552368164] [-1.345104455947876:1.861996054649353] [-1.2145231962203979:1.8647871017456055] [-2.4123873710632324:1.2516124248504639] [-1.272135853767395:0.74950647354125977] [-1.7695362567901611:1.1446740627288818] [-1.4999818801879883:2.0528774261474609] [-2.2038068771362305:2.0013895034790039] [-2.501068115234375:1.2765860557556152] [-1.5367977619171143:1.4988019466400146] [-2.1451523303985596:1.8988533020019531] [-1.5667853355407715:1.8055644035339355] [-0.73970776796340942:1.8150923252105713] [-1.9991066455841064:1.5958654880523682] [-3.2257289886474609:1.6941229104995728] [-1.664401650428772:2.1003518104553223] [-1.6796164512634277:1.7625393867492676] [-1.62291419506073:1.0411275625228882] [-1.7078847885131836:2.4523129463195801] [-1.9342968463897705:2.1692273616790771] [-2.5105361938476562:1.4739539623260498] [-2.2269001007080078:1.9404755830764771] [-1.7509979009628296:1.9946106672286987] [-1.6874569654464722:1.3466068506240845] [-1.6673461198806763:1.7378072738647461] [-1.5121810436248779:1.237035870552063] [-2.7245509624481201:1.2252597808837891] [-1.1566863059997559:1.3322740793228149] [-2.2021100521087646:1.4974219799041748] [-1.3670097589492798:2.2749288082122803] [-1.3250783681869507:2.2101643085479736] [-0.86496990919113159:2.6356055736541748] [-1.7330870628356934:1.3278201818466187] [-2.1065661907196045:1.7532912492752075] [-1.509223461151123:2.9111955165863037] [-1.6081802845001221:0.81211447715759277] [-1.7065072059631348:1.2914531230926514] [-2.1440138816833496:2.6959338188171387] [-1.2925986051559448:1.6494349241256714] [-2.1113686561584473:1.7289201021194458] [-1.668100118637085:1.6568422317504883] [-1.3464295864105225:1.6919035911560059] [-1.4705779552459717:1.3650333881378174] [-1.7964439392089844:1.3325208425521851] [-1.2483812570571899:1.9669486284255981] [-2.8128421306610107:2.0551905632019043] [-1.6038190126419067:2.5962021350860596] [-1.2250616550445557:1.3908109664916992] [-1.3469805717468262:2.0655279159545898] [-1.8536226749420166:1.4558820724487305] [-2.4880273342132568:1.1729538440704346] [-1.803394079208374:1.8734803199768066] [-1.8128854036331177:1.8434251546859741] [-1.8697469234466553:2.2561643123626709] [-2.1741971969604492:1.5040801763534546] [-1.9283372163772583:1.5302432775497437] [-1.314816951751709:1.9422634840011597] [-1.7602788209915161:1.2098100185394287] [-1.1154208183288574:2.0571162700653076] [-2.0593709945678711:1.680986762046814] [-1.1968482732772827:1.2135163545608521] [-1.3636397123336792:2.4478459358215332] [-2.1453392505645752:1.3272558450698853] [-2.13913893699646:1.6598997116088867] [-1.4863284826278687:2.0011155605316162] [-1.311484694480896:1.8883781433105469] [-1.6302745342254639:1.1471080780029297] [-2.0913186073303223:2.1037523746490479] [-1.2794710397720337:1.9297634363174438] [-1.8924324512481689:1.6520633697509766] [-1.4252867698669434:1.7283527851104736] [-2.9308521747589111:1.6194103956222534] [-1.3062546253204346:1.644423246383667] [-1.5209473371505737:1.7471374273300171] [-2.2059931755065918:2.1145944595336914] [-1.3137524127960205:1.7659245729446411] [-1.9889711141586304:2.0872502326965332] [-1.950160026550293:1.9369463920593262] [-1.7313954830169678:1.9501744508743286] [-1.8643348217010498:1.8704524040222168] [-1.9845011234283447:1.9497470855712891] [-1.1177946329116821:2.2143986225128174] [-1.7092717885971069:1.8690004348754883] [-1.4639105796813965:1.8348820209503174] [-2.2047102451324463:1.9603573083877563] [-2.2003331184387207:2.1560633182525635] [-1.703241229057312:1.9256224632263184] [-1.5307133197784424:2.520282506942749] [-1.5085535049438477:1.3640151023864746] [-1.6147298812866211:1.4897664785385132] [-1.4087843894958496:1.2065193653106689] [-1.7907847166061401:1.7308392524719238] [-1.9623148441314697:1.613619327545166] [-2.1300935745239258:1.3723729848861694] [-1.6067450046539307:1.5542678833007812] [-1.9609023332595825:1.7731220722198486] [-3.0103988647460938:1.0146627426147461] [-1.3286170959472656:2.0108776092529297] [-1.336533784866333:1.9814467430114746] [-2.3608503341674805:1.522114634513855] [-1.3174608945846558:1.5486462116241455] [-2.5600824356079102:1.5644164085388184] [-1.3953523635864258:1.9765292406082153] [-2.2660987377166748:1.551109790802002] [-1.3655251264572144:1.6886454820632935] [-1.7382363080978394:2.5233607292175293] [-0.22680163383483887:8.1601905822753906] [-1.224164605140686:1.5365912914276123] [-1.4551964998245239:1.0101829767227173] [-2.2282607555389404:1.6792266368865967] [-1.8384463787078857:1.750027060508728] [-1.8154729604721069:1.3112449645996094] [-2.221550464630127:1.4429821968078613] [-1.084107518196106:2.2112982273101807] [-1.9315072298049927:1.4840400218963623] [-1.7671009302139282:0.99985319375991821] [-1.5751503705978394:1.1844656467437744] [-1.4108929634094238:1.3951735496520996] [-1.8691147565841675:2.679755687713623] [-1.4003136157989502:2.9376320838928223] [-1.802248477935791:1.570483922958374] [-1.2573347091674805:2.4517514705657959] [-2.7141125202178955:1.7652393579483032] [-2.2631874084472656:1.4982668161392212] [-1.5363950729370117:1.3333208560943604] [-1.7038862705230713:1.5075297355651855] [-1.9202691316604614:1.4462864398956299] [-1.4804760217666626:1.5002663135528564] [-1.8257983922958374:1.3715739250183105] [-1.4186878204345703:1.657658576965332] [-1.78466796875:2.3844301700592041] [-2.7913022041320801:2.1425974369049072] [-1.369135856628418:1.6872286796569824] [-1.4830830097198486:2.6674253940582275] [-3.0984039306640625:1.2968528270721436] [-2.2191216945648193:1.9117540121078491] [-1.9923484325408936:2.0324521064758301] [-1.5089972019195557:2.093522310256958] [-1.1407922506332397:1.596610426902771] [-1.415083646774292:2.4515817165374756] [-1.7144026756286621:3.3116004467010498] [-1.2021393775939941:2.1845595836639404] [-1.4650843143463135:1.4370303153991699] [-1.2302029132843018:1.5987998247146606] [-1.9514855146408081:1.3112069368362427] [-2.0454177856445312:2.2543783187866211] [-1.4410896301269531:1.2986844778060913] [-1.5663027763366699:1.3868033885955811] [-1.5009981393814087:2.4302458763122559] [-1.9178289175033569:1.6450319290161133] [-1.1403275728225708:1.8564561605453491] [-1.9314780235290527:2.9225828647613525] [-2.270404577255249:1.4041008949279785] [-2.1502273082733154:2.6829221248626709] [-2.352597713470459:1.466211199760437] [-2.1788654327392578:1.8844460248947144] [-1.4884535074234009:1.5852812528610229] [-1.8568017482757568:1.5495442152023315] [-1.7530649900436401:1.1646361351013184] [-1.6589839458465576:1.7611238956451416] [-1.9234857559204102:2.3614387512207031] [-1.5824178457260132:1.6753780841827393] [-2.5755386352539062:1.3504543304443359] [-1.5813169479370117:1.9515705108642578] [-1.0582528114318848:2.1812314987182617] [-2.4708337783813477:2.0538034439086914] [-2.2301554679870605:1.8147444725036621] [-2.4091153144836426:1.3355965614318848] [-1.8142752647399902:2.3872389793395996] [-1.7545024156570435:2.1190171241760254] [-2.6176352500915527:1.4927682876586914] [-1.9101319313049316:1.9906209707260132] [-1.2963236570358276:1.2523809671401978] [-1.0752078294754028:2.0318753719329834] [-1.3638772964477539:2.3410632610321045] [-2.6995172500610352:1.3168387413024902] [-1.6216304302215576:2.2245662212371826] [-1.1997977495193481:1.0770137310028076] [-1.8491073846817017:1.8233507871627808] [-2.4295871257781982:2.279848575592041] [-1.7164777517318726:1.8085322380065918] [-1.8830671310424805:1.316676139831543] [-1.7931680679321289:2.9876167774200439] [-2.2993519306182861:1.000712513923645] [-1.5773375034332275:2.6978647708892822] [-2.4738340377807617:1.8177074193954468] [-1.3811876773834229:1.0618352890014648] [-1.8767685890197754:0.81075477600097656] [-1.6539702415466309:1.9456304311752319] [-1.4359484910964966:1.6904155015945435] [-1.6787698268890381:1.8842716217041016] [-2.836540699005127:2.0593428611755371] [-1.9629032611846924:2.5025858879089355] [-2.3786418437957764:2.619497537612915] [-1.5336211919784546:1.2921146154403687] [-2.5877485275268555:1.2302409410476685] [-1.8327088356018066:1.9248590469360352] [-2.0494358539581299:1.5754295587539673] [-1.5514535903930664:1.1399756669998169] [-2.303959846496582:1.9552888870239258] [-1.4321335554122925:2.0045168399810791] [-1.1832320690155029:2.2237212657928467] [-1.6508737802505493:1.9591692686080933] [-1.4820817708969116:1.6394728422164917] [-1.8621484041213989:2.2762408256530762] [-2.0226233005523682:1.0107789039611816] [-1.9035192728042603:1.9240497350692749] [-1.6659092903137207:1.2300760746002197] [-1.6104252338409424:2.3223476409912109] [-1.5663912296295166:2.3180522918701172] [-2.4403724670410156:0.88956314325332642] [-2.303417444229126:2.0684096813201904] [-1.9830949306488037:1.6836597919464111] [-3.4305198192596436:1.3563193082809448] [-1.1858888864517212:2.0363500118255615] [-2.1484229564666748:1.4012175798416138] [-2.0182080268859863:1.1571983098983765] [-1.4913841485977173:2.3516590595245361] [-1.6923307180404663:2.0463950634002686] [-1.6180961132049561:1.4659206867218018] [-2.0991344451904297:1.6916365623474121] [-1.516910195350647:2.1078224182128906] [-1.8791718482971191:2.1626074314117432] [-1.3879250288009644:1.5194166898727417] [-1.3579562902450562:2.0038955211639404] [-1.6449646949768066:1.9212623834609985] [-1.6132160425186157:1.9096877574920654] [-1.7277005910873413:1.903939962387085] [-1.3382240533828735:1.6217811107635498] [-1.7096346616744995:1.8142759799957275] [-2.4374210834503174:1.3591139316558838] [-2.5513753890991211:1.2161610126495361] [-3.9612975120544434:1.7611136436462402] [-1.808702826499939:3.1996066570281982] [-1.7633055448532104:1.7556113004684448] [-1.0952171087265015:1.9051517248153687] [-1.4548361301422119:1.6479231119155884] [-1.5092675685882568:1.7009031772613525] [-1.212270975112915:1.107205867767334] [-1.3580459356307983:1.7642829418182373] [-1.3535417318344116:1.5841383934020996] [-1.2087690830230713:1.8542798757553101] [-1.5072380304336548:1.3983410596847534] [-1.0701208114624023:1.6035441160202026] [-2.5459020137786865:1.8028237819671631] [-1.9461976289749146:1.9054387807846069] [-2.5035839080810547:0.88227474689483643] [-3.0572826862335205:1.678882360458374] [-1.7645835876464844:2.275540828704834] [-2.8712284564971924:1.5380699634552002] [-2.008333683013916:2.0170388221740723] [-1.9695906639099121:1.7034677267074585] [-1.5975418090820312:2.0796527862548828] [-2.1913230419158936:2.5573914051055908] [-2.1373066902160645:1.4387725591659546] [-1.5239027738571167:1.2593363523483276] [-2.874046802520752:1.271181583404541] [-2.2160966396331787:2.5338180065155029] [-1.8475577831268311:1.2750533819198608] [-1.7202146053314209:0.93519914150238037] [-1.7489043474197388:1.6679263114929199] [-1.6021192073822021:2.079953670501709] [-1.733917236328125:1.1901388168334961] [-2.6658895015716553:2.7771909236907959] [-3.1898000240325928:1.3779463768005371] [-2.1426024436950684:2.492833137512207] [-1.7751611471176147:1.0372447967529297] [-1.9879404306411743:1.8763884305953979] [-1.4836453199386597:1.7272548675537109] [-1.048952579498291:1.8091135025024414] [-2.2068755626678467:1.4627790451049805] [-1.835045337677002:2.2409710884094238] [-1.9784066677093506:1.3575763702392578] [-1.3557740449905396:1.8505308628082275] [-2.1219208240509033:2.359060525894165] [-1.2901229858398438:1.556215763092041] [-1.2213870286941528:1.6610398292541504] [-1.5040948390960693:2.1042106151580811] [-2.0443530082702637:1.7714433670043945] [-2.6998031139373779:1.5940653085708618] [-2.0011560916900635:1.7692784070968628] [-1.6385236978530884:1.8364015817642212] [-1.7647180557250977:1.7311800718307495] [-2.8592607975006104:2.2665784358978271] [-1.8980547189712524:1.654080867767334] [-1.801936149597168:2.5868935585021973] [-1.8029125928878784:1.9534308910369873] [-1.9375834465026855:1.1249816417694092] [-1.5537545680999756:1.8388562202453613] [-1.9820737838745117:1.4744871854782104] [-2.4330387115478516:2.1979343891143799] [-1.6985498666763306:2.0880038738250732] [-2.2581944465637207:1.1680794954299927] [-2.0710127353668213:1.8755940198898315] [-1.1095662117004395:1.9175258874893188] [-1.3768024444580078:1.6813852787017822] [-2.1882481575012207:1.5330905914306641] [-1.9615886211395264:2.2047629356384277] [-1.8268460035324097:1.7645584344863892] [-1.80518639087677:3.2390389442443848] [-1.4646711349487305:0.89005661010742188] [-1.7667765617370605:1.682874321937561] [-2.3218767642974854:1.466031551361084] [-1.8896054029464722:2.6844720840454102] [-1.5635205507278442:1.648923397064209] [-0.9473567008972168:3.865851879119873] [-2.5616602897644043:1.8898142576217651] [-1.2998589277267456:2.3310914039611816] [-2.600360631942749:0.99528372287750244] [-1.5207128524780273:1.8101639747619629] [-1.8350695371627808:1.9104229211807251] [-1.1684509515762329:1.6041208505630493] [-1.5362964868545532:1.7155917882919312] [-1.8355346918106079:2.7319326400756836] [-1.7068934440612793:1.6969785690307617] [-1.5028872489929199:1.8108668327331543] [-2.1695077419281006:1.1744043827056885] [-1.0555664300918579:2.1179628372192383] [-1.4306342601776123:2.6478517055511475] [-1.2197035551071167:2.1807622909545898] [-2.5507605075836182:2.1661477088928223] [-1.1430487632751465:1.4643572568893433] [-2.3376045227050781:2.1416635513305664] [-1.0270699262619019:2.3706483840942383] [-1.6266520023345947:2.5583803653717041] [-1.3825032711029053:1.6885650157928467] [-2.0437870025634766:1.2276575565338135] [-1.8415752649307251:1.1765687465667725] [-1.6969472169876099:1.6865506172180176] [-1.4407870769500732:1.5459085702896118] [-2.2504031658172607:1.0179661512374878] [-1.2210402488708496:1.5363200902938843] [-0.94902896881103516:2.7182385921478271] [-1.6131287813186646:1.9773052930831909] [-1.1644840240478516:2.343308687210083] [-1.7482972145080566:2.3619787693023682] [-2.0584697723388672:3.0841846466064453] [-1.7318211793899536:1.5814787149429321] [-1.2548966407775879:0.35253274440765381] [-1.691071629524231:1.6852542161941528] [-2.5302786827087402:1.7748993635177612] [-2.1736452579498291:1.5585305690765381] [-1.4235972166061401:2.4066283702850342] [-1.5727020502090454:2.0150094032287598] [-1.9951937198638916:1.2957758903503418] [-1.5261883735656738:1.6467212438583374] [-2.0984253883361816:1.7102137804031372] [-1.5855889320373535:1.8589853048324585] [-1.5498812198638916:1.95243239402771] [-2.5232141017913818:1.0384578704833984] [-1.078282356262207:1.1828547716140747] [-1.2310175895690918:1.4639121294021606] [-1.9738852977752686:2.2615311145782471] [-1.4659644365310669:2.0742459297180176] [-2.1082324981689453:2.1759030818939209] [-0.7101861834526062:3.9591915607452393] [-1.6941843032836914:1.4486930370330811] [-2.33567214012146:2.0061671733856201] [-0.91258251667022705:1.987572193145752] [-2.0542192459106445:1.1691522598266602] [-1.9684150218963623:2.0494697093963623] [-1.8223545551300049:1.6968815326690674] [-1.5343266725540161:1.7507219314575195] [-1.7102729082107544:1.5522464513778687] [-2.6360006332397461:1.9250953197479248] [-1.7660338878631592:1.5438289642333984] [-1.6140846014022827:1.5924638509750366] [-1.5235306024551392:1.4248536825180054] [-2.2251119613647461:1.6016775369644165] [-1.0641709566116333:1.489483118057251] [-24.72563362121582:-9.5073909759521484] [-1.0156340599060059:1.8922909498214722] [-1.6385059356689453:2.197136402130127] [-1.8245919942855835:1.4802067279815674] [-1.8010343313217163:1.9189167022705078] [-2.475628137588501:1.3308556079864502] [-1.5546730756759644:1.2570477724075317] [-1.1114604473114014:-0.084057077765464783] [-1.5902144908905029:1.9524393081665039] [-1.7696928977966309:2.3399519920349121] [-1.7886703014373779:0.67301321029663086] [-1.7680628299713135:1.2566969394683838] [-1.2831823825836182:1.8465380668640137] [-1.3712054491043091:1.8224575519561768] [-1.996132493019104:1.3070172071456909] [-1.2687581777572632:1.9218653440475464] [-1.8837554454803467:1.0573914051055908] [-1.9802027940750122:1.0565680265426636] [-1.9641906023025513:1.3171955347061157] [-2.1559176445007324:1.6231796741485596] [-2.2449321746826172:1.8132809400558472] [-1.994941234588623:1.4345158338546753] [-2.4973709583282471:1.4392392635345459] [-2.9222047328948975:1.3488931655883789] [-1.2948065996170044:1.5208501815795898] [-1.5759710073471069:1.8347655534744263] [-2.22855544090271:1.9555274248123169] [-1.9059021472930908:1.6941580772399902] [-1.5346217155456543:1.7569862604141235] [-1.487011194229126:2.5589151382446289] [-1.9709534645080566:1.2694423198699951] [-1.4773565530776978:2.0551643371582031] [-1.7277942895889282:1.3829580545425415] [-2.4752895832061768:1.8471803665161133] [-1.9366421699523926:1.378095269203186] [-1.0491082668304443:2.393552303314209] [-1.7291316986083984:1.8920738697052002] [-1.8733049631118774:2.2281510829925537] [-1.5168360471725464:1.797967791557312] [-2.3008809089660645:1.5012719631195068] [-2.1546516418457031:2.2062046527862549] [-1.1313169002532959:1.7803887128829956] [-1.8778312206268311:2.0011529922485352] [-1.5026929378509521:1.9841889142990112] [-1.9245816469192505:2.0929145812988281] [-1.5016140937805176:1.2306344509124756] [-2.3700778484344482:1.6523171663284302] [-1.1099218130111694:1.5692459344863892] [-1.1654809713363647:1.9787064790725708] [-2.1855864524841309:1.3456666469573975] [-1.0798826217651367:1.9386353492736816] [-1.746336817741394:1.2992171049118042] [-1.186229944229126:2.0634233951568604] [-2.1731712818145752:2.0778937339782715] [-1.3503931760787964:2.0543262958526611] [-1.2273041009902954:1.5102424621582031] [-1.78373122215271:1.3905277252197266] [-1.8755327463150024:1.788848876953125] [-1.470487117767334:2.3555278778076172] [-1.0423140525817871:1.8753204345703125] [-1.8250529766082764:2.3804912567138672] [-2.2909886837005615:1.9086716175079346] [-1.7267839908599854:2.0798649787902832] [-1.8520302772521973:2.3046660423278809] [-1.2923460006713867:2.1265645027160645] [-1.7151947021484375:1.8751862049102783] [-1.9606773853302002:1.0309815406799316] [-2.230151891708374:1.937214732170105] [-2.0385944843292236:1.9718036651611328] [-3.4461977481842041:1.3962229490280151] [-1.5042848587036133:2.6122283935546875] [-1.7819923162460327:1.6058313846588135] [-2.6197936534881592:1.2409104108810425] [-1.8977503776550293:1.6803940534591675] [-2.097247838973999:1.9976432323455811] [-1.8861379623413086:1.3151605129241943] [-1.4721636772155762:1.4292449951171875] [-2.5307261943817139:1.694604754447937] [-2.2359604835510254:1.4336652755737305] [-1.3081244230270386:1.8834234476089478] [-2.313302755355835:1.9097411632537842] [-2.2062866687774658:1.7329065799713135] [-1.7130893468856812:1.7448110580444336] [-2.0135562419891357:1.4202203750610352] [-2.2020664215087891:1.6150274276733398] [-2.6586823463439941:1.7279887199401855] [-2.6850254535675049:2.2348828315734863] [-1.1340756416320801:1.6632393598556519] [-2.009873628616333:2.2197809219360352] [-0.72563189268112183:1.6617262363433838] [-1.662312388420105:1.8597556352615356] [-1.7014145851135254:1.8313809633255005] [-2.1070787906646729:1.9077883958816528] [-1.4339085817337036:0.9235261082649231] [-1.9257116317749023:1.5389068126678467] [-1.9190268516540527:1.2488586902618408] [-1.3563470840454102:1.7017273902893066] [-2.0926980972290039:1.5983432531356812] [-1.6588292121887207:1.4855879545211792] [-1.8249047994613647:1.8300281763076782] [-2.0022742748260498:1.7478458881378174] [-1.6301604509353638:1.9179662466049194] [-1.8075294494628906:1.1624376773834229] [-1.8191717863082886:1.8923267126083374] [-1.9744619131088257:1.4213062524795532] [-1.256475567817688:0.94062089920043945] [-1.8061699867248535:1.3014577627182007] [-2.5078680515289307:1.3679573535919189] [-1.5219352245330811:1.3250226974487305] [-2.2117550373077393:2.1309542655944824] [-1.3955883979797363:1.1813268661499023] [-2.4576587677001953:1.7688316106796265] [-1.6837949752807617:2.5493769645690918] [-1.6765346527099609:2.2836043834686279] [-1.8681919574737549:1.7003847360610962] [-1.8184723854064941:1.6471970081329346] [-1.4093179702758789:1.6010521650314331] [-1.378667950630188:2.3377742767333984] [-1.6247602701187134:2.0591225624084473] [-1.5089229345321655:1.3787848949432373] [-1.9048471450805664:1.8825712203979492] [-2.1194660663604736:1.1974694728851318] [-1.6045119762420654:2.7211754322052002] [-1.2905519008636475:2.6823983192443848] [-1.9241708517074585:1.5169212818145752] [-2.4263267517089844:1.2160166501998901] [-2.1556575298309326:1.5457702875137329] [-2.038679838180542:2.7045567035675049] [-2.1651191711425781:2.4986639022827148] [-2.1809608936309814:1.5907186269760132] [-1.9065815210342407:1.4996112585067749] [-1.5297236442565918:1.3761820793151855] [-1.7503868341445923:1.861211895942688] [-1.3466107845306396:1.409392237663269] [-1.9869682788848877:1.6349245309829712] [-1.7162182331085205:1.7779171466827393] [-1.9739539623260498:0.95918858051300049] [-2.1940617561340332:1.6642210483551025] [-1.5824849605560303:1.929195761680603] [-1.9287278652191162:1.3323770761489868] [-1.3429926633834839:1.5593193769454956] [-2.3297829627990723:1.8533557653427124] [-1.4996310472488403:1.5676480531692505] [-1.532576322555542:2.451021671295166] [-1.8185123205184937:1.7467312812805176] [-2.2317006587982178:1.6750127077102661] [-1.658133864402771:1.877993106842041] [-1.2213622331619263:2.591688871383667] [-1.2638896703720093:1.7113907337188721] [-2.305161714553833:1.5028069019317627] [-2.441962718963623:2.1874904632568359] [-2.1400246620178223:2.4251914024353027] [-1.2321637868881226:1.6495146751403809] [-1.2061879634857178:2.6953601837158203] [-1.7476907968521118:1.9893271923065186] [-2.1339027881622314:3.1647851467132568] [-1.8868609666824341:2.0164783000946045] [-1.3604788780212402:1.3485773801803589] [-1.329075813293457:1.1450860500335693] [-1.3065842390060425:1.717564582824707] [-2.0093462467193604:2.1499712467193604] [-1.8430030345916748:1.2839642763137817] [-1.6873420476913452:2.1808371543884277] [-1.3060332536697388:1.8679426908493042] [-1.6377122402191162:1.5328423976898193] [-2.0371789932250977:1.3716585636138916] [-2.0633087158203125:1.5523988008499146] [-1.7365012168884277:2.0104773044586182] [-1.7056396007537842:1.4336847066879272] [-1.9385337829589844:2.1648330688476562] [-1.9720355272293091:1.7001913785934448] [-3.9740321636199951:1.2268415689468384] [-1.0962948799133301:1.6531530618667603] [-1.572613000869751:1.2867107391357422] [-2.0274336338043213:1.6354773044586182] [-1.6111514568328857:1.5055252313613892] [-1.965336799621582:1.5069910287857056] [-1.9769545793533325:1.4927723407745361] [-1.5942180156707764:1.6090786457061768] [-1.0004807710647583:1.7814582586288452] [-1.2634650468826294:1.52776038646698] [-1.4835090637207031:1.2862011194229126] [-1.6802424192428589:1.7607020139694214] [-1.2300115823745728:1.7907800674438477] [-1.9452091455459595:1.4295270442962646] [-2.3555619716644287:1.6130088567733765] [-1.7385942935943604:2.1444640159606934] [-1.5367487668991089:2.1058919429779053] [-1.8941597938537598:1.6244686841964722] [-1.7928266525268555:2.1412482261657715] [-1.5957001447677612:1.4298199415206909] [-1.8245748281478882:1.3524494171142578] [-2.4774367809295654:0.92633581161499023] [-2.1311616897583008:1.3952262401580811] [-2.3965239524841309:0.87612098455429077] [-1.8840579986572266:1.1362020969390869] [-5.7018017768859863:2.7792305946350098] [-2.2046518325805664:1.5129157304763794] [-1.923619270324707:1.5302685499191284] [-1.725792407989502:1.2708835601806641] [-1.9890769720077515:2.7679243087768555] [-2.7047266960144043:1.1602516174316406] [-2.011094331741333:1.0230696201324463] [-1.5096932649612427:1.4070707559585571] [-1.6039340496063232:1.8020834922790527] [-1.7922904491424561:3.4706082344055176] [-1.3747366666793823:1.55474853515625] [-2.3378407955169678:1.0957187414169312] [-1.2092816829681396:2.007190465927124] [-0.9766421914100647:1.2714240550994873] [-1.653566837310791:1.4392824172973633] [-2.0029091835021973:2.1904783248901367] [-0.94582271575927734:2.0818188190460205] [-0.67750066518783569:2.5086095333099365] [-1.6276853084564209:2.6088716983795166] [-1.6472735404968262:1.66852867603302] [-1.6599959135055542:0.71357834339141846] [-1.5075063705444336:2.1576967239379883] [-1.3707947731018066:6.1241364479064941] [-0.90464532375335693:2.2003066539764404] [-2.122929573059082:1.6182082891464233] [-1.4241390228271484:1.96706223487854] [-2.5912671089172363:1.2708474397659302] [-1.2615833282470703:2.5039997100830078] [-3.3785271644592285:1.0228780508041382] [-1.4416102170944214:2.0224530696868896] [-1.7914180755615234:2.042609691619873] [-1.4485032558441162:3.5753383636474609] [-1.7794328927993774:1.2408614158630371] [-1.567371129989624:1.281847357749939] [-2.2061262130737305:1.7658069133758545] [-1.8235456943511963:1.7671899795532227] [-1.7644205093383789:1.9289162158966064] [-1.7539989948272705:1.6116172075271606] [-1.733855128288269:1.9731556177139282] [-3.2172250747680664:1.7811801433563232] [-1.0239840745925903:1.6534976959228516] [-1.4394041299819946:1.7106219530105591] [-2.1848008632659912:2.1137213706970215] [-1.0809409618377686:1.9244239330291748] [-1.3627972602844238:1.5468103885650635] [-2.4435639381408691:1.6540077924728394] [-1.5000309944152832:2.241276741027832] [-1.7809509038925171:1.2421560287475586] [-1.8177413940429688:1.8401356935501099] [-1.5812325477600098:1.4366207122802734] [-1.6954499483108521:2.0042860507965088] [-1.300933837890625:1.5433536767959595] [-2.045546293258667:1.8134927749633789] [-2.2389400005340576:2.261812686920166] [-2.1721038818359375:1.52293860912323] [-1.1516643762588501:2.1047248840332031] [-0.95493233203887939:2.3294885158538818] [-2.2444493770599365:2.7874271869659424] [-0.95219653844833374:1.5275470018386841] [-1.7224080562591553:2.1153562068939209] [-1.9911234378814697:1.7120575904846191] [-1.0383948087692261:2.0751118659973145] [-0.7730863094329834:1.4608993530273438] [-2.3117213249206543:1.6122612953186035] [-1.5498050451278687:0.89446598291397095] [-1.4426082372665405:2.6311631202697754] [-1.346205472946167:2.4183206558227539] [-2.5161070823669434:2.5155422687530518] [-1.8667260408401489:1.5549315214157104] [-1.7865166664123535:1.9080828428268433] [-2.2921645641326904:1.7647973299026489] [-2.2118322849273682:1.5550414323806763] [-1.9039864540100098:2.1031608581542969] [-2.6611998081207275:1.350139856338501] [-1.7540490627288818:2.0768477916717529] [-2.2644071578979492:3.4248430728912354] [-1.9318784475326538:2.8606023788452148] [-1.9674957990646362:0.93177026510238647] [-1.6948800086975098:3.0818266868591309] [-1.9819352626800537:0.70293653011322021] [-2.5050349235534668:2.7367947101593018] [-1.6819518804550171:1.6977089643478394] [-2.0064718723297119:1.4824138879776001] [-2.1089811325073242:1.6880254745483398] [-2.3422598838806152:1.8455712795257568] [-1.8657050132751465:1.3031115531921387] [-1.390689492225647:1.7622835636138916] [-1.2351531982421875:1.6162495613098145] [-1.7556335926055908:2.280336856842041] [-2.0268597602844238:1.3875552415847778] [-1.2477118968963623:1.522901177406311] [-1.5957043170928955:1.3442256450653076] [-1.7593135833740234:1.0567874908447266] [-1.6864476203918457:1.4667514562606812] [-1.91251540184021:2.6243739128112793] [-1.7295150756835938:1.6143466234207153] [-1.6257257461547852:1.4068622589111328] [-2.5388431549072266:2.3898909091949463] [-1.9078923463821411:1.3014258146286011] [-1.5606493949890137:1.4341578483581543] [-1.3267554044723511:1.0367431640625] [-2.5112133026123047:1.3600680828094482] [-1.3767123222351074:2.0810210704803467] [-1.766114354133606:1.3986265659332275] [-1.6964612007141113:1.5284144878387451] [-1.7328946590423584:2.1447513103485107] [-1.9516774415969849:1.173922061920166] [-1.7747269868850708:1.2236857414245605] [-1.2903892993927002:1.9080674648284912] [-1.6788266897201538:1.490446925163269] [-3.2819509506225586:1.6411201953887939] [-1.8705403804779053:2.1555953025817871] [-2.5868294239044189:1.7671571969985962] [-1.3429985046386719:1.9161380529403687] [-1.8094677925109863:2.2137773036956787] [-1.9975898265838623:1.7401109933853149] [-1.0854895114898682:1.5629558563232422] [-1.9630794525146484:1.5894811153411865] [-1.5911610126495361:1.3773599863052368] [-2.1539850234985352:1.7122330665588379] [-2.1084973812103271:2.3171181678771973] [-1.5654734373092651:1.9833527803421021] [-1.6954803466796875:1.7365334033966064] [-2.1858851909637451:1.4593117237091064] [-1.5688475370407104:1.89641273021698] [-1.8843674659729004:1.645709753036499] [-1.6388440132141113:1.4102154970169067] [-2.0528864860534668:0.77673238515853882] [-1.6919189691543579:1.2509497404098511] [-1.8825953006744385:1.7905889749526978] [-1.1439057588577271:1.2337925434112549] [-1.9032760858535767:1.0971628427505493] [-1.304723858833313:3.0126643180847168] [-1.5143032073974609:1.324409008026123] [-2.1313562393188477:2.1272525787353516] [-1.5993713140487671:0.90913814306259155] [-1.5762271881103516:1.5736409425735474] [-2.0811266899108887:1.7020889520645142] [-2.3028931617736816:1.7153569459915161] [-1.2598000764846802:1.7938103675842285] [-2.9873595237731934:1.4880689382553101] [-1.2341582775115967:1.4412398338317871] [-1.7643150091171265:0.88315093517303467] [-2.3425819873809814:1.1365542411804199] [-2.0257787704467773:2.0731065273284912] [-2.1492326259613037:1.2588971853256226] [-1.6729024648666382:1.6092730760574341] [-0.94724792242050171:2.5936918258666992] [-2.3309159278869629:2.6074597835540771] [-1.6197775602340698:2.0998377799987793] [-1.305755615234375:1.4139416217803955] [-2.1182107925415039:1.8580734729766846] [-1.3852750062942505:1.0371664762496948] [-2.9138104915618896:1.1460685729980469] [-2.1536228656768799:1.3503996133804321] [-1.2758606672286987:1.9237542152404785] [-2.7760989665985107:1.5211695432662964] [-1.354124903678894:1.8698972463607788] [-1.4907891750335693:2.0062763690948486] [-1.2905418872833252:1.8961625099182129] [-1.6189429759979248:1.432297945022583] [-1.7494534254074097:1.3236805200576782] [-1.3083704710006714:2.3087699413299561] [-1.5980231761932373:1.7240612506866455] [-2.7399203777313232:1.0761334896087646] [-1.9893864393234253:2.1976470947265625] [-1.4410872459411621:1.841424822807312] [-2.2666969299316406:1.6162475347518921] [-2.5476386547088623:1.5801289081573486] [-1.4387102127075195:2.6511111259460449] [-1.2345476150512695:2.0754289627075195] [-2.046130895614624:1.3423651456832886] [-1.5394642353057861:2.8144643306732178] [-1.4098892211914062:1.5542173385620117] [-1.4941825866699219:1.4576908349990845] [-1.8252842426300049:1.8849692344665527] [-1.9060544967651367:3.3504931926727295] [-1.7805619239807129:1.367667555809021] [-1.9205640554428101:1.3928346633911133] [-1.6908031702041626:1.6843491792678833] [-2.4523086547851562:1.4575173854827881] [-1.6812049150466919:1.6962450742721558] [-2.2237253189086914:1.2326498031616211] [-2.7389488220214844:1.8636990785598755] [-1.5344170331954956:2.3828372955322266] [-2.1950900554656982:1.9718290567398071] [-2.1270318031311035:1.8354809284210205] [-1.3632543087005615:1.2170307636260986] [-2.868309497833252:1.6768473386764526] [-1.8804211616516113:2.4885187149047852] [-2.2007791996002197:1.761455774307251] [-1.5437910556793213:2.5299785137176514] [-2.1837394237518311:1.6330797672271729] [-1.6942285299301147:1.6437908411026001] [-2.3679609298706055:1.564217209815979] [-1.4809349775314331:1.6913188695907593] [-1.0403051376342773:2.5361592769622803] [-1.9605064392089844:1.5013819932937622] [-2.0428435802459717:1.3532953262329102] [-1.2743294239044189:2.158531665802002] [-2.1254494190216064:1.4784009456634521] [-1.1406822204589844:1.9757888317108154] [-1.2566288709640503:1.2794692516326904] [-1.2955507040023804:2.1164798736572266] [-1.1596658229827881:1.4658455848693848] [-2.0309891700744629:0.98986256122589111] [-1.2390066385269165:0.96209621429443359] [-2.0532872676849365:1.8768140077590942] [-1.2010571956634521:2.320183277130127] [-2.5792841911315918:1.714080810546875] [-2.6559517383575439:1.4948288202285767] [-1.5158671140670776:1.7928051948547363] [-2.3210406303405762:1.8315805196762085] [-1.6354930400848389:1.7229347229003906] [-1.032914400100708:1.8898926973342896] [-2.4134466648101807:1.857540488243103] [-2.7988696098327637:1.4022790193557739] [-1.5481595993041992:2.0555944442749023] [-2.2290198802947998:1.6866635084152222] [-1.8851172924041748:1.0749273300170898] [-1.3302544355392456:2.2649283409118652] [-1.7055175304412842:2.3074779510498047] [-2.7058990001678467:1.7746880054473877] [-2.5723261833190918:1.9430464506149292] [-1.599666953086853:2.4889833927154541] [-2.0477974414825439:1.3568994998931885] [-1.9424797296524048:1.9078726768493652] [-1.4894198179244995:1.5097049474716187] [-2.6571667194366455:1.4734536409378052] [-1.2535656690597534:1.3143578767776489] [-2.3300485610961914:1.6831275224685669] [-1.4688103199005127:2.4274885654449463] [-1.4697355031967163:2.1016483306884766] [-0.87443649768829346:2.5543560981750488] [-1.7810351848602295:1.3202571868896484] [-1.837111234664917:1.5818029642105103] [-1.8400363922119141:2.9119048118591309] [-1.4974844455718994:1.3776051998138428] [-1.7156158685684204:1.1371761560440063] [-2.3168811798095703:2.718609094619751] [-1.6530464887619019:1.539087176322937] [-1.9741755723953247:1.9832624197006226] [-1.9577620029449463:1.7711801528930664] [-1.1856554746627808:1.9301742315292358] [-1.1083375215530396:1.4399154186248779] [-2.0756826400756836:1.3914637565612793] [-1.2997406721115112:1.9010818004608154] [-2.0918176174163818:1.8591228723526001] [-1.8213961124420166:2.5323920249938965] [-1.2918729782104492:1.2879840135574341] [-1.4328755140304565:2.3299102783203125] [-1.7658779621124268:1.5837724208831787] [-2.6394534111022949:1.2306151390075684] [-1.9264653921127319:2.2957086563110352] [-1.7330846786499023:1.8167624473571777] [-2.0570297241210938:2.3687818050384521] [-2.4944479465484619:1.775367259979248] [-2.4850564002990723:1.6272357702255249] [-1.5356391668319702:2.1432356834411621] [-1.9424731731414795:1.4643884897232056] [-1.0283150672912598:2.2334604263305664] [-1.9713921546936035:2.2115249633789062] [-1.1960350275039673:1.4753025770187378] [-1.309813380241394:2.2417304515838623] [-1.7562099695205688:1.19692063331604] [-2.4081790447235107:1.6815444231033325] [-1.4606140851974487:1.6391525268554688] [-1.7745354175567627:1.6751039028167725] [-1.5391062498092651:1.4300967454910278] [-1.8935843706130981:2.3346333503723145] [-1.4469026327133179:1.2996795177459717] [-1.9497009515762329:1.4579288959503174] [-1.2704710960388184:1.7184885740280151] [-3.2071754932403564:1.6276992559432983] [-1.53737473487854:1.856892466545105] [-1.564406156539917:1.8075133562088013] [-2.1706035137176514:1.9977132081985474] [-1.3552436828613281:1.4861950874328613] [-2.1773574352264404:1.9167803525924683] [-1.7897040843963623:1.9872962236404419] [-2.014826774597168:2.0242068767547607] [-1.8932182788848877:1.3701540231704712] [-2.2904295921325684:1.8061897754669189] [-0.94996637105941772:2.2505860328674316] [-1.4484643936157227:2.1262228488922119] [-1.4503672122955322:2.0975370407104492] [-1.9093713760375977:1.8232512474060059] [-2.2837629318237305:2.058638334274292] [-1.7973170280456543:2.2045302391052246] [-1.6268144845962524:2.2874438762664795] [-1.337861180305481:1.4691694974899292] [-2.0322742462158203:1.1644699573516846] [-1.6575610637664795:1.4805320501327515] [-1.3717656135559082:1.8578102588653564] [-1.9003816843032837:1.4780905246734619] [-2.238940954208374:1.3474043607711792] [-1.533427357673645:1.8179340362548828] [-1.8029850721359253:1.8621143102645874] [-3.4225859642028809:1.2771084308624268] [-2.3823041915893555:2.230388879776001] [-1.4295170307159424:1.8213987350463867] [-2.4548101425170898:1.2558684349060059] [-1.8988934755325317:1.4711875915527344] [-2.5012893676757812:1.7620604038238525] [-1.2507816553115845:1.4948878288269043] [-2.0800764560699463:1.474905252456665] [-1.2576534748077393:1.8442752361297607] [-1.9650940895080566:2.5861287117004395] [-0.24828855693340302:8.5560884475708008] [-1.145293116569519:1.7490336894989014] [-1.569275975227356:1.1601827144622803] [-1.9232915639877319:1.3773595094680786] [-1.7165313959121704:1.8203423023223877] [-1.5938783884048462:1.5320621728897095] [-2.0690314769744873:1.3798915147781372] [-1.3712832927703857:2.2159605026245117] [-1.4878379106521606:1.6512027978897095] [-2.0352513790130615:1.0981870889663696] [-1.7742941379547119:1.2994320392608643] [-1.2144623994827271:1.7751888036727905] [-1.3628220558166504:2.553722620010376] [-1.5957298278808594:3.373002290725708] [-1.684720516204834:2.0149950981140137] [-1.5667475461959839:2.4478092193603516] [-2.4026758670806885:1.5848603248596191] [-2.4258205890655518:1.6863946914672852] [-1.0736674070358276:1.4161709547042847] [-2.0255415439605713:1.7863366603851318] [-1.9846999645233154:1.2468438148498535] [-1.7029968500137329:1.7473233938217163] [-2.0918264389038086:1.3164352178573608] [-1.7252497673034668:1.4525575637817383] [-1.575137734413147:1.8394671678543091] [-3.1529643535614014:1.6817519664764404] [-1.1914272308349609:1.641387939453125] [-1.3250061273574829:2.2111997604370117] [-3.1046690940856934:1.1445586681365967] [-2.3193867206573486:1.6872754096984863] [-2.117586612701416:1.8859188556671143] [-1.7228503227233887:2.2895808219909668] [-1.0273982286453247:1.7412295341491699] [-1.5616635084152222:2.8307607173919678] [-1.2834253311157227:3.0990009307861328] [-1.078643798828125:1.8930416107177734] [-1.4763507843017578:1.4027957916259766] [-1.3542042970657349:1.5972281694412231] [-2.074509859085083:1.1185277700424194] [-2.0588972568511963:2.4350924491882324] [-1.0829395055770874:1.4953398704528809] [-1.4900321960449219:1.3773924112319946] [-1.478974461555481:2.0972487926483154] [-1.9737337827682495:1.5837091207504272] [-1.0847854614257812:1.8605614900588989] [-1.9040038585662842:2.9946138858795166] [-2.2530443668365479:1.4850078821182251] [-2.117633581161499:2.7331030368804932] [-2.4585752487182617:1.3175466060638428] [-1.9839555025100708:1.9827991724014282] [-1.470922589302063:1.4494986534118652] [-1.7034400701522827:1.4869194030761719] [-1.5278425216674805:1.1186410188674927] [-1.5212396383285522:1.9423071146011353] [-1.9704271554946899:2.3750708103179932] [-1.2988848686218262:1.6244959831237793] [-2.5844721794128418:1.4806075096130371] [-1.0483076572418213:2.2413198947906494] [-0.87173366546630859:2.0153446197509766] [-2.5522513389587402:2.0438675880432129] [-2.5842082500457764:1.7316617965698242] [-2.4357178211212158:0.9180450439453125] [-2.2086672782897949:2.2788448333740234] [-2.2273237705230713:2.2236649990081787] [-2.9128966331481934:1.2961993217468262] [-1.5129396915435791:2.0709524154663086] [-1.2767660617828369:1.4068267345428467] [-1.0208967924118042:1.8812891244888306] [-1.2344146966934204:2.3091812133789062] [-2.7180960178375244:1.5034986734390259] 